#############################################################################
## Copyright (c) 1996, Carnegie Mellon University, Cambridge University,
## Ronald Rosenfeld and Philip Clarkson
## Version 3, Copyright (c) 2006, Carnegie Mellon University 
## Contributors includes Wen Xu, Ananlada Chotimongkol, 
## David Huggins-Daines, Arthur Chan and Alan Black 
#############################################################################
=============================================================================
===============  This file was produced by the CMU-Cambridge  ===============
===============     Statistical Language Modeling Toolkit     ===============
=============================================================================
This is a 3-gram language model, based on a vocabulary of 8739 words,
  which begins "", "+", "1/12"...
This is a CLOSED-vocabulary model
  (OOVs eliminated from training data and are forbidden in test data)
Good-Turing discounting was applied.
1-gram frequency of frequency : 6059 
2-gram frequency of frequency : 21731 2057 749 325 210 122 93 
3-gram frequency of frequency : 33605 2167 677 318 194 101 78 
1-gram discounting ratios : 1.00 
2-gram discounting ratios : 0.17 0.53 0.57 0.80 0.69 0.89 0.83 
3-gram discounting ratios : 0.12 0.46 0.62 0.76 0.62 0.90 0.77 
This file is in the ARPA-standard format introduced by Doug Paul.

p(wd3|wd1,wd2)= if(trigram exists)           p_3(wd1,wd2,wd3)
                else if(bigram w1,w2 exists) bo_wt_2(w1,w2)*p(wd3|wd2)
                else                         p(wd3|w2)

p(wd2|wd1)= if(bigram exists) p_2(wd1,wd2)
            else              bo_wt_1(wd1)*p_1(wd2)

All probs and back-off weights (bo_wt) are given in log10 form.

Data formats:

Beginning of data mark: \data\
ngram 1=nr            # number of 1-grams
ngram 2=nr            # number of 2-grams
ngram 3=nr            # number of 3-grams

\1-grams:
p_1     wd_1 bo_wt_1
\2-grams:
p_2     wd_1 wd_2 bo_wt_2
\3-grams:
p_3     wd_1 wd_2 wd_3 

end of data mark: \end\

\data\
ngram 1=8739
ngram 2=25799
ngram 3=37590

\1-grams:
-4.7534 	-0.0801
-4.4523 +	-0.0801
-4.7534 1/12	0.0039
-4.7534 1/3	-0.0801
-4.7534 1/4	-0.0801
-4.7534 107	-0.0801
-4.7534 140	-0.0801
-4.7534 1939	0.0039
-4.4523 2	-0.2481
-4.7534 214	-0.0801
-4.7534 23	0.0039
-4.7534 2315	0.0039
-4.2762 3	0.0039
-4.7534 40	-0.0801
-4.2762 5	-0.1470
-4.7534 70	0.0039
-4.7534 87	0.0039
-0.7547 </s>	-3.9147
-0.7546 <s>	-0.3056
-4.7534 a	-0.0801
-4.7534 hе	-0.0801
-4.7534 hо	-0.0750
-4.7534 lukos	-0.0801
-4.7534 ox	-0.0801
-4.4523 xa	-0.0752
-4.7534 xа	-0.0801
-1.6877 а	-0.4111
-4.7534 абая	0.0039
-4.4523 абсолютно	0.0039
-4.4523 ав	0.0039
-4.4523 аварий	-0.0724
-4.7534 аветович	0.0039
-4.7534 авиамоделизм	0.0039
-4.4523 авиации	-0.0782
-4.7534 авиация	-0.0801
-4.7534 авраам	-0.0801
-4.7534 автомата	-0.0801
-4.4523 автоматов	-0.0775
-4.4523 автоматчики	0.0039
-4.7534 автомобиль	-0.0798
-4.7534 автондил	0.0039
-4.7534 авторитет	0.0039
-3.4311 ага	-0.3953
-4.7534 агафья	-0.0801
-4.7534 агитатор	-0.0801
-4.7534 агитатором	-0.0801
-4.7534 агния	-0.0801
-4.7534 адамова	0.0039
-4.7534 адмирал	-0.0731
-4.4523 адреса	0.0039
-4.7534 адъюнктуру	0.0039
-4.7534 аж	-0.0801
-3.9082 ай	-0.2537
-4.7534 айда	-0.0791
-4.7534 академию	-0.0801
-4.7534 аккомпаниатор	-0.0801
-4.7534 аккумуляторы	-0.0801
-4.7534 акробат	-0.0793
-4.7534 аксай	-0.0801
-4.7534 акт	0.0039
-4.7534 актер	-0.0711
-4.7534 актрисам	-0.0801
-4.7534 акустик	-0.0752
-4.7534 алейниковым	-0.0798
-3.9082 александр	-0.2058
-4.7534 александров	-0.0731
-4.2762 александрович	-0.2802
-4.7534 александрува	-0.0728
-4.1513 алексеев	-0.0901
-4.7534 алексеевич	0.0039
-4.1513 алексей	-0.0800
-4.7534 алена	-0.0801
-4.7534 аленка	-0.0760
-4.4523 алеша	-0.3251
-4.7534 али	-0.0801
-4.7534 алика	-0.0760
-4.7534 алины	0.0039
-4.7534 алкснис	-0.0801
-4.4523 алло	0.0167
-4.7534 алма	-0.0801
-4.7534 алоиз	-0.0801
-4.7534 алтаре	-0.0801
-4.7534 аль	-0.0783
-4.7534 альберто	-0.0801
-4.7534 алька	0.0039
-4.7534 альфредо	0.0039
-4.4523 аля	-0.0773
-4.7534 ам	-0.0801
-4.7534 амальгама	0.0039
-4.7534 амеба	0.0039
-4.7534 американские	-0.0801
-4.7534 американцы	0.0039
-4.1513 анатолий	0.0158
-4.7534 анатолия	-0.0801
-4.7534 ангел	0.0039
-4.7534 англии	0.0039
-4.7534 английски	-0.0801
-4.7534 английский	-0.0801
-4.7534 английской	0.0039
-4.7534 англичан	0.0039
-4.7534 андреевич	0.0039
-3.9752 андрей	-0.3014
-4.7534 андруш	-0.0711
-4.7534 андрюша	0.0039
-4.7534 андрюшенька	0.0039
-4.7534 аникин	0.0039
-4.7534 аникину	-0.0800
-4.7534 анка	-0.0801
-4.7534 анкерок	-0.0801
-4.4523 анной	-0.0797
-4.7534 ано	0.0039
-4.7534 анонимка	0.0039
-4.7534 антимире	0.0039
-4.7534 антипов	-0.0801
-4.2762 антон	-0.1341
-4.4523 антона	-0.3321
-4.7534 антонина	0.0039
-4.7534 антониной	-0.0801
-4.7534 антонович	0.0039
-4.7534 антоном	0.0039
-4.7534 анщик	0.0039
-4.4523 аня	0.0059
-4.7534 апанас	-0.0799
-4.7534 апельсины	0.0039
-4.7534 аппаратов	-0.0801
-4.7534 аппарели	-0.0801
-4.7534 аппетит	-0.0801
-4.7534 аптеке	0.0039
-4.7534 апчхи	0.0039
-4.7534 арбуз	0.0039
-4.7534 арбузы	-0.0800
-4.7534 аргунов	0.0039
-4.7534 арденнах	0.0039
-4.7534 арестован	0.0039
-4.7534 арзрум	-0.0750
-4.7534 арифметике	0.0039
-4.7534 арифметики	0.0039
-4.7534 арифметику	0.0039
-4.7534 армией	0.0039
-3.8502 армии	-0.0804
-4.4523 армию	0.0099
-4.7534 армия	0.0039
-4.7534 армстронг	-0.0711
-4.7534 артем	0.0039
-4.7534 артемов	0.0039
-4.7534 артиллерийский	-0.0801
-4.7534 артиллериштрассе	-0.0801
-4.7534 артист	-0.0801
-4.7534 артналет	0.0039
-4.7534 архимеды	0.0039
-4.7534 аршин	0.0039
-4.7534 аршина	-0.0791
-4.7534 аса	-0.0796
-4.7534 асейчас	-0.0800
-4.7534 астролюка	0.0039
-4.7534 астурию	0.0039
-4.7534 ась	-0.0731
-4.7534 аська	-0.0799
-4.7534 асютка	-0.0801
-4.4523 ася	-0.0771
-4.7534 ат	-0.0760
-4.7534 атака	0.0039
-4.7534 атаке	0.0039
-4.7534 атаковать	0.0039
-4.4523 атаку	0.0039
-4.4523 атакуем	0.0042
-4.7534 атаман	0.0039
-4.7534 атч	0.0039
-4.7534 аты	0.0039
-4.7534 аугусте	-0.0794
-4.7534 афанасий	-0.0801
-4.7534 африки	0.0039
-3.4109 ах	-0.0440
-4.7534 ахнула	-0.0801
-3.9752 аэродром	-0.2917
-4.4523 аэродрома	-0.2481
-4.7534 аэродромах	0.0039
-4.7534 аэродроме	0.0039
-4.4523 аэродромы	-0.0793
-4.7534 аэроклубе	-0.0801
-4.7534 аэрокобре	0.0039
-4.7534 аэропланы	0.0039
-4.0544 б	0.0129
-4.7534 б_о_л_ь_ш_а_я	-0.0801
-4.4523 баб	0.0039
-4.4523 баба	-0.0801
-4.7534 бабаджаняном	0.0039
-4.7534 бабикова	0.0039
-4.7534 бабуль	-0.0795
-4.7534 бабуся	-0.0801
-3.6394 бабушка	-0.2598
-4.7534 бабушке	-0.0801
-4.7534 бабушкиному	-0.0801
-4.7534 бабушкой	-0.0801
-4.7534 баграш	-0.0799
-4.7534 базар	0.0039
-4.4523 байда	0.0041
-4.7534 байдуков	0.0039
-4.7534 баки	-0.0801
-4.4523 бал	-0.0709
-4.7534 балда	-0.0801
-4.7534 балет	0.0039
-4.7534 баллов	0.0039
-4.7534 балтийском	-0.0801
-4.7534 балуется	0.0039
-4.7534 бальцер	0.0039
-4.7534 бананов	-0.0783
-4.1513 банк	-0.1838
-4.7534 банке	0.0039
-4.7534 банку	0.0039
-4.7534 баню	-0.0801
-4.4523 барабан	0.0059
-4.4523 барабаном	0.0073
-4.7534 барабанщик	-0.0801
-4.7534 барабанщиками	0.0039
-4.2762 барабанщики	-0.0801
-4.7534 барабанщиков	-0.0800
-4.7534 баранину	0.0039
-4.7534 баранкин	-0.0801
-4.7534 баранкой	-0.0801
-4.7534 баранов	0.0039
-4.7534 барбарисов	0.0039
-4.7534 барбейское	-0.0801
-4.2762 барберен	-0.1457
-4.7534 баржей	0.0039
-4.7534 баринова	-0.0800
-4.7534 баро	0.0039
-4.7534 барометр	0.0039
-4.4523 барон	0.0039
-4.7534 барсук	-0.0801
-4.7534 бастеру	-0.0801
-4.2762 батальон	-0.0791
-4.4523 батальона	-0.2481
-4.7534 батальонами	-0.0787
-4.7534 батальоне	-0.0801
-4.7534 батальонный	-0.0801
-4.4523 батальоном	0.0056
-4.7534 батарею	0.0039
-4.7534 батарея	-0.0793
-4.7534 батареями	0.0039
-4.4523 бате	-0.3321
-4.7534 батора	0.0039
-4.7534 батти	-0.0788
-4.7534 батька	-0.0773
-4.4523 батюшка	-0.0726
-4.1513 батюшки	-0.1843
-4.7534 батюшкой	-0.0696
-4.7534 бахнет	0.0039
-4.7534 бахтин	0.0039
-4.7534 башни	0.0039
-4.7534 башня	0.0039
-4.7534 баяне	-0.0801
-4.7534 баянист	0.0039
-4.7534 беги	-0.0800
-4.7534 беглянка	-0.0801
-4.7534 бегство	-0.0801
-4.7534 бегунов	0.0039
-4.4523 бегут	-0.2481
-4.2762 беда	-0.1468
-4.7534 бедненький	-0.0801
-4.7534 бедняжка	-0.0798
-4.7534 бежал	-0.0796
-4.7534 бежали	-0.0798
-4.2762 бежать	-0.1452
-4.2762 беженка	0.0168
-4.4523 бежим	-0.0751
-4.4523 бежит	0.0046
-4.1513 бежишь	-0.1890
-3.2909 без	-0.1319
-4.7534 бездари	0.0039
-4.7534 безлошадные	0.0039
-4.7534 безмен	-0.0801
-4.7534 безногие	0.0039
-4.7534 безобразие	-0.0794
-4.7534 безопасней	0.0039
-4.7534 безупречно	0.0039
-4.7534 безупречный	0.0039
-4.1513 безусловно	-0.1032
-4.7534 белобородов	0.0039
-4.7534 белоусов	0.0039
-4.7534 белую	-0.0791
-4.7534 белхатуве	-0.0800
-4.7534 белые	-0.0799
-4.2762 белый	-0.1470
-4.7534 бельэтаж	-0.0801
-4.7534 бемби	0.0039
-4.0544 бензин	0.0057
-4.7534 бензину	-0.0800
-4.0544 берег	-0.4053
-4.4523 берега	0.0039
-4.7534 берегись	-0.0801
-4.0544 берегу	-0.0792
-4.2762 береза	0.0103
-4.7534 березка	-0.0796
-4.7534 берете	0.0039
-4.7534 берешь	0.0039
-4.1513 бери	-0.1040
-4.7534 берлине	-0.0788
-4.7534 берлоге	0.0039
-4.7534 бертой	-0.0775
-4.4523 беру	0.0053
-4.7534 беседах	0.0039
-4.7534 беседовать	0.0039
-4.7534 беслан	0.0039
-4.2762 беспокоит	0.0040
-4.7534 беспокоится	0.0039
-4.7534 беспокойся	-0.0800
-4.4523 беспокойтесь	-0.0759
-4.4523 бесполезно	-0.2481
-4.7534 беспощадный	-0.0801
-4.7534 беспрецедентный	0.0039
-4.7534 бессмертный	0.0039
-4.7534 бессовестный	0.0039
-4.7534 бесспорно	0.0039
-4.7534 бесхозный	0.0039
-4.7534 библиотеки	-0.0801
-4.7534 библиотечная	0.0039
-4.7534 бизнес	0.0039
-4.7534 бил	0.0039
-4.1513 билет	-0.2434
-4.7534 билета	-0.0783
-4.7534 билетами	0.0039
-4.7534 билетик	-0.0800
-4.7534 билеты	-0.0763
-4.4523 били	-0.0761
-4.7534 бим	0.0039
-4.7534 бинни	-0.0728
-4.7534 бинт	0.0039
-4.7534 бинты	-0.0787
-4.7534 биография	0.0039
-4.7534 бирюкову	0.0039
-4.1513 бить	-0.1891
-4.7534 благодарит	-0.0790
-4.7534 благодарю	-0.0790
-4.7534 благодушен	0.0039
-4.4523 благополучно	0.0039
-4.7534 благоразумен	0.0039
-4.4523 благородие	0.0085
-4.4523 бледный	0.0046
-4.7534 блейк	0.0039
-4.4523 блеск	-0.0775
-4.7534 блеску	-0.0801
-4.7534 ближе	-0.0728
-4.7534 близкий	-0.0801
-4.2762 близко	0.0072
-4.7534 блок	-0.0801
-4.7534 блока	0.0039
-4.7534 блоке	-0.0801
-4.7534 блошка	0.0039
-4.7534 блуданул	0.0039
-4.7534 бо	-0.0801
-4.7534 боб	0.0039
-4.1513 бобик	-0.0639
-4.2762 бог	0.0123
-4.7534 бога	0.0039
-4.7534 богам	-0.0761
-4.7534 богатенькие	-0.0795
-4.7534 богатым	-0.0801
-4.7534 богачом	0.0039
-4.7534 богашовым	-0.0801
-4.7534 богданыч	0.0039
-4.7534 боги	-0.0801
-4.7534 богова	-0.0801
-4.7534 богодельню	-0.0760
-4.7534 богу	-0.0801
-4.7534 бое	0.0039
-4.4523 боевая	-0.0801
-4.7534 боевое	-0.0801
-4.1513 боевой	0.0040
-4.7534 боевые	-0.0801
-4.7534 боевым	-0.0801
-4.4523 боевых	-0.0801
-4.7534 боепитания	0.0039
-4.4523 боеприпасами	0.0039
-4.4523 боец	0.0039
-4.7534 боже	-0.0731
-4.7534 боимся	0.0039
-4.7534 боись	-0.0801
-4.4523 боитесь	-0.0793
-4.2762 боится	-0.2802
-3.7533 боишься	-0.3106
-3.8502 бой	-0.2108
-4.4523 бойся	0.0125
-4.7534 бойтесь	-0.0771
-4.7534 бойцов	0.0039
-4.2762 бойцы	-0.2802
-4.7534 бока	-0.0801
-4.7534 боком	0.0039
-4.7534 боксер	-0.0800
-4.4523 более	-0.0696
-4.4523 болеет	0.0040
-4.7534 болеете	0.0039
-4.7534 болезнь	0.0039
-4.7534 болельщиков	0.0039
-4.4523 болен	-0.2481
-4.4523 болею	-0.0801
-3.7533 болит	-1.0375
-4.7534 болотов	0.0039
-4.7534 болтает	-0.0801
-4.7534 болтаетесь	0.0039
-4.7534 болтай	-0.0711
-4.7534 болтаю	0.0039
-4.7534 больная	-0.0696
-4.7534 больнее	0.0039
-3.7533 больно	-0.1580
-4.2762 больного	-0.1470
-4.7534 больной	-0.0728
-4.7534 больны	0.0039
-4.7534 большая	-0.0778
-3.3731 больше	-0.1982
-4.7534 большевик	0.0039
-4.7534 большевики	0.0039
-4.7534 большевистская	-0.0801
-4.7534 большевицкого	0.0039
-4.4523 большие	0.0039
-4.7534 большинством	0.0039
-4.2762 большое	-0.2308
-4.0544 большой	-0.0722
-4.7534 большую	-0.0801
-4.7534 болят	-0.0801
-4.7534 бомб	-0.0801
-4.7534 бомба	0.0039
-4.4523 бомбами	-0.0727
-4.7534 бомбардировщики	-0.0773
-4.7534 бомбежка	-0.0798
-4.4523 бомбили	-0.2481
-4.7534 бомбить	-0.0796
-4.7534 бомбу	0.0039
-4.4523 бомбы	0.0041
-4.4523 бомбят	0.0039
-4.7534 бондарь	0.0039
-4.7534 боре	0.0039
-3.9752 борис	-0.0641
-4.7534 борисович	-0.0799
-4.4523 борисовна	-0.0695
-4.7534 борисовной	0.0039
-4.7534 боровом	-0.0796
-4.4523 борода	0.0090
-4.7534 бородач	0.0039
-4.7534 бороду	-0.0786
-4.4523 борт	0.0039
-4.7534 бортом	-0.0801
-4.7534 борту	0.0039
-4.7534 бору	-0.0801
-4.7534 борщ	0.0039
-4.7534 борька	0.0039
-4.4523 боря	0.0125
-4.7534 бостоны	0.0039
-4.7534 ботве	0.0039
-4.4523 боцман	0.0085
-4.4523 боши	0.0039
-4.7534 бою	-0.0801
-4.0544 боюсь	0.0050
-4.7534 боя	0.0039
-4.7534 боялась	0.0039
-4.7534 боялись	-0.0801
-4.7534 боялся	0.0039
-4.7534 боян	-0.0731
-4.4523 боятся	-0.0794
-4.2762 бояться	-0.1469
-4.7534 браво	-0.0782
-4.7534 браззавиль	0.0039
-4.2762 брак	0.0041
-4.4523 брали	0.0058
-4.2762 брат	-0.0801
-4.7534 брата	-0.0801
-4.7534 брательника	0.0039
-4.2762 братец	-0.0606
-4.4523 братик	0.0046
-4.7534 братишка	0.0039
-4.7534 братку	-0.0752
-4.0544 браток	-0.0631
-4.4523 братом	0.0039
-4.1513 братцы	0.0174
-4.2762 брать	0.0040
-4.7534 братья	-0.0801
-4.7534 бревна	0.0039
-4.7534 бревне	0.0039
-4.4523 бред	-0.2481
-4.7534 бредит	0.0039
-4.7534 бремзер	-0.0798
-4.7534 бригаде	0.0039
-4.7534 бригадиру	-0.0801
-4.7534 бригадный	-0.0801
-4.7534 бригады	0.0039
-4.7534 броды	-0.0801
-4.4523 бродяга	-0.2481
-4.7534 броневик	-0.0800
-4.4523 бронетранспортер	0.0039
-4.7534 бронзовые	-0.0793
-4.7534 броня	0.0039
-4.7534 бросаем	0.0039
-4.4523 бросил	-0.0801
-4.1513 брось	-0.0951
-4.7534 бросьте	0.0039
-4.7534 брутовский	0.0039
-4.7534 брысь	-0.0785
-4.7534 брэд	-0.0728
-4.7534 брюки	-0.0775
-4.7534 брюнет	-0.0769
-4.7534 брюхо	-0.0791
-4.7534 брянска	0.0039
-4.7534 брянском	-0.0801
-4.7534 бубенцов	0.0039
-4.7534 буг	0.0039
-4.7534 бугу	-0.0801
-3.0631 будем	-0.2117
-2.8783 будет	-0.1678
-3.3916 будете	-0.0520
-3.3731 будешь	-0.2785
-4.0544 будто	-0.0711
-3.3731 буду	-0.0889
-3.6072 будут	-0.3933
-3.9082 будь	-0.0680
-4.7534 будят	-0.0773
-4.7534 букв	-0.0800
-4.7534 буквам	0.0039
-4.7534 буквы	-0.0801
-4.7534 буксира	-0.0801
-4.7534 буксиры	-0.0798
-4.7534 булаев	0.0039
-4.7534 булочка	0.0039
-4.7534 бум	-0.0801
-4.4523 бумаги	-0.0775
-4.7534 бураков	0.0039
-4.7534 буржуи	-0.0800
-4.7534 буржуя	0.0039
-4.7534 бурон	0.0039
-4.7534 бурона	0.0039
-4.7534 бурундуки	0.0039
-4.7534 бусинки	0.0039
-4.7534 бутылке	-0.0801
-4.7534 бутылку	0.0039
-4.7534 бутырев	-0.0801
-4.7534 бухту	0.0039
-4.7534 бушлат	-0.0801
-3.0373 бы	-0.0917
-3.7991 бывает	-0.1540
-4.7534 бываешь	0.0039
-4.7534 бывал	0.0039
-4.7534 бывали	0.0039
-4.4523 бывают	-0.0799
-4.7534 бывшего	-0.0801
-4.4523 бывший	0.0087
-4.7534 бык	0.0039
-4.7534 быков	0.0039
-3.2218 был	-0.0447
-3.6741 была	-0.2597
-3.7119 были	-0.0466
-3.0373 было	-0.1913
-3.9752 быстрее	-0.1062
-3.9752 быстро	-0.0433
-2.9404 быть	-0.1141
-4.7534 бьернара	-0.0728
-4.2762 бьет	0.0061
-3.9752 бьют	-0.3042
-4.7534 бэтмен	0.0039
-4.7534 бюро	-0.0801
-4.7534 бя	-0.0801
-2.0578 в	-0.2525
-4.7534 вагнеру	0.0039
-4.7534 вагон	-0.0801
-4.4523 вагоне	0.0039
-4.7534 вади	-0.0801
-4.7534 вадим	0.0039
-4.7534 вадя	0.0039
-4.7534 важна	0.0039
-4.1513 важно	-0.6210
-4.7534 важное	-0.0797
-4.7534 важные	-0.0801
-4.7534 важный	-0.0801
-4.7534 ваксу	0.0039
-4.7534 валек	-0.0800
-4.7534 валенсии	0.0039
-4.1513 валентин	-0.1040
-4.2762 валерка	0.0125
-4.7534 валерьевич	-0.0696
-4.4523 валерьич	-0.2481
-4.7534 вали	-0.0800
-4.7534 валь	-0.0799
-4.2762 валька	-0.0709
-4.7534 валюту	0.0039
-4.7534 валя	-0.0731
-4.4523 валялись	-0.3307
-2.6778 вам	-0.1149
-3.2762 вами	-0.2864
-4.7534 ванечка	-0.0801
-4.7534 ванне	0.0039
-4.7534 ванников	-0.0801
-4.7534 ванны	-0.0801
-4.1513 ваню	0.0216
-3.9082 ваня	-0.2360
-4.7534 варваре	0.0039
-4.7534 вареники	0.0039
-4.7534 варшаве	-0.0796
-2.5772 вас	-0.1165
-4.7534 васек	-0.0801
-4.4523 василек	-0.0801
-4.7534 василием	0.0039
-4.7534 василий	-0.0801
-4.7534 василь	-0.0801
-4.4523 васильев	-0.2481
-4.2762 васильевич	0.0058
-4.7534 васильку	0.0039
-4.7534 васин	0.0039
-4.7534 вась	-0.0801
-4.2762 васька	-0.2238
-4.7534 ваську	0.0039
-4.7534 васюк	0.0039
-3.7991 вася	-0.0445
-4.7534 вахту	-0.0752
-3.4523 ваш	-0.0624
-3.3383 ваша	-0.0370
-3.6072 ваше	-0.1086
-4.2762 вашего	-0.0801
-4.4523 вашей	-0.0801
-4.7534 вашем	-0.0801
-4.2762 вашему	-0.2802
-3.6394 ваши	0.0081
-4.2762 вашим	-0.0801
-4.4523 вашими	-0.0801
-4.7534 ваших	-0.0801
-4.4523 вашу	-0.0801
-4.7534 ваю	0.0039
-4.7534 вброд	0.0039
-4.7534 введен	-0.0801
-4.2762 вверх	-0.2802
-4.7534 вволю	-0.0787
-4.4523 вдали	0.0039
-4.2762 вдвоем	-0.1470
-4.7534 вдова	-0.0794
-4.7534 вдоль	-0.0798
-4.7534 вдохновением	0.0039
-3.7119 вдруг	-0.0564
-4.7534 ведает	0.0039
-3.9752 ведет	-0.0456
-4.1513 ведете	-0.2480
-4.4523 ведешь	0.0040
-4.4523 веди	-0.0797
-4.4523 ведите	-0.0792
-4.7534 ведомо	0.0039
-4.7534 ведомый	0.0039
-4.7534 ведомым	-0.0800
-4.4523 веду	-0.0798
-4.7534 ведут	-0.0799
-4.1513 ведущий	0.0039
-4.7534 ведущим	0.0039
-3.1970 ведь	-0.0447
-4.7534 вежливо	-0.0783
-4.7534 везде	0.0039
-4.7534 везделет	0.0039
-4.7534 вездеход	-0.0801
-4.2762 везет	-0.0801
-4.4523 везете	0.0039
-4.4523 везешь	-0.2481
-4.7534 везти	-0.0788
-4.7534 везу	0.0039
-4.4523 везут	-0.2481
-4.7534 вейдлинга	-0.0801
-4.1513 вел	-0.1037
-4.7534 вели	-0.0799
-4.7534 велик	-0.0789
-4.7534 великанше	-0.0801
-4.7534 величают	-0.0790
-4.2762 величество	-0.2802
-4.4523 велосипед	-0.0798
-4.7534 велосипеде	0.0039
-4.7534 веник	-0.0800
-4.7534 вениченко	0.0039
-4.7534 вентиляционная	-0.0801
-4.4523 веня	0.0044
-4.7534 вер	-0.0801
-4.4523 вера	-0.3231
-4.7534 верблюд	-0.0801
-4.7534 верблюды	-0.0787
-4.7534 веревку	0.0039
-4.7534 вери	-0.0801
-4.2762 верите	0.0086
-4.2762 верить	0.0085
-3.9752 веришь	-0.3163
-4.7534 вернемся	0.0039
-4.7534 вернете	-0.0791
-4.7534 вернешься	0.0039
-3.5772 верно	-0.2219
-4.4523 вернулась	-0.0794
-4.2762 вернулись	0.0047
-3.8502 вернулся	-0.4474
-4.7534 вернусь	-0.0760
-4.7534 вернутся	0.0039
-4.7534 вернуть	-0.0801
-4.7534 верны	-0.0789
-4.7534 вероятно	0.0039
-4.7534 вертите	-0.0763
-4.7534 вертолет	0.0039
-4.7534 вертушку	-0.0763
-4.7534 верфи	-0.0799
-4.7534 верховного	-0.0801
-4.7534 верховья	-0.0801
-4.7534 вершине	0.0039
-4.7534 веселее	0.0039
-4.7534 веселей	0.0039
-4.4523 весело	-0.0789
-4.7534 веселое	-0.0797
-4.7534 веселый	0.0039
-4.7534 веселья	0.0039
-4.7534 весит	0.0039
-4.7534 весишь	-0.0801
-4.7534 весной	-0.0786
-4.7534 весну	0.0039
-4.2762 вести	0.0040
-4.7534 весточка	-0.0798
-4.0544 весь	0.0097
-4.7534 весьма	-0.0801
-4.4523 ветер	-0.0801
-4.7534 ветеран	-0.0801
-4.7534 ветерки	0.0039
-4.7534 ветерком	0.0039
-4.7534 веткам	-0.0763
-4.7534 ветрова	0.0039
-4.1513 вечер	0.0153
-4.7534 вечера	-0.0790
-4.7534 вечерам	0.0039
-4.7534 вечерок	0.0039
-4.4523 вечером	0.0045
-4.7534 вечеру	-0.0801
-4.7534 вешают	0.0039
-4.1513 вещами	-0.1896
-4.0544 вещи	-0.4053
-4.4523 вещь	-0.2481
-4.7534 взамен	0.0039
-4.4523 взаправду	0.0039
-4.7534 взбивал	-0.0801
-4.7534 взвесить	-0.0800
-4.7534 взвешиваниями	0.0039
-4.4523 взвода	-0.2481
-4.7534 взводами	-0.0787
-4.4523 взводе	-0.2481
-4.7534 взводом	0.0039
-4.7534 взгляд	-0.0801
-4.4523 взгляните	-0.0773
-4.1513 взглянуть	0.0214
-4.7534 вздохнул	0.0039
-4.7534 вздумай	0.0039
-4.7534 вздыхаешь	-0.0790
-4.7534 взлет	0.0039
-4.7534 взлетать	0.0039
-4.4523 взлете	0.0039
-4.4523 взлетел	-0.2481
-4.4523 взлетели	-0.0797
-4.2762 взлететь	0.0077
-4.7534 взломали	0.0039
-4.7534 взносы	0.0039
-4.7534 взорвется	-0.0795
-4.4523 взрослые	-0.0771
-4.4523 взрыв	-0.2481
-4.4523 взрывать	-0.0800
-3.6072 взял	-0.5689
-4.2762 взяла	-0.1470
-4.2762 взялась	0.0052
-3.8502 взяли	-0.2066
-4.4523 взялись	-0.2481
-4.7534 взялось	0.0039
-4.7534 взялся	0.0039
-4.4523 взят	0.0039
-4.7534 взятых	-0.0801
-3.7119 взять	-0.0250
-4.4523 ви	-0.2481
-4.7534 вигваме	-0.0778
-4.4523 вид	0.0039
-4.4523 видал	-0.0683
-4.7534 видала	0.0039
-4.4523 видали	-0.2481
-4.7534 видать	0.0039
-4.7534 виде	0.0039
-3.4311 видел	-0.4851
-3.7533 видела	-0.1493
-3.5492 видели	-0.0667
-4.0544 видеть	-0.4237
-4.7534 видик	-0.0778
-4.7534 видим	0.0039
-4.4523 видимо	-0.0797
-4.7534 видит	-0.0785
-3.7533 видите	-0.0962
-3.1851 видишь	-0.3769
-4.7534 виднее	-0.0798
-3.7533 видно	-0.2860
-4.7534 видны	-0.0789
-4.1513 виду	0.0130
-3.3916 вижу	-0.2677
-4.0544 вика	0.0143
-4.0544 виктор	-0.1290
-4.7534 виктория	-0.0794
-4.4523 вин	-0.0801
-4.4523 вино	0.0039
-4.0544 виноват	-0.4039
-4.7534 виновато	-0.0799
-4.4523 винтовка	-0.2481
-4.7534 винтовку	0.0039
-4.4523 винтовок	0.0039
-4.7534 вир	-0.0801
-4.4523 висит	-0.0763
-4.7534 витаминов	0.0039
-4.7534 витамины	0.0039
-4.4523 витебск	0.0041
-4.7534 витолю	-0.0799
-4.4523 вицусь	0.0078
-4.7534 включается	0.0039
-4.7534 включат	-0.0798
-4.7534 включить	0.0039
-4.7534 вконец	0.0039
-4.1513 вкусно	-0.1899
-4.7534 вкусные	-0.0782
-4.7534 вкусу	0.0039
-4.7534 владек	0.0039
-4.7534 владечек	0.0039
-4.4523 владимир	-0.0801
-4.7534 владимире	0.0039
-4.7534 владимирович	-0.0801
-4.7534 власовец	0.0039
-4.7534 власовцы	0.0039
-4.4523 власть	0.0039
-4.7534 влево	0.0039
-4.4523 влез	-0.2481
-4.7534 влезу	0.0039
-4.1513 влетит	-0.1900
-4.4523 влипнем	-0.0788
-4.7534 влопаемся	-0.0793
-4.7534 влюбился	0.0039
-3.7119 вместе	-0.1835
-4.4523 вместо	-0.0801
-4.7534 вмурована	-0.0763
-4.4523 вниз	0.0039
-4.7534 внизу	-0.0801
-4.7534 вник	-0.0763
-4.7534 внимания	0.0039
-4.7534 внимательнее	0.0039
-4.4523 внутри	0.0039
-4.7534 внучек	-0.0799
-4.7534 внучка	0.0039
-4.7534 внучки	-0.0728
-3.6741 во	-0.1015
-4.7534 вовка	-0.0798
-4.7534 вовой	0.0039
-4.7534 вовремя	0.0039
-4.2762 вовсе	0.0181
-4.2762 вода	-0.0773
-4.4523 водил	-0.0800
-4.7534 водителей	-0.0801
-4.7534 водитель	0.0039
-4.7534 водить	-0.0801
-4.7534 водицы	-0.0801
-4.7534 водички	0.0039
-4.7534 водка	0.0039
-4.7534 водки	-0.0774
-4.4523 водовозы	-0.2481
-4.7534 водонапорная	-0.0801
-4.7534 водопад	-0.0789
-4.7534 водопровод	0.0039
-4.4523 воду	0.0101
-3.7533 воды	-0.1463
-4.4523 воевал	-0.0751
-4.7534 воевали	0.0039
-4.0544 воевать	-0.1420
-4.7534 военнопленные	0.0039
-4.7534 военную	-0.0801
-4.7534 военные	-0.0790
-4.7534 военпреду	-0.0801
-4.7534 вожатая	0.0039
-4.7534 вождь	0.0039
-4.4523 возвращается	0.0044
-4.7534 возвращайтесь	-0.0763
-4.7534 возвращаться	-0.0728
-4.7534 возвращаются	0.0039
-4.7534 возглавлял	-0.0801
-4.7534 воздержался	0.0039
-4.4523 воздух	0.0129
-3.9752 воздухе	-0.3032
-4.7534 воздушного	-0.0801
-4.7534 воздушные	-0.0801
-4.7534 вози	-0.0801
-4.4523 возле	-0.0801
-4.7534 возможен	-0.0801
-4.4523 возможно	-0.2481
-4.7534 возможность	-0.0801
-4.7534 возмутительно	-0.0752
-4.7534 возникла	-0.0778
-4.7534 возница	0.0039
-4.2762 возражаешь	-0.2802
-3.9752 возьмем	-0.0617
-4.4523 возьмет	-0.0801
-4.4523 возьмете	-0.2481
-4.1513 возьмешь	-0.1040
-4.4523 возьми	-0.0801
-4.1513 возьмите	-0.0763
-4.2762 возьму	0.0040
-4.7534 возьмут	0.0039
-4.7534 воинов	-0.0801
-4.7534 войбокало	0.0039
-4.7534 войдите	0.0039
-3.9082 война	-0.2400
-4.7534 войне	0.0039
-4.7534 войной	0.0039
-4.7534 войну	0.0039
-4.4523 войны	0.0039
-4.7534 войск	0.0039
-4.2762 войска	0.0041
-4.7534 войсках	0.0039
-4.2762 войти	-0.2802
-4.7534 вокзал	0.0039
-4.7534 вокруг	-0.0801
-4.7534 волк	0.0039
-4.7534 волка	0.0039
-4.7534 волки	0.0039
-4.4523 волков	-0.2481
-4.7534 волкова	-0.0728
-4.4523 волнуетесь	0.0039
-4.4523 волнуешься	-0.2481
-4.7534 волнуйся	0.0039
-4.7534 володенька	0.0039
-4.7534 володи	-0.0787
-4.1513 володька	-0.0953
-4.2762 володя	0.0236
-4.7534 волокут	-0.0799
-4.7534 волосики	0.0039
-4.7534 волчонок	-0.0800
-4.4523 волшебник	0.0039
-4.7534 волшебниц	-0.0801
-4.7534 волшебница	-0.0801
-4.7534 волшебный	-0.0801
-4.4523 вольно	0.0039
-3.7119 вон	-0.2109
-4.7534 вона	0.0039
-4.7534 воно	-0.0801
-4.7534 вонь	0.0039
-4.7534 воняет	0.0039
-4.7534 воображаемый	-0.0801
-4.7534 воображение	0.0039
-3.9082 вообще	-0.0517
-4.7534 вооружение	0.0039
-3.9752 вопрос	-0.1421
-4.7534 вопросов	-0.0801
-4.0544 вопросы	-0.1433
-4.7534 ворвались	-0.0782
-4.4523 воришка	0.0039
-4.7534 воробушек	-0.0794
-4.7534 воробышек	0.0039
-4.7534 воробьев	-0.0801
-4.7534 воробьиха	-0.0769
-4.7534 воробья	0.0039
-4.4523 воронки	-0.0791
-4.7534 воронов	-0.0801
-4.7534 вороны	-0.0797
-4.7534 воронянскому	0.0039
-4.7534 ворот	-0.0801
-4.7534 воруешь	0.0039
-4.7534 воры	0.0039
-4.2762 восемь	-0.0800
-4.4523 восемьдесят	-0.0801
-4.7534 воспаление	-0.0801
-4.4523 воспитатель	-0.3305
-4.7534 воспитывать	-0.0792
-4.7534 восстания	0.0039
-4.7534 восстановили	0.0039
-4.7534 восстановим	0.0039
-4.7534 восстановишь	0.0039
-4.7534 восстановлена	-0.0789
-4.4523 восток	0.0085
-4.4523 востока	0.0041
-4.7534 восторге	0.0039
-4.7534 вострецов	0.0039
-4.7534 восхищаешься	-0.0798
-4.4523 восьмой	0.0079
-2.7159 вот	-0.2194
-4.4523 вошли	-0.3283
-4.7534 воюем	-0.0799
-4.0544 воюет	-0.4237
-4.4523 воюете	-0.2481
-4.4523 воюешь	0.0052
-3.8502 вперед	-0.1995
-3.9082 впереди	-0.0518
-4.7534 впечатление	-0.0796
-4.7534 впечатления	-0.0790
-4.0544 вполне	-0.0786
-4.0544 вправду	0.0142
-4.4523 вправо	-0.0786
-4.4523 впредь	0.0039
-4.7534 впятером	-0.0801
-4.7534 врагах	0.0039
-4.7534 вражеские	-0.0801
-4.7534 враки	0.0039
-4.7534 врач	0.0039
-4.7534 врачу	0.0039
-4.7534 вреда	0.0039
-4.7534 вреден	-0.0799
-4.7534 врежет	-0.0801
-4.7534 врежут	-0.0801
-4.7534 врезать	-0.0711
-3.5492 времени	-0.3099
-3.4523 время	-0.1134
-4.7534 врет	-0.0785
-4.4523 врешь	-0.0728
-3.5772 вроде	-0.0923
-4.7534 врун	0.0039
-2.4480 все	-0.2078
-3.8502 всегда	0.0090
-3.6394 всего	-0.2592
-3.9082 всем	-0.0412
-4.7534 всему	-0.0801
-4.7534 всенепременно	-0.0800
-4.4523 всерьез	-0.2481
-4.1513 всех	-0.0801
-4.7534 вскричал	-0.0785
-4.7534 всласть	-0.0801
-4.7534 вслух	-0.0801
-4.2762 вспомнил	0.0099
-4.7534 вспомним	-0.0801
-4.7534 вспышки	0.0039
-4.1513 вставай	0.0040
-4.4523 вставайте	0.0039
-4.7534 встаете	0.0039
-4.7534 встал	0.0039
-4.4523 встала	0.0046
-4.7534 встанем	0.0039
-4.7534 встретил	0.0039
-4.7534 встретились	-0.0711
-4.7534 встречает	0.0039
-4.7534 встречаете	-0.0794
-4.7534 встречаешь	0.0039
-4.7534 встречай	-0.0801
-4.7534 встречались	0.0039
-4.7534 встречать	0.0039
-4.7534 вступать	-0.0763
-3.9082 всю	-0.1218
-4.7534 всюду	-0.0801
-4.2762 вся	0.0073
-4.7534 всякая	-0.0801
-4.4523 всякий	-0.0800
-4.7534 всякой	-0.0801
-4.7534 всяком	-0.0801
-4.7534 всякую	-0.0801
-4.7534 втиснемся	0.0039
-4.1513 вторая	-0.1040
-4.7534 вторник	0.0039
-4.4523 второго	0.0040
-3.9752 второй	-0.0645
-4.4523 втором	-0.0801
-4.7534 вторые	-0.0801
-4.7534 вторым	-0.0801
-4.7534 вторых	-0.0795
-4.7534 втю	-0.0801
-4.7534 входи	-0.0791
-3.7991 вчера	-0.0688
-4.7534 въехали	-0.0782
-2.0390 вы	-0.1915
-4.4523 выбежище	-0.2481
-4.7534 выбил	0.0039
-4.7534 выбить	-0.0801
-4.7534 выборгской	-0.0801
-4.4523 выбрал	-0.0800
-4.7534 выбралась	0.0039
-4.7534 выбрали	0.0039
-4.7534 выбрасывались	-0.0796
-4.4523 выбраться	-0.0794
-4.7534 выбросили	0.0039
-4.7534 выведал	0.0039
-4.7534 выведены	0.0039
-4.7534 вывезли	-0.0786
-4.7534 вывести	-0.0797
-4.7534 выводу	0.0039
-4.7534 выглядит	-0.0801
-4.7534 выгнала	0.0039
-4.7534 выгнали	0.0039
-4.4523 выговор	0.0039
-4.7534 выгоняют	0.0039
-4.7534 выгорит	-0.0800
-4.7534 выдали	0.0039
-4.7534 выдать	-0.0791
-4.7534 выдают	0.0039
-4.7534 выдвинулись	-0.0763
-4.7534 выделывали	0.0039
-4.4523 выдержит	-0.2481
-4.7534 выдержишь	0.0039
-4.7534 выдрессировал	0.0039
-4.7534 выдумки	0.0039
-4.7534 выдыхаюсь	0.0039
-4.7534 выезжать	0.0039
-4.7534 выехал	-0.0801
-4.7534 выехать	0.0039
-4.7534 выживет	0.0039
-4.7534 вызвал	0.0039
-4.2762 вызвали	-0.1466
-4.7534 вызвано	-0.0750
-4.7534 вызваны	0.0039
-4.7534 вызвать	-0.0801
-4.7534 вызывает	-0.0801
-4.7534 вызывай	-0.0801
-4.7534 вызывайте	-0.0801
-4.7534 вызывал	0.0039
-4.4523 вызывали	-0.0717
-4.4523 вызывают	-0.0753
-4.7534 выиграл	-0.0778
-4.7534 выигрывает	0.0039
-4.2762 выйдет	-0.1469
-4.7534 выйдут	-0.0796
-4.1513 выйти	0.0046
-4.7534 вык	0.0039
-4.7534 выкатить	-0.0801
-4.4523 выкладывай	-0.2481
-4.7534 выключает	-0.0801
-4.7534 выключен	0.0039
-4.7534 выключить	-0.0801
-4.7534 выколачивать	0.0039
-4.7534 выколоть	0.0039
-4.7534 выкрутился	0.0039
-4.7534 выкупа	0.0039
-4.7534 выкупать	-0.0801
-4.7534 вылез	0.0039
-4.7534 вылезай	-0.0773
-4.2762 вылет	-0.1470
-4.4523 вылетать	-0.2481
-4.7534 вылетаю	-0.0790
-4.7534 вылетела	0.0039
-4.7534 вылетов	0.0039
-4.4523 вылету	-0.0800
-4.7534 вылил	0.0039
-4.7534 вылипнем	-0.0728
-4.7534 вылитый	-0.0801
-4.7534 вымыл	-0.0801
-4.7534 вымыть	-0.0801
-4.7534 вынет	-0.0798
-4.7534 выношу	-0.0801
-4.7534 выну	-0.0801
-4.7534 вынужденную	0.0039
-4.7534 выпадает	0.0039
-4.7534 выпал	0.0039
-4.7534 выпивали	0.0039
-4.7534 выпили	0.0039
-4.7534 выполнено	0.0039
-4.4523 выполнил	-0.0798
-4.4523 выполнить	-0.0800
-4.7534 выполняете	-0.0801
-4.7534 выполняешь	0.0039
-4.7534 выполнять	0.0039
-4.7534 выпрыгнули	0.0039
-4.7534 выпускай	-0.0801
-4.7534 выпустил	0.0039
-4.7534 выпустили	0.0039
-4.7534 выпустим	0.0039
-4.7534 выпустят	0.0039
-4.1513 выпьем	-0.1900
-4.7534 выраж	-0.0801
-4.7534 вырастешь	0.0039
-4.7534 вырвал	-0.0801
-4.7534 вырвались	-0.0801
-4.7534 вырван	0.0039
-4.7534 вырубим	0.0039
-4.7534 высадки	-0.0801
-4.7534 высажен	0.0039
-4.7534 высеки	-0.0794
-4.7534 высказаться	0.0039
-4.7534 высоких	0.0039
-4.7534 высоко	0.0039
-4.4523 высокоблагородие	-0.2481
-4.4523 высота	0.0067
-4.1513 высоту	-0.1007
-4.7534 высохли	-0.0801
-4.7534 высочество	-0.0761
-4.4523 выспался	-0.2481
-4.7534 выставил	-0.0801
-4.7534 выставочный	-0.0801
-4.7534 выстояли	0.0039
-4.7534 выстрел	-0.0796
-4.4523 выстрелов	-0.0763
-4.7534 выстроить	0.0039
-4.7534 выступал	-0.0773
-4.7534 выступать	0.0039
-4.7534 выступил	-0.0773
-4.4523 высшей	-0.3321
-4.7534 высший	-0.0801
-4.7534 вытащил	-0.0801
-4.7534 вытащим	0.0039
-4.7534 вытащить	-0.0801
-4.7534 вытирала	-0.0801
-4.7534 вытряхни	-0.0711
-4.7534 вытянут	-0.0801
-4.2762 выучил	-0.2802
-4.7534 выучился	0.0039
-4.7534 выучка	-0.0800
-4.4523 выход	-0.2481
-4.7534 выхода	0.0039
-4.2762 выходи	0.0047
-4.7534 выходила	0.0039
-4.4523 выходим	-0.2481
-3.9752 выходит	-0.0540
-4.7534 выходить	0.0039
-4.7534 выходишь	0.0039
-4.7534 вычертить	0.0039
-4.7534 вычитала	0.0039
-4.4523 выше	0.0039
-4.4523 вышел	-0.0726
-4.7534 вышла	-0.0801
-4.7534 вышли	0.0039
-4.7534 вышлите	-0.0799
-4.7534 выяснить	-0.0792
-4.7534 вьюн	-0.0771
-4.7534 вэ	-0.0801
-4.7534 вязать	0.0039
-4.7534 гpажданства	-0.0801
-4.7534 га	0.0039
-4.7534 гаа	-0.0801
-4.2762 гав	-0.1470
-4.4523 гаврилович	-0.2481
-4.7534 гад	-0.0800
-4.7534 гада	-0.0799
-4.2762 гадость	0.0071
-4.2762 гады	-0.1470
-4.7534 газете	-0.0728
-4.4523 газеты	-0.0761
-4.7534 газовая	-0.0801
-4.4523 гайдук	0.0039
-4.7534 галицкий	-0.0801
-4.7534 галкин	-0.0763
-4.7534 галунов	0.0039
-4.7534 галька	-0.0774
-4.7534 гангстеры	-0.0801
-4.7534 ганне	-0.0800
-4.7534 гантеля	0.0039
-4.7534 гарантия	0.0039
-4.7534 гаркуша	0.0039
-4.7534 гарнизона	0.0039
-4.7534 гарнитур	0.0039
-4.7534 гарри	0.0039
-4.7534 гарриет	0.0039
-4.7534 гвардейский	-0.0798
-4.4523 гвардейцы	-0.2481
-4.2762 гвардии	-0.0799
-4.4523 гвардия	-0.0801
-4.7534 гвозди	-0.0787
-4.4523 гвоздь	0.0085
-2.1260 где	-0.2299
-4.7534 гей	0.0039
-4.2762 гелька	0.0155
-4.7534 геля	-0.0801
-3.1970 генерал	-0.4700
-4.7534 генерала	0.0039
-4.7534 генератора	0.0039
-4.7534 геннадий	0.0039
-4.4523 генштаб	-0.2481
-3.9752 георгиевич	-0.1067
-4.7534 георгиевича	-0.0794
-4.7534 герасим	-0.0761
-4.7534 герасимович	0.0039
-4.4523 герда	-0.0800
-4.2762 герман	0.0114
-4.7534 германией	0.0039
-4.7534 герои	0.0039
-3.9752 герой	-0.2974
-4.7534 героя	-0.0799
-4.7534 герцог	0.0039
-4.7534 гессенец	0.0039
-4.7534 геша	0.0039
-4.7534 гешку	0.0039
-4.4523 ги	0.0039
-4.7534 гимнастика	0.0039
-4.7534 гиппопотам	0.0039
-4.7534 гирокомпас	0.0039
-4.7534 гитара	0.0039
-4.7534 гитаре	-0.0801
-4.7534 гитарой	0.0039
-4.7534 гитлера	-0.0728
-4.7534 гитлеровцев	-0.0801
-4.7534 главного	-0.0787
-4.4523 главное	-0.0801
-4.7534 главные	-0.0801
-4.2762 главный	0.0190
-4.7534 главу	-0.0801
-4.7534 глаз	-0.0801
-3.9752 глаза	-0.0531
-4.7534 глазам	-0.0794
-4.4523 глазами	-0.2481
-4.7534 глазах	-0.0778
-4.7534 глазки	-0.0801
-4.0544 глеб	0.0155
-4.7534 глотаете	-0.0801
-4.4523 глубина	-0.0785
-4.7534 глубину	0.0039
-4.4523 глубокие	0.0039
-4.7534 глубокий	-0.0801
-4.7534 глубоко	0.0039
-4.7534 глубоковская	-0.0801
-4.7534 глубоком	-0.0801
-4.7534 глузд	0.0039
-4.4523 глупая	-0.0801
-4.7534 глупее	0.0039
-4.7534 глупистика	0.0039
-4.4523 глупости	0.0087
-4.7534 глупость	0.0039
-4.7534 глупые	-0.0728
-4.7534 глупый	-0.0801
-4.7534 глушитель	0.0039
-4.7534 глущенко	0.0039
-4.7534 гля	-0.0801
-4.2762 гляди	0.0170
-4.7534 гляньте	-0.0773
-4.0544 гм	-0.0794
-4.7534 гнат	-0.0799
-4.7534 гнезд	0.0039
-4.7534 гнезде	0.0039
-4.7534 гнешь	0.0039
-4.4523 го	-0.0696
-4.7534 говен	0.0039
-3.7533 говори	-0.0886
-3.7119 говорил	-0.2121
-4.1513 говорила	-0.1025
-4.2762 говорили	0.0073
-3.6741 говорит	-0.1027
-3.8502 говорите	-0.0686
-4.7534 говорится	-0.0796
-3.8502 говорить	-0.0319
-3.4746 говоришь	-0.0341
-3.9752 говорю	-0.1144
-3.7533 говорят	-0.0157
-4.4523 год	-0.0801
-4.0544 года	-0.1327
-4.7534 годен	0.0039
-4.1513 годится	-0.0991
-4.7534 годом	0.0039
-4.7534 году	-0.0761
-3.8502 голова	-0.0729
-4.2762 голове	-0.1451
-4.7534 головной	-0.0801
-4.7534 головном	0.0039
-4.7534 головотяп	-0.0731
-3.9082 голову	-0.2448
-4.7534 головы	-0.0799
-4.7534 голода	0.0039
-4.1513 голос	-0.1893
-4.7534 голосовать	0.0039
-4.7534 голосом	0.0039
-4.7534 голосуют	-0.0786
-4.7534 голу	-0.0772
-4.7534 голубев	-0.0801
-4.7534 голубчик	-0.0799
-4.7534 голубым	-0.0801
-4.4523 гони	-0.0696
-4.7534 гоните	-0.0761
-4.7534 гонокок	0.0039
-4.7534 гоночный	-0.0801
-4.7534 гончарню	0.0039
-4.7534 гончаров	-0.0711
-4.7534 гоняться	0.0039
-4.7534 гора	0.0039
-4.7534 гораздо	-0.0801
-4.7534 горбатый	0.0039
-4.7534 горденко	-0.0800
-4.7534 гордо	-0.0801
-4.7534 горе	-0.0796
-4.7534 горелое	0.0039
-4.7534 гореть	0.0039
-4.7534 горизонт	0.0039
-4.4523 горизонте	0.0039
-4.7534 горим	0.0039
-4.4523 горит	-0.2481
-4.7534 горкин	-0.0752
-4.7534 горле	-0.0696
-4.7534 горова	0.0039
-3.9082 город	-0.2403
-4.7534 города	-0.0800
-4.7534 городах	0.0039
-3.9752 городе	-0.1149
-4.7534 городнянский	0.0039
-4.7534 городок	0.0039
-4.4523 городом	-0.2481
-4.7534 горой	-0.0801
-4.7534 горошек	-0.0801
-4.7534 гору	0.0039
-4.2762 горчица	-0.1419
-4.7534 горшке	0.0039
-4.4523 горы	0.0043
-4.7534 горыныч	0.0039
-4.7534 горьковские	0.0039
-4.7534 горьковской	-0.0801
-4.7534 горюешь	-0.0801
-4.7534 горюй	-0.0801
-4.7534 горюйте	0.0039
-4.4523 горючего	-0.0800
-4.4523 горючее	-0.0772
-4.2762 горючим	-0.2802
-4.7534 горя	-0.0801
-4.7534 горят	-0.0801
-4.4523 горячо	0.0039
-4.7534 госзаказ	-0.0800
-4.7534 госпиталь	0.0039
-4.4523 госпиталя	-0.2481
-4.7534 господа	0.0039
-4.7534 господам	0.0039
-4.0544 господи	-0.1430
-3.4523 господин	-0.0941
-4.2762 госпожа	-0.1470
-4.4523 гостей	0.0039
-3.9082 гости	-0.2357
-4.7534 гостинице	-0.0801
-4.7534 гостя	0.0039
-4.7534 государыня	0.0039
-4.7534 государь	0.0039
-3.5492 готов	-0.6216
-3.9082 готова	-0.2476
-4.4523 готовим	0.0039
-4.7534 готовитесь	0.0039
-4.7534 готовится	0.0039
-4.2762 готовиться	-0.1460
-4.4523 готовишься	0.0039
-4.7534 готовлю	-0.0801
-3.6394 готово	-0.6632
-3.8502 готовы	-0.2102
-4.4523 готовь	0.0039
-4.7534 готовьтесь	0.0039
-4.7534 гошес	0.0039
-4.7534 гошка	0.0039
-4.7534 грабежи	0.0039
-4.7534 грабин	-0.0794
-4.7534 грабину	0.0039
-4.7534 грав	0.0039
-4.7534 гравитации	0.0039
-4.7534 градусов	-0.0801
-4.1513 гражданин	0.0041
-4.7534 гражданочки	0.0039
-4.7534 гранатку	-0.0797
-4.4523 границе	-0.2481
-4.7534 границу	0.0039
-4.7534 границы	-0.0801
-4.4523 граф	0.0039
-4.7534 грачев	-0.0801
-4.7534 грачик	-0.0801
-4.2762 грег	-0.0784
-4.7534 греемся	-0.0790
-4.7534 грек	-0.0696
-4.7534 гренки	0.0039
-4.7534 грешить	-0.0801
-4.7534 гриб	-0.0786
-4.4523 григорий	-0.0801
-4.2762 григорьевич	-0.1470
-4.7534 гризодубовой	-0.0801
-4.1513 гришка	-0.0954
-4.4523 гроза	-0.0699
-4.7534 грозный	-0.0801
-4.7534 гром	0.0039
-4.4523 громко	-0.0800
-4.7534 громов	0.0039
-4.7534 громоотвод	0.0039
-4.4523 грохнуть	-0.0787
-4.7534 грош	-0.0801
-4.7534 грошей	-0.0778
-4.4523 грудь	0.0040
-4.7534 груз	-0.0801
-4.7534 грузовик	0.0039
-4.7534 грузовой	-0.0801
-4.7534 грумс	-0.0796
-4.0544 группу	-0.0735
-4.4523 группы	-0.2481
-4.7534 грустите	-0.0801
-4.4523 грустишь	0.0046
-4.7534 грухие	0.0039
-4.7534 груценко	0.0039
-4.7534 грушами	-0.0801
-4.4523 грушин	-0.2481
-4.7534 грядки	0.0039
-4.7534 губернии	0.0039
-4.2762 гугуцэ	-0.1469
-4.7534 гудит	0.0039
-4.7534 гудят	-0.0778
-4.7534 гукаешь	0.0039
-4.7534 гулена	0.0039
-4.7534 гулиев	-0.0728
-4.7534 гуляешь	-0.0794
-4.7534 гулял	-0.0763
-4.7534 гулять	0.0039
-4.4523 гусев	-0.2481
-4.7534 гусенко	-0.0801
-4.4523 гусь	-0.0711
-4.7534 гуськом	0.0039
-4.7534 гут	0.0039
-4.7534 д	0.0039
-2.3606 да	-0.2901
-3.2909 давай	-0.0490
-3.6394 давайте	-0.1277
-4.7534 давал	-0.0800
-4.7534 давать	0.0039
-3.2093 давно	-0.1285
-4.4523 давняя	-0.0801
-4.2762 дадим	-0.2802
-4.4523 дадите	-0.2481
-3.9752 дадут	-0.3037
-4.2762 дает	-0.1470
-4.4523 даете	0.0040
-3.7119 даже	-0.0442
-3.8502 дай	-0.1649
-3.9082 дайте	-0.0752
-4.0544 дал	-0.0791
-4.7534 далась	-0.0801
-3.4109 далеко	-0.1704
-4.2762 дали	-0.0796
-4.7534 дальнего	-0.0801
-4.7534 дальнейшая	-0.0801
-4.7534 дальнейшее	-0.0801
-4.4523 дальний	-0.3321
-3.2762 дальше	-0.4239
-4.2762 дам	-0.2291
-4.7534 дамся	0.0039
-4.7534 дамы	0.0039
-4.7534 дан	0.0039
-4.7534 дана	-0.0801
-4.7534 даната	-0.0801
-4.7534 данилка	-0.0801
-4.7534 данилов	0.0039
-4.7534 данилыч	0.0039
-4.7534 данке	0.0039
-4.7534 данкой	0.0039
-4.7534 данные	-0.0788
-4.7534 дарю	-0.0801
-4.7534 дарят	0.0039
-4.7534 даст	0.0039
-4.7534 датой	-0.0801
-3.7991 дать	-0.0401
-4.7534 дауту	-0.0791
-4.7534 даче	-0.0794
-4.7534 дачник	-0.0696
-4.2762 дачу	-0.2802
-4.7534 даша	0.0039
-4.7534 дашь	-0.0791
-4.0544 даю	0.0051
-4.4523 дают	-0.0799
-3.4981 два	-0.1593
-4.7534 двадцатку	-0.0801
-3.6394 двадцать	-0.0256
-4.7534 дважды	-0.0801
-3.8502 две	-0.0821
-4.2762 двенадцать	-0.0693
-4.0544 двери	-0.4018
-4.0544 дверь	-0.0779
-4.7534 двести	0.0039
-4.7534 двигаетесь	-0.0799
-4.7534 двигатель	-0.0801
-4.7534 двигаю	-0.0801
-4.7534 двигаюсь	-0.0801
-4.7534 двигаются	0.0039
-4.4523 двинем	-0.2481
-4.7534 двинулись	0.0039
-4.1513 двое	-0.0994
-4.4523 дворе	0.0046
-4.7534 дворян	0.0039
-4.7534 двоюродная	-0.0801
-4.7534 двоюродный	0.0039
-4.7534 двумя	-0.0801
-4.0544 двух	-0.0801
-4.7534 двухкилевой	0.0039
-4.7534 двухсотку	-0.0801
-4.7534 де	-0.0801
-4.7534 девал	-0.0797
-4.4523 девались	-0.2481
-4.7534 девался	0.0039
-4.4523 девать	-0.2481
-4.7534 деваются	0.0039
-4.7534 девка	0.0039
-4.7534 девку	-0.0763
-4.1513 девочка	0.0237
-4.1513 девочки	-0.1012
-4.7534 девочку	-0.0760
-4.1513 девушка	-0.1900
-4.2762 девушки	-0.1434
-4.7534 девчата	-0.0769
-4.4523 девчонка	-0.0800
-4.7534 девчонки	-0.0778
-4.7534 девчушка	0.0039
-4.7534 девятки	0.0039
-4.4523 девятнадцать	0.0040
-4.7534 девятого	-0.0801
-4.7534 девятом	0.0039
-4.7534 девятый	-0.0801
-4.7534 девять	-0.0801
-4.7534 девятьсот	-0.0800
-4.7534 дегтярева	-0.0775
-3.9752 дед	0.0157
-4.4523 деда	0.0148
-4.7534 дедко	-0.0801
-4.4523 дедовск	-0.2481
-3.8502 дедушка	-0.0406
-4.4523 дежурил	-0.0750
-4.7534 дежурили	-0.0728
-4.7534 дежуришь	0.0039
-4.2762 дежурный	0.0075
-4.7534 дежурстве	0.0039
-4.7534 дезертировал	0.0039
-4.7534 дезертирство	0.0039
-4.7534 дезертиры	-0.0728
-4.7534 действий	0.0039
-3.9752 действительно	0.0205
-4.4523 действует	-0.2481
-4.4523 действуйте	0.0061
-4.7534 действуют	0.0039
-4.7534 действующих	-0.0801
-4.7534 декана	0.0039
-4.4523 дел	0.0041
-3.1001 дела	-0.4306
-3.9752 делает	-0.3166
-3.6072 делаете	-0.3812
-4.4523 делается	-0.2481
-3.4523 делаешь	-0.8352
-4.2762 делал	-0.1436
-4.4523 делали	0.0099
-2.9404 делать	-0.4746
-4.2762 делают	-0.1467
-4.1513 деле	0.0152
-4.7534 делегат	0.0039
-4.7534 делегация	-0.0801
-4.4523 дели	-0.2481
-4.7534 делись	-0.0801
-4.7534 делить	-0.0750
-3.0130 дело	-0.5376
-4.7534 делось	0.0039
-4.2762 делу	0.0053
-4.7534 демаскирует	-0.0775
-4.7534 демаскируете	-0.0795
-4.7534 демобилизуют	-0.0791
-4.7534 демонстративная	-0.0801
-4.7534 демонстрируешь	-0.0696
-4.7534 денег	0.0039
-4.7534 денек	-0.0801
-4.7534 денется	-0.0801
-4.7534 денешь	0.0039
-3.6741 день	-0.1637
-3.6394 деньги	-0.1612
-4.7534 деповские	-0.0711
-4.7534 дергаем	-0.0801
-4.7534 дергай	0.0039
-4.7534 дергачи	0.0039
-4.7534 деревень	-0.0801
-4.2762 деревне	-0.0762
-4.4523 деревни	0.0039
-4.4523 деревня	-0.2481
-4.7534 дерево	0.0039
-4.4523 деревья	0.0039
-4.7534 деретесь	0.0039
-4.7534 держать	-0.0763
-4.4523 держи	-0.2481
-4.4523 держим	-0.2481
-4.2762 держись	0.0039
-4.2762 держите	-0.0798
-4.4523 держитесь	-0.2481
-4.0544 держишь	-0.1430
-4.7534 держишься	-0.0801
-4.7534 дерут	0.0039
-4.7534 дерутся	-0.0801
-4.7534 десант	-0.0799
-4.7534 десанта	0.0039
-4.7534 десятая	-0.0801
-4.7534 десяток	-0.0775
-3.7533 десять	-0.0359
-4.7534 детали	-0.0790
-4.7534 детдома	0.0039
-4.1513 дети	-0.0994
-4.7534 детишки	0.0039
-4.7534 детка	0.0039
-4.7534 детки	-0.0772
-4.7534 детонаторы	0.0039
-4.7534 детская	-0.0801
-4.7534 детский	-0.0801
-4.7534 детских	-0.0801
-4.7534 детском	-0.0801
-4.7534 детскую	-0.0801
-4.7534 детства	-0.0801
-4.7534 детстве	-0.0801
-4.4523 детьми	-0.2481
-4.7534 дефектов	-0.0801
-4.7534 дешево	-0.0801
-4.7534 джеймсу	0.0039
-4.4523 джен	-0.2481
-4.7534 дженни	-0.0696
-4.7534 дженнифер	-0.0801
-4.4523 джигит	-0.2481
-4.7534 джима	-0.0801
-4.4523 джин	0.0039
-4.7534 джокерное	-0.0801
-4.4523 джордж	0.0039
-4.7534 джулиан	-0.0761
-4.7534 дзота	0.0039
-4.7534 диану	-0.0800
-4.7534 дивизии	0.0039
-4.7534 дивизионе	0.0039
-4.7534 дивизионом	0.0039
-4.1513 дивизию	-0.6210
-4.4523 дивизия	0.0039
-4.7534 дивный	-0.0798
-4.4523 дид	-0.2481
-4.4523 диду	-0.2481
-4.4523 дие	-0.3319
-4.2762 дик	-0.2202
-4.4523 диков	0.0052
-4.7534 диктатор	-0.0795
-4.7534 диктовал	-0.0801
-4.4523 дима	-0.2481
-4.7534 димка	-0.0760
-4.0544 димо	0.0060
-4.7534 димочка	-0.0799
-4.2762 дин	0.0080
-4.2762 дина	-0.1430
-4.7534 динамо	-0.0801
-4.4523 динка	-0.0798
-4.7534 дипломат	0.0039
-4.7534 директор	-0.0801
-4.4523 диски	-0.0800
-4.7534 дисциплине	0.0039
-4.7534 дисциплинку	-0.0801
-4.2762 дитя	-0.3642
-4.7534 длинные	0.0039
-4.4523 длинный	0.0039
-4.7534 длится	-0.0801
-3.2093 для	-0.2390
-4.7534 дмитриевский	0.0039
-4.7534 дмитрий	-0.0801
-4.7534 дмухавец	-0.0800
-4.7534 дна	0.0039
-4.7534 дней	-0.0801
-4.4523 днем	-0.0800
-4.7534 днепр	0.0039
-4.7534 днище	0.0039
-4.7534 дно	0.0039
-4.7534 дню	0.0039
-4.4523 дня	0.0129
-3.0631 до	-0.1983
-4.7534 добавить	0.0039
-4.7534 доберешься	0.0039
-4.7534 доберутся	0.0039
-4.7534 добже	-0.0794
-4.7534 добили	-0.0800
-4.7534 добирались	0.0039
-4.7534 добирался	0.0039
-4.7534 добр	-0.0801
-4.7534 добрались	0.0039
-4.1513 добраться	-0.7046
-4.7534 добро	0.0039
-4.7534 добров	-0.0799
-4.7534 доброволец	-0.0796
-4.2762 добровольцы	-0.1470
-4.7534 доброе	-0.0801
-4.7534 добру	-0.0801
-4.2762 добрые	-0.2802
-3.8502 добрый	-0.2286
-4.1513 добрым	-0.2723
-4.7534 добрянский	0.0039
-4.7534 добыл	-0.0801
-4.4523 добыли	-0.2481
-4.7534 добыть	-0.0801
-4.7534 довели	-0.0801
-4.7534 доверишь	-0.0801
-4.7534 доверия	-0.0801
-4.7534 доводим	-0.0798
-4.7534 довоенные	-0.0801
-4.4523 доволен	-0.2481
-4.7534 довольна	-0.0801
-4.2762 довольно	-0.0727
-4.4523 догадались	-0.0794
-4.4523 догадался	0.0040
-4.7534 догадываюсь	-0.0792
-4.4523 догнал	0.0039
-4.7534 догнала	-0.0794
-4.7534 догнать	-0.0801
-4.7534 договаривался	0.0039
-4.1513 договорились	-0.1029
-4.7534 договоримся	0.0039
-4.7534 догоняй	0.0039
-4.7534 догонять	-0.0801
-4.7534 додумались	0.0039
-4.7534 додумался	0.0039
-4.7534 доехал	0.0039
-4.7534 доехали	0.0039
-4.7534 дождешься	0.0039
-4.4523 дождь	-0.2481
-4.7534 дождя	-0.0801
-4.7534 доживем	0.0039
-4.7534 дожидаешь	0.0039
-4.7534 дожидаться	-0.0801
-4.7534 дожить	-0.0791
-4.7534 дозволено	-0.0772
-4.7534 дозор	0.0039
-4.7534 доиграем	0.0039
-4.7534 доигрались	-0.0774
-4.4523 дойдет	-0.2481
-4.7534 дойдешь	0.0039
-4.2762 док	-0.1470
-4.7534 докажи	0.0039
-4.4523 доклад	-0.0799
-4.7534 докладом	-0.0798
-4.4523 докладывает	0.0039
-4.7534 докладываете	0.0039
-4.1513 докладывать	-0.1029
-4.7534 докладывают	-0.0801
-4.0544 доктор	-0.1437
-4.7534 доктора	-0.0790
-4.7534 документе	-0.0790
-4.7534 документов	0.0039
-3.7533 документы	-0.2072
-4.7534 долгая	-0.0801
-3.4523 долго	-0.0126
-4.7534 долгое	0.0039
-4.7534 доле	0.0039
-4.7534 долетел	-0.0728
-4.4523 долетели	-0.0736
-4.7534 долечился	-0.0801
-3.5492 должен	-0.0596
-3.9082 должна	-0.0943
-4.1513 должно	-0.0997
-4.4523 должности	-0.2481
-4.2762 должность	0.0039
-4.0544 должны	-0.0773
-4.4523 долларов	-0.2481
-4.7534 доллары	0.0039
-4.7534 доложи	-0.0801
-4.7534 доложила	-0.0790
-4.4523 доложили	0.0039
-4.2762 доложите	0.0099
-4.2762 доложить	-0.1455
-4.4523 долой	-0.0728
-4.7534 долуда	0.0039
-4.4523 дольше	0.0043
-4.4523 доля	-0.2481
-3.5229 дом	-0.1516
-3.3554 дома	-0.3885
-4.7534 домашнее	-0.0801
-4.7534 домашнюю	-0.0801
-4.7534 домашняя	-0.0801
-4.0544 доме	-0.0752
-4.7534 домиком	-0.0801
-3.4981 домой	-0.4205
-4.4523 дому	-0.2481
-4.7534 донбасс	-0.0801
-4.7534 донес	-0.0796
-4.7534 донесем	0.0039
-4.7534 донесении	-0.0801
-4.7534 донесете	0.0039
-4.7534 дону	0.0039
-4.7534 донырнешь	0.0039
-4.7534 доползешь	-0.0798
-4.7534 доползли	0.0039
-4.7534 допрашивает	0.0039
-4.7534 допрашивал	-0.0794
-4.7534 допросе	0.0039
-4.7534 допросили	0.0039
-4.7534 допускаете	-0.0801
-4.7534 допускаются	0.0039
-4.7534 допустили	-0.0786
-4.7534 дорабатывать	0.0039
-4.7534 доработку	0.0039
-4.7534 дорисую	0.0039
-4.7534 дорог	0.0039
-3.9752 дорога	0.0078
-4.7534 дороге	-0.0801
-4.4523 дороги	-0.2481
-4.7534 дорогие	0.0039
-4.4523 дорого	-0.0801
-3.7533 дорогой	-0.7364
-3.8502 дорогу	-0.2111
-4.7534 дорожный	-0.0801
-4.7534 дорожу	0.0039
-4.7534 доской	-0.0794
-4.7534 досмотр	0.0039
-4.7534 доставит	-0.0794
-4.7534 доставка	-0.0799
-4.7534 достается	-0.0801
-4.4523 достал	-0.2481
-4.7534 достала	0.0039
-4.7534 достали	0.0039
-4.4523 досталось	-0.0773
-4.7534 достанем	0.0039
-4.7534 достану	0.0039
-4.7534 достаточно	0.0039
-4.1513 достать	0.0039
-4.4523 достоверно	0.0039
-4.7534 достойную	-0.0801
-4.7534 достойны	0.0039
-4.7534 досыть	-0.0801
-4.4523 дот	0.0046
-4.7534 дохлым	-0.0801
-4.7534 доча	0.0039
-4.7534 доченька	0.0039
-4.7534 дочери	0.0039
-4.2762 дочка	-0.1470
-4.7534 дошагаем	0.0039
-4.7534 дошел	-0.0789
-4.7534 дошли	0.0039
-4.7534 драгоценное	-0.0800
-4.7534 драгунский	0.0039
-4.7534 дразнят	0.0039
-4.7534 драке	-0.0799
-4.7534 дракона	0.0039
-4.7534 драку	0.0039
-4.7534 дрезины	0.0039
-4.4523 дров	0.0053
-4.7534 дрова	-0.0801
-4.7534 дровосек	0.0039
-4.4523 дрожишь	0.0053
-4.7534 дрозд	-0.0769
-4.7534 дронов	0.0039
-4.0544 друг	-0.0700
-4.7534 друга	0.0039
-4.7534 другая	-0.0801
-4.2762 другие	-0.0800
-4.7534 другим	-0.0801
-4.7534 других	0.0039
-4.0544 другое	-0.1430
-3.9752 другой	-0.1487
-4.2762 другом	-0.1470
-4.7534 другу	0.0039
-4.4523 другую	0.0039
-4.4523 дружбу	-0.2481
-4.7534 дружи	0.0039
-4.2762 дружище	-0.1453
-4.7534 дружка	-0.0801
-4.4523 дружок	-0.2481
-3.9752 друзья	-0.2985
-4.7534 друзьями	0.0039
-4.7534 друм	-0.0801
-4.7534 дрыхнешь	-0.0801
-4.7534 дрянная	-0.0801
-4.7534 дрянь	0.0039
-4.7534 дудки	-0.0801
-4.2762 думает	-0.1470
-3.7533 думаете	-0.0873
-4.7534 думается	-0.0728
-3.4109 думаешь	-0.1180
-4.7534 думай	0.0039
-3.7533 думал	-0.0520
-4.1513 думала	-0.0727
-3.9082 думали	-0.1265
-3.8502 думаю	-0.0699
-4.4523 думают	-0.0800
-4.7534 думичев	0.0039
-4.1513 дура	0.0080
-4.4523 дурак	0.0040
-4.7534 дураков	-0.0801
-4.7534 дурачок	-0.0731
-4.7534 дурень	-0.0801
-4.7534 дуркуешь	-0.0801
-4.7534 дурочка	-0.0786
-4.7534 дуры	0.0039
-4.7534 дурь	0.0039
-4.7534 дух	-0.0798
-4.7534 духа	-0.0801
-4.7534 духов	0.0039
-4.4523 духу	0.0129
-4.7534 душа	0.0039
-4.4523 душе	-0.0801
-4.7534 душечка	0.0039
-4.7534 души	0.0039
-4.7534 душко	-0.0775
-4.7534 дуэли	0.0039
-4.7534 дым	-0.0728
-4.7534 дыню	0.0039
-4.4523 дышать	0.0039
-4.7534 дыши	-0.0763
-4.4523 дышим	-0.2481
-4.7534 дышит	0.0039
-4.7534 дэн	0.0039
-4.7534 дядей	-0.0801
-3.8502 дяденька	-0.0264
-4.4523 дяди	-0.0801
-4.7534 дядь	-0.0801
-4.7534 дядька	-0.0769
-4.7534 дядю	-0.0801
-3.3916 дядя	-0.0968
-3.8502 е	-0.0707
-4.7534 евгений	-0.0801
-4.7534 евгеньевич	0.0039
-4.7534 евграфыч	0.0039
-4.7534 евсей	0.0039
-4.7534 евсея	0.0039
-4.2762 евстахий	-0.0732
-4.7534 евстигнеев	-0.0728
-2.7666 его	-0.1198
-4.2762 егор	-0.0800
-4.7534 егора	0.0039
-4.7534 егорка	-0.0800
-4.7534 егорыч	0.0039
-4.4523 едва	-0.0728
-3.7533 едем	-0.3070
-4.7534 едет	0.0039
-3.9752 едете	-0.3134
-4.4523 едешь	0.0039
-4.7534 единогласно	0.0039
-4.7534 единого	0.0039
-4.7534 единственный	-0.0801
-4.7534 едите	0.0039
-4.4523 еду	0.0039
-4.7534 едут	0.0039
-4.7534 еды	0.0039
-4.4523 едят	-0.2481
-3.1001 ее	-0.1038
-4.4523 ежедневно	0.0040
-4.7534 ежели	-0.0797
-4.7534 ежики	-0.0731
-4.2762 ездил	-0.2802
-4.7534 ездит	0.0039
-4.7534 ездите	-0.0801
-4.7534 ездовой	-0.0796
-3.6741 ей	-0.0423
-4.4523 ел	0.0042
-4.7534 ела	-0.0801
-4.4523 еле	-0.0799
-4.4523 елки	0.0039
-4.7534 ем	-0.0801
-3.3383 ему	-0.0089
-4.7534 ерема	-0.0696
-4.7534 ермаков	-0.0801
-4.7534 ерунда	-0.0728
-4.7534 ерш	-0.0801
-2.9974 если	-0.1498
-4.7534 ест	0.0039
-2.4862 есть	-0.2343
-4.7534 ет	-0.0696
-4.7534 ефим	-0.0801
-4.7534 ефименко	-0.0801
-4.4523 ефимов	0.0042
-4.7534 ефимович	0.0039
-4.0544 ефрейтор	-0.1437
-4.4523 ефремов	-0.0786
-4.4523 ехал	-0.2481
-4.7534 ехали	0.0039
-3.7991 ехать	-0.1697
-4.7534 ешкин	-0.0801
-4.1513 ешь	-0.1889
-2.5686 еще	-0.1377
-4.7534 ею	-0.0801
-3.2093 ж	-0.1179
-4.7534 жа	-0.0801
-4.4523 жалеешь	-0.2481
-4.1513 жалко	0.0280
-4.7534 жало	-0.0801
-4.7534 жалуешься	0.0039
-4.4523 жалуются	-0.2481
-4.7534 жаль	-0.0696
-4.7534 жара	-0.0801
-4.7534 жареную	-0.0798
-3.8502 жарко	-0.0297
-4.7534 жаркое	0.0039
-4.4523 жару	0.0039
-4.7534 жары	0.0039
-4.7534 жаться	0.0039
-4.7534 жгем	0.0039
-4.7534 жгет	0.0039
-3.9752 ждать	-0.3150
-4.0544 ждем	-0.1436
-4.2762 ждет	-0.1462
-4.1513 ждешь	-0.1886
-4.1513 жду	-0.1895
-4.0544 ждут	-0.0799
-2.1513 же	-0.2851
-4.4523 желает	-0.0801
-4.7534 желаете	0.0039
-4.7534 желание	0.0039
-4.4523 желании	0.0040
-4.1513 желаю	-0.0780
-4.7534 железную	-0.0801
-4.7534 железный	-0.0801
-4.7534 железняк	-0.0799
-4.7534 желми	-0.0801
-4.7534 желуди	-0.0801
-4.7534 желчь	0.0039
-4.7534 жемчужина	0.0039
-4.7534 жен	-0.0801
-4.0544 жена	0.0096
-4.7534 женат	0.0039
-4.7534 женаты	0.0039
-4.7534 женатый	0.0039
-4.7534 женился	0.0039
-4.7534 женитесь	0.0039
-4.7534 жениться	-0.0773
-4.4523 жених	-0.2481
-4.7534 женой	0.0039
-4.7534 женою	0.0039
-4.2762 женского	0.0039
-4.4523 жену	0.0041
-4.7534 женщин	0.0039
-4.2762 женщина	-0.1469
-4.7534 женщиной	-0.0801
-4.7534 женщины	-0.0801
-4.7534 жень	0.0039
-4.4523 женька	0.0101
-3.9082 женя	0.0272
-4.7534 жердев	-0.0774
-4.7534 жеребец	0.0039
-4.7534 жечь	0.0039
-4.7534 жешь	-0.0783
-4.7534 жжет	0.0039
-4.4523 жи	-0.0800
-3.2620 жив	-0.7196
-4.0544 жива	-0.1428
-4.4523 живая	-0.2481
-4.7534 живей	-0.0801
-4.7534 живем	0.0039
-3.8502 живет	0.0097
-4.1513 живете	-0.1854
-4.7534 живется	-0.0778
-3.7533 живешь	-1.0374
-4.7534 живо	-0.0801
-3.5229 живой	-0.4724
-4.4523 живот	0.0049
-4.2762 животе	0.0068
-4.7534 животное	-0.0801
-4.7534 живу	-0.0791
-4.7534 живут	-0.0801
-4.7534 живучесть	-0.0801
-4.7534 живую	-0.0801
-3.4746 живы	-0.5102
-4.7534 живым	-0.0728
-4.7534 живыми	-0.0728
-3.9082 жизнь	-0.2447
-4.7534 жизнью	-0.0801
-4.7534 жил	0.0039
-4.7534 жила	-0.0773
-4.7534 жилец	0.0039
-4.4523 жили	0.0044
-4.7534 жильем	0.0039
-4.7534 жирен	-0.0789
-4.7534 жирняк	0.0039
-4.7534 жители	0.0039
-3.8502 жить	0.0135
-4.2762 жми	-0.1469
-4.7534 жмись	-0.0799
-4.7534 жмут	-0.0801
-4.7534 жора	-0.0801
-4.4523 жорочка	-0.0788
-4.7534 жоры	-0.0783
-4.7534 жрать	-0.0801
-4.2762 жуков	0.0099
-4.7534 жуковец	-0.0801
-4.4523 жуковым	-0.2481
-4.7534 жулик	0.0039
-4.7534 журавах	0.0039
-4.7534 журнал	0.0039
-4.7534 журнале	0.0039
-4.7534 жутковато	0.0039
-4.7534 жуть	0.0039
-4.7534 жучка	0.0039
-4.7534 жучкова	0.0039
-4.7534 жюль	-0.0696
-4.4523 з	-0.0801
-2.6166 за	-0.1700
-4.7534 забелина	0.0039
-4.7534 заберемся	-0.0773
-4.7534 забил	-0.0801
-4.7534 забинтовать	0.0039
-4.4523 забирает	0.0053
-4.7534 забирайся	-0.0763
-4.4523 заблудился	0.0039
-4.7534 заблуждаетесь	0.0039
-4.7534 забое	0.0039
-4.7534 забойщика	0.0039
-4.0544 заболел	-0.1829
-4.7534 забортной	-0.0801
-4.7534 забот	0.0039
-4.7534 забрал	0.0039
-4.7534 забрали	-0.0801
-4.7534 забраться	-0.0763
-4.7534 забудешь	0.0039
-4.7534 забываешь	0.0039
-4.2762 забывай	-0.3632
-4.7534 забывайте	-0.0795
-3.7119 забыл	-0.1386
-4.4523 забыли	-0.0801
-4.7534 завал	0.0039
-4.7534 завалило	-0.0801
-4.7534 заведующего	-0.0783
-4.2762 завел	0.0168
-4.7534 завидный	-0.0801
-4.7534 завидуешь	0.0039
-4.7534 завинченный	0.0039
-4.7534 зависит	0.0039
-4.4523 завод	0.0040
-4.7534 завода	-0.0801
-4.7534 заводим	-0.0801
-4.7534 заводить	0.0039
-4.7534 заворочались	0.0039
-3.3731 завтра	-0.2302
-4.2762 завтрак	-0.0794
-4.7534 завтракал	0.0039
-4.2762 завтракать	-0.1380
-4.7534 завтраке	0.0039
-4.7534 завтрашнему	-0.0801
-4.7534 завьялов	-0.0799
-4.7534 завяжем	-0.0801
-4.7534 загадка	0.0039
-4.7534 загадки	0.0039
-4.7534 заглушил	-0.0752
-4.7534 заглушка	-0.0801
-4.7534 загляни	0.0039
-4.7534 загляну	0.0039
-4.7534 заглянуть	0.0039
-4.7534 заговаривайся	0.0039
-4.7534 заговорились	-0.0769
-4.7534 заголовок	-0.0800
-4.7534 заграждения	0.0039
-4.4523 заграница	-0.2481
-4.7534 загрузит	-0.0801
-4.7534 загрязнять	-0.0801
-4.4523 задавать	-0.0750
-3.9082 задание	-0.2537
-4.7534 задания	-0.0801
-4.0544 задача	-0.4053
-4.4523 задачи	-0.2481
-4.7534 задачки	-0.0801
-4.1513 задачу	-0.0954
-4.4523 заделать	0.0099
-4.7534 задело	-0.0790
-4.7534 задержат	-0.0787
-4.7534 задний	-0.0799
-4.7534 задолго	-0.0786
-4.7534 задохнется	-0.0800
-4.7534 заду	0.0039
-4.7534 задумал	-0.0801
-4.0544 задумался	-0.1436
-4.4523 задыхаюсь	-0.0782
-4.7534 заело	0.0039
-4.7534 зажарились	0.0039
-4.7534 заждался	-0.0801
-4.7534 зажечь	0.0039
-4.7534 зажигаешь	0.0039
-4.7534 зажимаешь	-0.0782
-4.7534 зажурились	-0.0796
-4.4523 зазвать	-0.0712
-4.7534 зазвенит	-0.0801
-4.7534 зазнобушку	-0.0800
-4.7534 заикается	0.0039
-4.7534 заинтересовало	0.0039
-4.2762 зайдем	-0.1460
-4.7534 зайдете	-0.0793
-4.7534 зайду	-0.0801
-4.1513 зайти	0.0065
-4.4523 зайца	-0.0774
-4.4523 зайцев	0.0039
-4.7534 зайчиков	0.0039
-4.7534 зайчишка	-0.0800
-4.2762 заказать	0.0053
-4.7534 закалки	-0.0787
-4.7534 заканчиваем	-0.0799
-4.7534 заканчиваете	0.0039
-4.7534 заквашенный	-0.0782
-4.7534 заколдованный	0.0039
-4.7534 законопатить	-0.0794
-4.7534 закончи	-0.0801
-4.4523 закончил	0.0039
-4.7534 закончим	-0.0800
-4.7534 закончить	-0.0786
-4.7534 закопать	0.0039
-4.7534 закроем	0.0039
-4.2762 закрой	0.0134
-4.7534 закрывать	0.0039
-4.7534 закс	0.0039
-4.7534 закуривай	0.0039
-4.4523 закурить	-0.2481
-4.7534 закуришь	0.0039
-4.7534 закусите	0.0039
-4.7534 зал	0.0039
-4.7534 залетел	0.0039
-4.7534 заложники	0.0039
-4.4523 залп	-0.2481
-4.7534 зальете	0.0039
-4.7534 заменить	-0.0798
-4.7534 замену	0.0039
-4.7534 замерз	0.0039
-4.7534 замерзли	0.0039
-4.7534 замерзну	0.0039
-4.7534 замерзнут	0.0039
-4.7534 заместитель	-0.0801
-4.1513 заметил	-0.1880
-4.4523 заметили	-0.2481
-4.7534 заметно	0.0039
-4.7534 заметят	0.0039
-4.7534 замечает	0.0039
-4.7534 замечаешь	0.0039
-4.2762 замечательно	-0.1421
-4.7534 замечательный	0.0039
-4.7534 замещаю	0.0039
-4.7534 заминировали	-0.0801
-4.4523 замок	0.0040
-4.7534 замуж	0.0039
-4.7534 замужем	0.0039
-4.7534 замышляют	0.0039
-4.7534 замятин	0.0039
-4.7534 занесло	0.0039
-4.7534 занимает	-0.0772
-4.4523 занимаетесь	-0.2481
-4.7534 занимаешься	-0.0801
-4.1513 заниматься	-0.1011
-4.7534 занимаются	0.0039
-4.7534 занял	-0.0801
-4.4523 занят	-0.3321
-4.7534 занято	-0.0799
-4.4523 заняты	0.0041
-4.7534 занять	-0.0801
-4.7534 заодно	-0.0799
-4.7534 запакованы	-0.0775
-4.7534 запасная	-0.0801
-4.7534 запасной	-0.0783
-4.7534 запасные	-0.0801
-4.7534 запах	-0.0752
-4.7534 запашнов	0.0039
-4.7534 заперся	-0.0731
-4.7534 запираешься	0.0039
-4.7534 записала	0.0039
-4.4523 записано	-0.2481
-4.7534 записаны	-0.0799
-4.7534 записи	-0.0796
-4.7534 заплавное	-0.0773
-4.7534 запланировали	0.0039
-4.7534 заплатите	0.0039
-4.7534 заплатишь	0.0039
-4.7534 запомнил	0.0039
-4.4523 запомнили	-0.2481
-4.7534 заправимся	0.0039
-4.7534 заправиться	-0.0792
-4.7534 заправлен	-0.0800
-4.4523 заправлена	0.0039
-4.7534 запретил	0.0039
-4.7534 запрещаете	-0.0801
-4.7534 запрещаю	-0.0792
-4.7534 запрещено	-0.0801
-4.7534 запросили	-0.0800
-4.7534 запросите	-0.0801
-4.7534 запускается	0.0039
-4.7534 запускать	-0.0801
-4.7534 запылился	-0.0731
-4.7534 зарабатывать	0.0039
-4.7534 зарабатываю	-0.0801
-4.7534 заработаешь	0.0039
-4.4523 заработал	-0.2481
-4.7534 зарвется	-0.0801
-4.7534 зарезал	-0.0801
-4.7534 зарезу	0.0039
-4.7534 зарок	-0.0760
-4.7534 заросли	0.0039
-4.7534 зарядили	0.0039
-4.7534 зарядов	0.0039
-4.7534 заряжаться	-0.0773
-4.7534 засек	-0.0801
-4.7534 засекает	-0.0792
-4.7534 засел	-0.0763
-4.7534 заслужил	-0.0801
-4.4523 заснул	0.0073
-4.2762 заснуть	-0.1465
-4.7534 заставили	0.0039
-4.7534 заставлю	0.0039
-4.7534 заставлять	-0.0794
-4.4523 заставляют	-0.0719
-4.7534 заставой	0.0039
-4.7534 застирывать	-0.0792
-4.7534 застрелился	-0.0800
-4.7534 застрелиться	-0.0798
-4.4523 застрял	-0.0799
-4.7534 застряли	-0.0788
-4.7534 застрять	0.0039
-4.7534 застыли	-0.0801
-4.7534 затевать	-0.0801
-4.4523 затевают	0.0044
-4.7534 затеял	0.0039
-4.7534 зато	-0.0799
-4.7534 затоне	-0.0801
-4.7534 затонул	0.0039
-4.7534 затопляй	0.0039
-4.7534 затормозил	0.0039
-4.7534 затрясся	-0.0801
-4.7534 затылок	0.0039
-4.7534 захватили	0.0039
-4.2762 захватить	-0.1451
-4.7534 захлопнете	0.0039
-4.7534 захныкала	0.0039
-4.7534 заход	0.0039
-4.4523 заходи	-0.0800
-4.7534 захотел	0.0039
-4.4523 захотелось	-0.0801
-4.7534 захотите	0.0039
-4.2762 захочет	-0.1469
-4.7534 захочешь	-0.0801
-4.2762 зацепило	0.0041
-2.7280 зачем	-0.3537
-4.7534 зачитались	-0.0801
-4.7534 зачитать	-0.0801
-4.7534 зашла	0.0039
-4.7534 защиту	-0.0801
-4.7534 заявка	-0.0801
-4.0544 заяц	-0.0692
-4.0544 звал	-0.0681
-4.1513 звали	-0.1040
-3.8502 звать	-0.3623
-4.7534 звезд	-0.0787
-4.7534 звезда	0.0039
-4.2762 звезду	-0.1469
-4.7534 звезды	-0.0791
-4.7534 звена	0.0039
-4.7534 звено	-0.0801
-4.7534 зверей	-0.0775
-4.7534 звери	-0.0801
-4.7534 зверобой	-0.0801
-4.7534 зверолов	0.0039
-4.2762 зверь	0.0129
-4.7534 зверю	0.0039
-4.7534 звидкиля	-0.0800
-4.7534 звони	-0.0801
-4.0544 звонил	-0.1422
-4.7534 звонили	0.0039
-4.2762 звонить	-0.2802
-4.7534 звонишь	0.0039
-4.7534 здание	-0.0769
-4.7534 зде	-0.0801
-2.6103 здесь	-0.2080
-4.7534 здешнем	-0.0801
-4.1513 здешний	-0.0820
-4.7534 здешних	-0.0801
-4.1513 здоров	-0.6210
-4.7534 здорова	0.0039
-4.7534 здоровее	0.0039
-4.7534 здоровенного	-0.0801
-4.7534 здороветь	0.0039
-3.4981 здорово	-0.0545
-4.2762 здоровы	-0.1470
-4.7534 здоровые	-0.0787
-4.7534 здоровье	0.0039
-4.4523 здравия	-0.3321
-4.7534 здравствует	-0.0801
-3.7119 здравствуй	0.0214
-3.5772 здравствуйте	-0.2167
-4.4523 здрасте	0.0039
-4.7534 зеленые	-0.0794
-4.7534 зелье	-0.0801
-4.7534 земле	0.0039
-4.7534 земли	-0.0801
-4.2762 землю	0.0168
-4.1513 земля	-0.0932
-4.7534 земляков	-0.0728
-4.7534 земляника	0.0039
-4.7534 зенитки	-0.0799
-4.7534 зенитчики	0.0039
-4.7534 зеркальце	0.0039
-4.4523 зззз	0.0039
-4.7534 зима	0.0039
-4.7534 зимовать	-0.0801
-4.7534 зимой	0.0039
-4.1513 зина	0.0216
-4.7534 зинки	-0.0801
-4.7534 злишься	-0.0773
-4.7534 злой	0.0039
-4.7534 злотых	0.0039
-4.7534 злыдень	-0.0786
-4.7534 злые	-0.0775
-4.7534 злынь	-0.0801
-4.7534 злых	-0.0801
-4.7534 змеи	0.0039
-4.2762 змей	-0.1470
-3.9082 знаем	-0.1706
-3.7533 знает	-0.3461
-3.1301 знаете	-0.3848
-3.2218 знаешь	-0.4229
-4.2762 знак	-0.2802
-4.7534 знаком	0.0039
-4.4523 знакомиться	-0.2481
-4.7534 знакомой	-0.0790
-3.7991 знакомы	-0.3007
-4.4523 знакомые	-0.2481
-3.7991 знал	-0.4034
-4.0544 знали	-0.0656
-4.7534 знамя	0.0039
-4.7534 знанием	-0.0798
-3.7119 знать	-0.2529
-2.8239 значит	-0.0193
-2.9338 знаю	-0.4230
-4.4523 знают	0.0040
-4.7534 зовет	0.0039
-3.2218 зовут	-0.4248
-4.7534 зойка	0.0039
-4.7534 золдаты	-0.0763
-4.7534 золли	-0.0728
-4.7534 золота	0.0039
-4.1513 золотая	-0.2714
-4.7534 золотишко	-0.0728
-4.7534 золото	0.0039
-4.7534 золотом	0.0039
-4.7534 золотые	0.0039
-4.4523 зольдат	0.0044
-4.7534 зольхе[21]	0.0039
-4.7534 зону	0.0039
-4.7534 зоркие	-0.0801
-4.7534 зоя	0.0039
-3.9752 зря	-0.0641
-4.0544 зуб	0.0083
-4.7534 зубановым	0.0039
-4.7534 зубной	-0.0801
-4.2762 зубы	0.0068
-2.2218 и	-0.0501
-4.7534 иа	0.0039
-4.7534 ив	0.0039
-3.3383 иван	-0.1299
-4.7534 ивана	-0.0801
-4.7534 иванова	0.0039
-3.7991 иванович	-0.3635
-4.7534 ивановна	-0.0801
-4.7534 иваныч	-0.0801
-4.7534 иволгин	-0.0800
-4.7534 игнат	-0.0774
-4.7534 игнатик	0.0039
-4.7534 иго	-0.0801
-4.7534 игоревич	0.0039
-4.7534 игорь	-0.0696
-4.2762 игра	-0.0739
-4.7534 играем	0.0039
-4.0544 играет	-0.1402
-4.2762 играешь	-0.2802
-4.4523 играл	-0.2481
-3.8502 играть	-0.0960
-4.2762 играю	-0.1459
-4.7534 играют	0.0039
-3.4981 идем	-0.3156
-4.4523 идемте	0.0040
-3.4109 идет	-0.3488
-4.1513 идете	0.0062
-4.0544 идешь	-0.4053
-3.3916 иди	-0.0748
-4.7534 идиоты	0.0039
-4.0544 идите	-0.0740
-3.3731 идти	-0.3435
-3.9082 иду	-0.0844
-3.7119 идут	-0.1235
-4.7534 иждивении	-0.0801
-2.8841 из	-0.1422
-4.7534 избрал	0.0039
-4.7534 известие	0.0039
-3.9082 известно	-0.1076
-4.7534 извини	-0.0800
-4.1513 извините	0.0069
-4.7534 извиниться	-0.0801
-4.7534 извиняйся	-0.0798
-4.7534 изводишь	-0.0799
-4.7534 изволили	-0.0801
-4.7534 извольте	-0.0801
-4.7534 изготовление	0.0039
-4.4523 издалека	-0.2481
-4.7534 издырявлен	0.0039
-4.7534 изложил	-0.0797
-4.7534 изменим	-0.0801
-4.7534 измерительный	-0.0801
-4.7534 измотался	-0.0801
-4.7534 изобразили	0.0039
-4.7534 изобретение	0.0039
-4.7534 изучал	-0.0801
-4.7534 ии	-0.0801
-4.4523 ика	-0.0717
-4.7534 икар	0.0039
-4.7534 иква	0.0039
-4.7534 икону	0.0039
-4.4523 икс	-0.0801
-4.7534 ил	-0.0801
-3.0812 или	-0.0145
-4.7534 илларион	-0.0801
-4.7534 иллюстрация	-0.0791
-4.4523 илы	0.0058
-4.0544 ильич	-0.1350
-4.2762 илья	-0.0800
-4.7534 илюшенька	-0.0791
-4.7534 илюшка	-0.0785
-4.7534 илюшку	-0.0786
-3.8502 им	-0.0431
-4.7534 имбирь	0.0039
-4.7534 имевший	-0.0801
-4.4523 имеет	0.0085
-4.4523 имеете	-0.0759
-4.2762 имеешь	0.0086
-4.7534 имел	-0.0801
-4.4523 имени	0.0039
-3.4746 именно	-0.3204
-4.7534 именуют	-0.0801
-4.2762 иметь	0.0039
-4.2762 имею	-0.0797
-4.7534 ими	-0.0801
-4.7534 императора	-0.0728
-3.6394 имя	-0.2108
-4.7534 иначе	-0.0801
-4.7534 инвалид	-0.0799
-4.7534 индеец	-0.0801
-4.7534 индейцев	0.0039
-4.7534 индии	-0.0801
-4.4523 инженер	0.0040
-4.4523 иногда	0.0040
-4.7534 иному	-0.0800
-4.7534 иностpанец	-0.0795
-4.7534 иностранных	-0.0801
-4.7534 инспектор	0.0039
-4.7534 институт	-0.0801
-4.7534 институте	-0.0801
-4.7534 институтский	0.0039
-4.7534 инструктором	0.0039
-4.7534 инструмент	-0.0793
-4.7534 интеллигентный	-0.0800
-4.7534 интереса	0.0039
-4.7534 интересная	0.0039
-3.8502 интересно	0.0363
-4.7534 интересного	0.0039
-4.7534 интересоваться	0.0039
-4.7534 интернационал	0.0039
-4.7534 ион	0.0039
-4.7534 иренку	0.0039
-4.7534 ирина	-0.0801
-4.7534 ирода	-0.0773
-4.7534 иропланы	-0.0801
-4.7534 ирэн	-0.0769
-4.1513 искать	-0.0994
-4.7534 искорку	0.0039
-4.7534 искупаемся	-0.0789
-4.7534 искупать	-0.0801
-4.7534 искусстве	0.0039
-4.7534 ислям	-0.0801
-4.7534 испании	0.0039
-4.7534 испечем	0.0039
-4.1513 исполнилось	0.0045
-4.7534 исполняется	0.0039
-4.7534 исполняшь	0.0039
-4.7534 испортить	-0.0801
-4.7534 исправлюсь	0.0039
-4.7534 исправляла	-0.0801
-4.7534 исправна	0.0039
-4.7534 исправности	0.0039
-4.7534 испугал	0.0039
-4.4523 испугались	0.0090
-4.4523 испугался	0.0148
-4.7534 испытание	-0.0773
-4.7534 истекать	-0.0801
-4.7534 историю	-0.0799
-4.4523 история	0.0050
-4.7534 истребителей	-0.0801
-4.2762 истребители	-0.2802
-4.1513 истребитель	-0.6210
-4.7534 истру	0.0039
-4.7534 исцарапаться	0.0039
-4.7534 исчезла	0.0039
-4.7534 исчезнет	-0.0789
-4.4523 итак	-0.0801
-4.7534 итальянцев	-0.0798
-4.7534 итти	-0.0786
-4.7534 иту	-0.0801
-3.0373 их	-0.1089
-4.7534 ихнему	-0.0801
-4.7534 ихь	-0.0801
-4.7534 ишаках	0.0039
-4.7534 ищем	0.0039
-4.7534 ищенко	-0.0769
-4.1513 ищете	-0.6210
-4.7534 ищешь	0.0039
-4.1513 ищу	0.0041
-4.4523 й	0.0039
-4.7534 йога	0.0039
-2.7159 к	-0.2070
-3.3916 ка	-0.0095
-4.7534 кабаку	-0.0793
-4.4523 кабан	-0.2481
-4.7534 кабеля	-0.0783
-4.7534 кабине	0.0039
-4.7534 кабинете	0.0039
-4.7534 кабы	-0.0731
-4.7534 кавалерия	0.0039
-4.7534 кадриль	0.0039
-4.7534 кадров	0.0039
-4.7534 каждая	-0.0801
-4.7534 каждому	-0.0801
-4.2762 каждый	-0.0800
-3.3383 кажется	-0.0117
-4.2762 казак	0.0039
-4.7534 казакам	-0.0775
-4.7534 казаки	-0.0774
-4.7534 казаков	-0.0801
-4.7534 казалось	-0.0696
-4.7534 казанью	0.0039
-4.7534 казарме	-0.0801
-4.7534 казать	0.0039
-4.7534 казначей	-0.0801
-4.7534 казны	0.0039
-4.4523 кай	0.0039
-4.7534 кайф	-0.0760
-1.9451 как	-0.2248
-3.1970 какая	-0.0150
-3.1970 какие	-0.0534
-4.1513 каким	-0.0719
-3.8502 какими	-0.2838
-3.9752 каких	-0.0800
-4.4523 какова	-0.0801
-4.7534 каково	0.0039
-4.4523 каковы	-0.0799
-3.6394 какого	-0.0787
-3.3731 какое	-0.1679
-2.8612 какой	-0.0745
-3.6394 каком	0.0113
-4.0544 какому	-0.2277
-4.7534 каку	-0.0801
-3.4746 какую	-0.0094
-4.7534 калачом	-0.0801
-4.7534 календаре	-0.0801
-4.7534 калина	0.0039
-4.7534 калинин	0.0039
-4.7534 калиткой	0.0039
-4.7534 кальков	-0.0711
-4.7534 кальсоны	0.0039
-4.4523 камарада	-0.2481
-4.7534 камбалы	-0.0783
-4.7534 каменска	-0.0801
-4.4523 камень	-0.2481
-4.7534 камне	0.0039
-4.7534 камней	0.0039
-4.7534 камнями	0.0039
-4.7534 камыш	0.0039
-4.7534 канарейку	-0.0801
-4.7534 кандидов	-0.0801
-4.7534 кантон	-0.0800
-4.7534 канцелярию	0.0039
-4.7534 канцлер	0.0039
-4.7534 канючки	-0.0773
-4.4523 каос	-0.2481
-4.7534 капать	0.0039
-4.2762 капи	-0.1469
-3.3731 капитан	-0.4221
-3.7533 капитана	-0.0800
-4.7534 капитане	-0.0800
-4.7534 капитану	0.0039
-4.4523 капитон	-0.2481
-4.7534 каплуновку	0.0039
-4.7534 капрона	0.0039
-4.7534 капрэлян	-0.0786
-4.7534 капурина	-0.0763
-4.4523 капуста	-0.3279
-4.7534 капут	-0.0801
-4.7534 капэк	-0.0801
-4.7534 карабанов	-0.0696
-4.7534 караваеву	0.0039
-4.7534 каравеллы	0.0039
-4.4523 карандаш	0.0046
-4.7534 карандашик	0.0039
-4.7534 карасика	-0.0801
-4.4523 караул	0.0039
-4.7534 караулить	0.0039
-4.7534 караулы	-0.0801
-4.4523 карауль	0.0148
-4.7534 карета	-0.0775
-4.7534 карие	0.0039
-4.7534 каркаджу	-0.0728
-4.7534 карла	-0.0800
-4.7534 карлинхен	0.0039
-4.7534 карман	0.0039
-4.7534 кармана	-0.0799
-4.7534 кармане	-0.0801
-4.7534 карманные	-0.0796
-4.7534 карнавал	0.0039
-4.7534 карпин	-0.0800
-4.7534 карповича	0.0039
-4.7534 карта	0.0039
-4.7534 картавый	0.0039
-4.7534 картина	0.0039
-4.7534 картины	-0.0801
-4.7534 картон	-0.0801
-4.7534 картофелем	-0.0800
-4.7534 карточка	0.0039
-4.4523 карту	-0.2481
-4.7534 карты	-0.0800
-4.7534 карьером	0.0039
-4.7534 каспар	0.0039
-4.4523 кассу	0.0039
-4.7534 касторке	0.0039
-4.7534 кастрюли	0.0039
-4.7534 катают	0.0039
-4.7534 катер	0.0039
-4.7534 катера	-0.0801
-4.7534 катовицами	-0.0801
-4.7534 катовицы	0.0039
-4.7534 катукову	0.0039
-4.7534 катушка	0.0039
-4.7534 катю	-0.0801
-4.7534 катюша	0.0039
-4.2762 катя	-0.1469
-4.7534 кашеварить	0.0039
-4.7534 кашля	-0.0778
-4.7534 кашляете	0.0039
-4.7534 кашу	0.0039
-4.7534 кащенко	-0.0769
-4.4523 ква	0.0148
-4.7534 квакают	0.0039
-4.4523 квартире	-0.2481
-4.7534 квартирмейстерский	-0.0801
-4.7534 квартиры	-0.0799
-4.7534 квас	-0.0787
-4.7534 кви	-0.0789
-4.7534 квиддич	0.0039
-4.7534 кворум	-0.0801
-3.3916 кем	-0.0845
-4.7534 кеннеди	-0.0801
-4.7534 керосин	-0.0801
-4.7534 керосиновую	-0.0801
-4.4523 кивнул	0.0039
-4.7534 киев	0.0039
-4.7534 киевской	-0.0801
-4.7534 кизляр	-0.0801
-4.7534 кизляра	0.0039
-4.7534 кикирилла	0.0039
-4.7534 килограммов	-0.0752
-4.7534 километров	-0.0800
-4.7534 кимбаxli	0.0039
-3.9082 кино	-0.1617
-4.7534 киноленты	-0.0801
-4.7534 кинофабрике	0.0039
-4.4523 киррин	-0.2481
-4.7534 кирсанов	0.0039
-4.7534 киселем	0.0039
-4.2762 кисель	-0.1451
-4.7534 кисет	0.0039
-4.7534 киска	-0.0801
-4.7534 кислое	0.0039
-4.7534 кит	0.0039
-4.7534 китае	0.0039
-4.2762 клад	-0.1469
-4.7534 кладбище	0.0039
-4.7534 клан	0.0039
-4.7534 кланяется	-0.0801
-4.7534 клапана	-0.0728
-4.4523 класс	-0.0690
-4.2762 классе	-0.1421
-4.7534 классика	0.0039
-4.7534 классная	0.0039
-4.7534 классов	0.0039
-4.7534 клевер	0.0039
-4.7534 клеится	0.0039
-4.7534 клеймо	-0.0774
-4.7534 клетчатая	0.0039
-4.7534 климарь	-0.0783
-4.4523 климаря	-0.2481
-4.7534 климков	0.0039
-4.4523 клинт	0.0125
-4.7534 клипер	-0.0801
-4.7534 кличке	-0.0801
-4.7534 клички	-0.0798
-4.7534 клок	-0.0801
-4.7534 клоуны	-0.0800
-4.4523 клу	0.0039
-4.7534 клубе	0.0039
-4.7534 клубок	0.0039
-4.4523 клюковку	0.0039
-4.7534 ключ	-0.0801
-4.7534 ключи	-0.0801
-4.7534 клянетесь	0.0039
-4.7534 клятву	0.0039
-4.7534 клятвы	-0.0801
-4.7534 книга	-0.0800
-4.7534 книги	0.0039
-4.2762 книгу	-0.2802
-4.7534 книжицу	0.0039
-4.4523 книжка	0.0039
-4.7534 книжку	0.0039
-4.7534 князев	-0.0801
-4.4523 князь	0.0043
-3.5492 ко	-0.6808
-4.7534 кобра	0.0039
-4.7534 кобылка	0.0039
-4.4523 ковбой	0.0040
-4.4523 ковром	-0.2481
-4.4523 ковш	0.0073
-2.7621 когда	-0.1973
-2.9680 кого	-0.1827
-3.9752 кое	-0.9345
-4.4523 коем	-0.3321
-4.7534 кожа	0.0039
-4.7534 козлят	0.0039
-4.7534 козыри	0.0039
-4.7534 коих	-0.0771
-4.1513 кой	0.0059
-4.7534 кок	0.0039
-4.7534 коккинаки	-0.0801
-4.7534 кол	-0.0801
-4.7534 колдун	0.0039
-4.7534 колдунова	0.0039
-4.7534 колеи	0.0039
-4.4523 колей	0.0061
-4.7534 колена	0.0039
-4.7534 колес	-0.0801
-4.7534 колесников	0.0039
-4.7534 колечко	0.0039
-4.4523 коли	0.0129
-4.7534 коллегами	0.0039
-4.7534 коллектив	0.0039
-4.7534 коловорот	0.0039
-4.2762 колодец	-0.1434
-4.7534 колодца	0.0039
-4.7534 колокола	0.0039
-4.7534 колоколов	0.0039
-4.7534 колокольчики	0.0039
-4.7534 колонна	0.0039
-4.7534 колосья	0.0039
-4.7534 колотишься	0.0039
-4.4523 колпачки	-0.2481
-4.7534 колхозник	0.0039
-4.7534 колченогий	0.0039
-4.7534 колымагу	0.0039
-4.7534 колькой	-0.0796
-4.7534 кольца	0.0039
-4.4523 кольцо	-0.0792
-4.7534 кольцовку	0.0039
-4.7534 кольцу	-0.0801
-4.7534 колю	0.0039
-4.7534 колючий	-0.0752
-4.2762 коля	-0.0768
-4.7534 ком	0.0039
-4.2762 команда	0.0040
-4.7534 командарм	-0.0778
-2.8783 командир	-0.4374
-4.1513 командира	-0.1810
-4.7534 командире	0.0039
-4.7534 командиров	0.0039
-4.7534 командированным	0.0039
-4.7534 командировке	0.0039
-4.7534 командировки	0.0039
-3.9082 командиром	-0.0440
-4.7534 командирские	-0.0798
-4.7534 командиры	-0.0801
-4.7534 командным	-0.0801
-4.7534 командовал	0.0039
-4.2762 командование	0.0039
-4.7534 командованию	-0.0801
-4.7534 командует	-0.0801
-4.4523 командуете	-0.0801
-4.1513 командующего	-0.1900
-3.9752 командующий	-0.3046
-4.7534 командующих	-0.0801
-4.2762 команды	0.0099
-4.7534 комар	-0.0801
-4.4523 комарово	-0.3321
-3.9752 комбат	-0.3166
-4.7534 комбата	0.0039
-4.7534 комбаты	0.0039
-4.2762 комбриг	-0.2802
-4.2762 комдив	-0.1470
-4.7534 комедию	0.0039
-4.7534 комелькова	0.0039
-4.4523 комендант	-0.2481
-4.7534 комендантский	-0.0801
-4.7534 коменданту	0.0039
-4.7534 коминтерн	-0.0728
-3.9082 комиссар	-0.5813
-4.7534 комиссаров	0.0039
-4.2762 комитет	-0.2802
-4.7534 комкор	0.0039
-4.1513 коммунист	-0.6210
-4.7534 коммунистом	0.0039
-4.7534 комнате	0.0039
-4.4523 комнату	-0.0725
-4.7534 комоса	-0.0778
-4.7534 комплектов	0.0039
-4.7534 комполка	-0.0794
-4.7534 компрессора	-0.0783
-4.7534 комсомол	0.0039
-4.2762 комсомолец	-0.1455
-4.4523 комсомольцы	-0.2481
-4.7534 комсорг	-0.0711
-3.4109 кому	-0.2789
-4.7534 конверты	0.0039
-4.2762 конвой	-0.1463
-4.7534 кондаков	-0.0801
-4.7534 кондратенко	0.0039
-4.7534 кондрашов	-0.0775
-4.4523 коне	-0.2481
-4.7534 конев	-0.0783
-4.7534 конем	0.0039
-4.7534 конец	0.0039
-3.4311 конечно	-0.3070
-4.7534 конкретно	-0.0760
-4.7534 конкретную	-0.0801
-4.7534 коннель	0.0039
-4.7534 конники	-0.0801
-4.7534 коннице	0.0039
-4.7534 коновалов	-0.0789
-4.7534 консервы	0.0039
-4.7534 константин	-0.0801
-4.7534 константинович	0.0039
-4.7534 константиновичем	0.0039
-4.7534 константиновной	-0.0801
-4.7534 константином	-0.0801
-4.7534 конструкторами	0.0039
-4.2762 контакт	-0.2802
-4.7534 контактов	0.0039
-4.7534 контейнер	-0.0774
-4.7534 контрабандисты	0.0039
-4.7534 контрабас	-0.0782
-4.7534 контрабасе	-0.0801
-4.7534 контрольная	-0.0800
-4.7534 контрольной	0.0039
-4.7534 контрольную	-0.0801
-4.7534 контрразведке	0.0039
-4.4523 конца	0.0043
-4.7534 концерте	0.0039
-4.7534 концерту	-0.0801
-4.4523 кончается	0.0073
-4.7534 кончал	-0.0797
-4.2762 кончил	-0.1419
-4.7534 кончилась	0.0039
-4.4523 кончили	0.0039
-4.4523 кончилось	-0.2481
-4.7534 кончится	0.0039
-4.4523 коншин	-0.0793
-4.4523 конь	0.0039
-4.7534 конюшню	0.0039
-4.7534 конюшня	-0.0801
-4.7534 коня	-0.0801
-4.7534 коням	0.0039
-4.7534 коолд	0.0039
-4.7534 копаешься	0.0039
-4.7534 копал	0.0039
-4.7534 копейкин	0.0039
-4.7534 копилку	0.0039
-4.7534 корабельному	0.0039
-4.2762 корабли	-0.2802
-4.2762 корабль	-0.1447
-4.7534 корма	0.0039
-4.7534 кормильца	0.0039
-4.7534 кормить	-0.0795
-4.7534 кормишь	0.0039
-4.7534 кормленый	0.0039
-4.7534 кормлю	0.0039
-4.7534 корня	0.0039
-4.7534 корням	-0.0775
-4.7534 коробок	-0.0801
-4.7534 коров	-0.0773
-4.2762 корова	-0.1469
-4.7534 коровами	-0.0801
-4.7534 коровенка	-0.0801
-4.4523 коровкин	0.0041
-4.4523 корову	-0.0801
-4.7534 королей	-0.0801
-4.0544 король	-0.1370
-4.7534 королю	0.0039
-4.7534 короля	0.0039
-4.7534 корона	-0.0711
-4.7534 короткие	-0.0801
-4.7534 короткий	0.0039
-4.7534 коротко	-0.0782
-4.7534 коротышка	0.0039
-4.4523 короче	-0.2481
-4.4523 корпус	-0.2481
-4.4523 корреспондент	0.0042
-4.7534 корчига	0.0039
-4.7534 коса	0.0039
-4.7534 космический	-0.0801
-4.7534 космонавт	0.0039
-4.7534 космонавта	0.0039
-4.4523 кости	0.0045
-4.7534 костоцкий	0.0039
-4.4523 костюм	0.0039
-4.4523 костюме	0.0039
-3.9752 костя	-0.0561
-4.4523 косы	0.0039
-4.7534 коська	-0.0801
-4.4523 кот	-0.2481
-4.7534 котельвы	0.0039
-4.7534 котенок	-0.0763
-4.7534 котле	0.0039
-4.4523 котлубань	0.0040
-4.7534 котлярова	-0.0752
-4.7534 которого	-0.0801
-4.7534 которое	-0.0788
-4.7534 которой	-0.0801
-4.7534 котором	-0.0801
-4.2762 которые	-0.0783
-3.9752 который	-0.0642
-4.7534 котурны	0.0039
-4.2762 кофе	-0.1454
-4.7534 кохан	-0.0800
-4.7534 коханный	0.0039
-4.7534 кочерга	-0.0787
-4.7534 кошка	0.0039
-4.7534 кошкарев	0.0039
-4.7534 кошки	-0.0728
-4.7534 кошмар	-0.0772
-4.4523 кп	-0.2481
-4.7534 кпп	0.0039
-4.7534 кра	0.0039
-4.7534 краба	0.0039
-4.2762 крабат	-0.0796
-4.7534 крабы	-0.0786
-4.7534 крадете	-0.0801
-4.7534 крае	0.0039
-4.7534 крайнев	0.0039
-4.7534 краков	-0.0801
-4.7534 краксом	-0.0796
-4.7534 крана	0.0039
-4.1513 красиво	-0.1790
-4.7534 красивое	0.0039
-4.7534 красивый	-0.0801
-4.7534 красная	-0.0801
-4.2762 красноармеец	0.0040
-4.7534 красного	-0.0801
-4.2762 красной	-0.0801
-4.7534 краснокутский	0.0039
-4.7534 красном	-0.0801
-4.7534 красную	-0.0801
-4.4523 красные	-0.0797
-4.7534 красный	-0.0801
-4.4523 красными	-0.0793
-4.7534 красотища	0.0039
-4.7534 краях	0.0039
-4.7534 крейсер	0.0039
-4.7534 крейсере	-0.0801
-4.7534 крепкий	0.0039
-4.7534 крепко	-0.0801
-4.7534 крепкое	0.0039
-4.7534 крепость	-0.0801
-4.7534 крепостью	0.0039
-4.7534 крепыш	0.0039
-4.7534 кресле	-0.0801
-4.7534 кресло	-0.0801
-4.7534 крест	0.0039
-4.4523 креста	0.0050
-4.7534 крестины	0.0039
-4.7534 кретина	-0.0801
-4.7534 крещением	-0.0788
-4.7534 кривляйся	0.0039
-4.7534 кривые	0.0039
-4.7534 крик	0.0039
-4.7534 крика	0.0039
-4.7534 крикнул	-0.0801
-4.7534 кричали	0.0039
-4.7534 кричат	0.0039
-4.7534 кричать	-0.0798
-4.1513 кричит	-0.1878
-4.7534 кричите	-0.0799
-4.1513 кричишь	-0.1027
-4.4523 крови	0.0042
-4.4523 кровь	0.0041
-4.7534 кровью	-0.0783
-4.7534 крокодил	-0.0731
-3.9752 крокодилы	-0.8610
-4.7534 кролем	0.0039
-4.4523 кролик	0.0040
-4.2762 кроме	-0.0766
-4.7534 кроха	-0.0799
-4.4523 крошками	-0.2481
-4.4523 круг	-0.2481
-4.7534 круглая	0.0039
-4.7534 кругов	-0.0774
-4.7534 кругом	-0.0788
-4.4523 кружева	0.0067
-4.1513 кружится	-0.0986
-4.7534 кружки	0.0039
-4.7534 крупно	-0.0801
-4.7534 крупу	-0.0801
-4.7534 крути	-0.0787
-4.4523 крутится	-0.2481
-4.7534 крутиться	0.0039
-4.7534 крылатая	-0.0696
-4.7534 крыльца	0.0039
-4.7534 крылья	0.0039
-4.7534 крыльях	0.0039
-4.4523 крым	0.0039
-4.7534 крымов	-0.0800
-4.7534 крыса	-0.0801
-4.7534 крысы	0.0039
-4.7534 крытые	-0.0801
-4.7534 крыша	0.0039
-4.4523 крышка	-0.2481
-4.7534 крышу	-0.0801
-4.7534 кря	-0.0696
-4.7534 кряк	-0.0696
-4.7534 крякнуть	0.0000
-4.7534 ксендз	0.0039
-4.7534 ксения	-0.0801
-4.2762 кстати	-0.0735
-2.1747 кто	-0.3746
-3.8502 ку	-0.2984
-4.7534 куб	0.0039
-4.7534 кубдю	-0.0728
-4.7534 кубрик	0.0039
-2.4129 куда	-0.2873
-4.7534 кудрявцев	0.0039
-4.7534 куды	0.0039
-4.7534 кужевик	0.0039
-4.7534 кузне	-0.0800
-4.7534 кузнецы	-0.0801
-4.7534 кузовкин	0.0039
-4.7534 куколкой	-0.0750
-4.7534 кукушка	0.0039
-4.7534 кулак	-0.0775
-4.7534 кулаками	0.0039
-4.7534 кулинарную	-0.0801
-4.7534 кульке	0.0039
-4.4523 купаться	0.0040
-4.7534 купера	0.0039
-4.4523 купи	-0.0801
-4.7534 купив	0.0039
-4.4523 купил	-0.0797
-4.7534 купим	0.0039
-4.7534 купите	-0.0789
-4.7534 купить	-0.0801
-4.7534 куржаков	0.0039
-4.7534 кури	-0.0775
-4.7534 курином	-0.0801
-4.7534 курить	-0.0763
-4.7534 куришь	0.0039
-4.7534 курочка	-0.0801
-4.7534 курочкин	0.0039
-4.7534 курс	0.0039
-4.7534 курсавке	-0.0785
-4.7534 курсанта	-0.0801
-4.7534 курсантов	-0.0801
-4.7534 курсу	-0.0799
-4.4523 курсы	0.0167
-4.7534 кусает	0.0039
-4.7534 кусать	-0.0801
-4.7534 кусают	0.0039
-4.7534 куска	0.0039
-4.7534 куст	0.0039
-4.7534 кустах	0.0039
-4.7534 кухне	-0.0796
-4.4523 кухню	-0.0787
-4.7534 кучу	0.0039
-4.7534 куш	0.0039
-4.4523 кушайте	0.0039
-4.4523 кушал	-0.2481
-4.7534 кушать	0.0039
-4.7534 кую	-0.0790
-4.7534 кххх	-0.0801
-4.7534 кынчо	0.0039
-4.7534 кэпн	-0.0752
-4.7534 кэптен	0.0039
-4.7534 л	-0.0750
-4.7534 лавке	-0.0801
-4.7534 лавочке	0.0039
-4.7534 лагерь	0.0039
-4.4523 лагунов	-0.2481
-3.4311 ладно	-0.1691
-4.7534 ладыгин	-0.0801
-4.7534 лается	-0.0796
-4.4523 лазил	0.0048
-4.7534 лазили	0.0039
-4.7534 лазоревка	-0.0801
-4.7534 лакет	0.0039
-4.7534 лактионыч	0.0039
-4.7534 лала	0.0039
-4.7534 лампу	0.0039
-4.7534 ланиты	0.0039
-4.7534 лапотников	0.0039
-4.7534 лапти	-0.0801
-4.7534 лапу	0.0039
-4.7534 лапы	-0.0786
-4.7534 ларго	0.0039
-4.4523 ларионов	0.0101
-4.7534 лариска	0.0039
-4.7534 ласточки	-0.0728
-4.4523 ле	0.0041
-4.7534 лебри	0.0039
-4.7534 лев	-0.0801
-4.7534 лева	-0.0711
-4.7534 левого	0.0039
-4.7534 левом	-0.0801
-4.7534 левую	-0.0801
-4.7534 левый	-0.0801
-4.7534 лег	0.0039
-4.7534 легка	-0.0731
-4.7534 легкий	0.0039
-4.7534 легких	-0.0801
-4.7534 легко	0.0039
-4.1513 легче	0.0149
-4.7534 лед	0.0039
-4.7534 лежат	-0.0763
-4.7534 лежачего	-0.0728
-4.7534 лежим	0.0039
-4.2762 лежит	-0.1470
-4.7534 лежите	0.0039
-4.7534 лежу	-0.0775
-4.4523 лезешь	0.0073
-4.7534 лезли	0.0039
-4.7534 лезут	-0.0801
-3.2909 лейтенант	-0.2792
-4.7534 лейтенанта	0.0039
-4.7534 лейтенантиком	0.0039
-4.7534 лек	-0.0801
-4.7534 лекарственные	-0.0801
-4.7534 лекция	-0.0795
-4.7534 лелю	-0.0797
-4.7534 леля	-0.0752
-4.7534 лен	0.0039
-4.1513 лена	-0.0887
-4.7534 ленин	0.0039
-4.7534 ленинград	0.0039
-4.7534 ленинграда	0.0039
-4.7534 ленинградцами	0.0039
-4.7534 ленточка	0.0039
-4.2762 лень	-0.1469
-4.0544 леня	-0.0625
-4.4523 леокадия	0.0148
-4.4523 леонид	-0.0800
-4.7534 леопарда	0.0039
-4.7534 лепешев	0.0039
-4.2762 лес	-0.1437
-4.7534 лесенка	-0.0801
-4.7534 лесной	-0.0801
-3.8502 лесу	-0.2030
-3.4981 лет	-0.4730
-4.4523 летает	-0.2481
-4.7534 летаете	-0.0799
-3.9082 летал	-0.5685
-4.1513 летали	-0.0985
-4.7534 леталось	-0.0800
-3.9082 летать	-0.2534
-4.7534 летают	0.0039
-4.2762 летели	-0.0677
-3.8502 лететь	-0.2103
-4.1513 летим	-0.1900
-4.2762 летит	-0.0752
-4.7534 летите	0.0039
-4.1513 летишь	-0.1900
-4.7534 летнего	0.0039
-4.7534 летом	0.0039
-4.7534 летучие	-0.0800
-3.7991 летчик	-0.1590
-4.1513 летчики	0.0086
-4.4523 летчиков	-0.0801
-4.7534 лехтен	-0.0801
-4.7534 лечение	0.0039
-4.7534 лечить	-0.0801
-4.4523 леша	0.0040
-4.7534 леший	0.0039
-4.7534 лешка	0.0039
-2.5574 ли	-0.2010
-4.7534 лизе	0.0039
-4.7534 лимузин	-0.0801
-4.7534 лина	-0.0801
-4.7534 линину	-0.0801
-4.4523 линию	-0.0801
-4.2762 линия	0.0040
-4.7534 лионель	0.0039
-4.7534 липа	0.0039
-4.7534 липкина	0.0039
-4.7534 липу	0.0039
-4.2762 лиса	-0.2309
-4.7534 лисами	0.0039
-4.7534 листок	0.0039
-4.7534 литературой	0.0039
-4.7534 литературу	-0.0798
-4.7534 литерная	-0.0801
-4.7534 лиховид	0.0039
-4.7534 лицо	-0.0801
-4.2762 лично	-0.1470
-4.7534 личном	-0.0801
-4.7534 личности	-0.0801
-4.7534 личным	-0.0801
-4.7534 лишилась	-0.0801
-4.7534 лишился	0.0039
-4.7534 лишний	-0.0801
-4.7534 ллюет	0.0039
-4.7534 ло	-0.0798
-4.7534 лоб	0.0039
-4.7534 лобош	-0.0711
-4.7534 лови	-0.0801
-4.7534 ловит	-0.0696
-4.2762 ловить	-0.1470
-4.7534 ловко	-0.0801
-4.7534 ловушки	-0.0801
-4.7534 ловушку	-0.0793
-4.7534 лог	-0.0799
-4.7534 логично	-0.0728
-4.4523 лодка	-0.2481
-4.7534 лодками	0.0039
-4.7534 лодке	-0.0761
-4.7534 ложек	-0.0728
-4.7534 ложимся	-0.0773
-4.2762 ложись	-0.0668
-4.7534 ложиться	-0.0800
-4.7534 ложишься	-0.0801
-4.7534 ложка	0.0039
-4.7534 ложки	-0.0778
-4.7534 лом	0.0039
-4.7534 ломаете	0.0039
-4.4523 ломайте	-0.0801
-4.7534 ломать	-0.0799
-4.7534 лопату	0.0039
-4.7534 лопаты	0.0039
-4.7534 лопнет	0.0039
-4.7534 лопнешь	-0.0799
-4.7534 лопухами	0.0039
-4.7534 лордом	-0.0794
-4.7534 лососины	0.0039
-4.7534 лотик	-0.0728
-4.7534 лохин	-0.0799
-4.2762 лошадей	-0.1468
-3.9752 лошади	-0.3037
-4.1513 лошадь	-0.0696
-4.7534 лузгин	0.0039
-4.7534 лузгина	-0.0801
-4.4523 лука	-0.0791
-4.4523 лукос	0.0101
-4.7534 луночь	-0.0792
-4.7534 лутьюфо	-0.0796
-3.4311 лучше	-0.1266
-4.7534 лучшее	0.0039
-4.4523 лучший	-0.0763
-4.7534 лучших	-0.0786
-4.7534 лыжи	0.0039
-4.7534 лыжников	0.0039
-4.7534 лысюра	0.0039
-4.7534 лычкин	-0.0773
-4.2762 ль	-0.1469
-4.7534 львенок	-0.0796
-4.2762 львов	-0.1465
-4.7534 львович	-0.0696
-4.4523 львы	-0.2481
-4.7534 льду	0.0039
-4.7534 льняное	-0.0799
-4.7534 люби	-0.0798
-4.7534 любивец	0.0039
-4.7534 любивца	0.0039
-4.7534 любили	-0.0788
-4.7534 любимец	-0.0800
-4.1513 любите	-0.0785
-4.4523 любить	-0.0789
-4.4523 любишь	0.0051
-4.2762 люблю	-0.1469
-4.7534 любовь	0.0039
-4.7534 любое	-0.0728
-4.7534 любуетесь	-0.0797
-4.7534 любую	0.0039
-4.4523 любят	-0.0794
-3.5772 людей	-0.3411
-3.3916 люди	-0.3297
-4.7534 людмила	0.0039
-4.7534 людникову	0.0039
-4.7534 людочка	0.0039
-4.4523 людям	0.0039
-4.1513 люк	-0.0944
-4.7534 люков	0.0039
-4.7534 люльку	0.0039
-4.7534 лягут	0.0039
-4.7534 лягушек	0.0039
-4.7534 лягушка	-0.0752
-4.7534 лягушки	-0.0801
-4.7534 лягушкольник	-0.0785
-4.7534 лян	0.0039
-4.1513 м	0.0063
-3.8502 ма	-0.1790
-4.4523 мабуть	0.0039
-4.7534 магазин	-0.0696
-4.2762 магазине	-0.0603
-4.4523 магистр	-0.2481
-4.7534 магистраль	0.0039
-4.7534 маглич	0.0039
-4.7534 магнето	-0.0801
-4.7534 магнитом	0.0039
-4.7534 мадриде	0.0039
-4.7534 маечка	0.0039
-4.7534 мажирин	-0.0801
-4.7534 мазь	-0.0801
-4.7534 майер	-0.0801
-4.7534 майк	-0.0752
-4.7534 майка	0.0039
-4.4523 майонез	-0.0764
-3.4981 майор	-0.3651
-3.9752 майора	-0.1153
-4.7534 майором	0.0039
-4.7534 макака	-0.0785
-4.7534 макар	-0.0731
-4.7534 макарове	-0.0775
-4.1513 максим	-0.1900
-4.7534 максима	0.0039
-4.7534 максимка	0.0039
-4.7534 максимы	0.0039
-4.7534 мал	-0.0752
-4.7534 малайка	-0.0785
-4.4523 маленькая	-0.2481
-4.7534 маленькие	-0.0801
-3.9752 маленький	-0.3132
-4.7534 маленько	-0.0790
-4.7534 малиничев	0.0039
-4.7534 малиновскому	0.0039
-3.7991 мало	-0.1748
-4.7534 маловат	-0.0783
-4.7534 маловато	-0.0800
-4.7534 малость	0.0039
-4.7534 малую	-0.0801
-4.7534 малфоя	-0.0775
-4.7534 малые	-0.0801
-4.4523 малый	-0.2481
-4.2762 малыш	-0.1453
-3.6072 мальчик	-0.4481
-4.7534 мальчика	0.0039
-4.4523 мальчики	-0.0655
-4.7534 мальчишек	0.0039
-4.7534 мальчишку	0.0039
-4.7534 мальчуган	-0.0772
-4.2762 мам	-0.2267
-3.2093 мама	-0.2756
-4.7534 мамаев	0.0039
-4.7534 мамаша	-0.0791
-4.7534 маме	-0.0696
-4.4523 мамка	-0.0770
-4.7534 мамой	-0.0801
-4.0544 мамочка	0.0072
-4.7534 мамочки	0.0039
-4.1513 маму	-0.1790
-4.4523 мамы	-0.0771
-4.7534 манерам	0.0039
-4.7534 манную	-0.0801
-4.2762 мансур	-0.0674
-4.7534 маныч	-0.0787
-4.4523 маргарита	-0.3321
-4.7534 марина	-0.0801
-4.7534 марине	-0.0696
-4.7534 маринка	0.0039
-4.4523 мария	-0.0788
-4.7534 марк	0.0039
-4.7534 марка	0.0039
-4.7534 марки	-0.0783
-4.4523 мартин	-0.0730
-4.7534 мартынов	-0.0750
-4.7534 мартышка	0.0039
-4.4523 марцинек	-0.3251
-4.2762 марш	-0.0772
-4.2762 маршал	-0.1341
-4.4523 маршрут	0.0043
-4.7534 маршрутом	-0.0786
-4.7534 маршруту	0.0039
-4.7534 маска	0.0039
-4.7534 маскарад	0.0039
-4.7534 маскироваться	0.0039
-4.7534 маскировка	-0.0711
-4.7534 маску	0.0039
-4.7534 масла	0.0039
-4.7534 масло	-0.0728
-4.4523 масса	-0.0801
-3.9752 мастер	-0.3167
-4.4523 мастеровые	-0.0786
-4.7534 мастеровых	0.0039
-4.7534 масштабы	-0.0801
-4.7534 матвеевна	-0.0760
-4.7534 матвей	0.0039
-4.4523 матери	0.0058
-4.7534 материалы	0.0039
-4.0544 матиуш	0.0097
-4.7534 матрос	-0.0801
-4.7534 матушка	0.0039
-4.7534 матушку	-0.0801
-3.9082 мать	-0.0925
-4.7534 матюхин	0.0039
-4.7534 маус	0.0039
-4.7534 махину	0.0039
-4.7534 махнем	-0.0800
-4.7534 махорку	-0.0794
-4.1513 маша	-0.1026
-4.4523 машенька	0.0050
-4.4523 машет	0.0052
-4.7534 машин	-0.0786
-3.7991 машина	-0.2488
-4.7534 машинах	-0.0801
-4.1513 машине	-0.1899
-4.7534 машиниста	-0.0801
-4.7534 машинистов	-0.0801
-4.7534 машинке	0.0039
-4.7534 машинку	0.0039
-4.4523 машиной	0.0039
-4.2762 машину	0.0058
-3.7991 машины	-0.1695
-4.7534 мебели	0.0039
-4.7534 мегабат	-0.0801
-4.7534 мегатонн	0.0039
-4.7534 мегеру	-0.0796
-4.4523 мед	0.0040
-4.7534 медали	0.0039
-4.4523 медальоны	0.0042
-4.7534 медведей	0.0039
-4.7534 медведем	0.0039
-4.7534 медведица	-0.0728
-4.7534 медведь	-0.0801
-4.7534 меди	0.0039
-4.7534 медики	0.0039
-4.2762 медленно	-0.0799
-4.7534 медсестрой	-0.0801
-4.7534 медь	-0.0773
-4.2762 между	-0.3642
-4.7534 мелешь	0.0039
-4.7534 мель	-0.0801
-4.7534 мельник	0.0039
-4.4523 мельником	-0.2481
-4.7534 мельница	-0.0801
-4.7534 мельнице	-0.0801
-4.7534 мельницы	-0.0783
-4.4523 меньше	0.0039
-2.6361 меня	-0.0927
-4.7534 меняю	0.0039
-4.7534 меняют	0.0039
-4.7534 мере	-0.0801
-4.7534 меркулов	0.0039
-4.7534 мертв	0.0039
-4.7534 мертвая	-0.0801
-4.4523 мертвого	-0.2481
-4.4523 мертвый	-0.2481
-4.7534 меры	-0.0801
-4.7534 мессера	-0.0801
-4.7534 мессеров	0.0039
-4.7534 мессершмитты	0.0039
-4.7534 мест	-0.0801
-3.9752 места	-0.2955
-4.7534 местах	0.0039
-4.1513 месте	-0.6210
-4.4523 местечко	0.0039
-4.7534 местная	-0.0801
-4.7534 местные	0.0039
-4.1513 место	-0.1006
-4.7534 месяц	0.0039
-4.7534 месяца	-0.0800
-4.7534 месяцы	0.0039
-4.7534 метод	0.0039
-4.7534 метров	-0.0801
-4.7534 механизированная	0.0039
-4.2762 механик	-0.1470
-4.7534 механика	0.0039
-4.2762 меч	0.0093
-4.7534 мечта	0.0039
-4.4523 мечтал	0.0039
-4.7534 мечты	0.0039
-4.7534 мешает	0.0039
-4.7534 мешай	-0.0801
-4.7534 мешайте	-0.0760
-4.7534 мешки	-0.0763
-4.1513 мешок	0.0177
-4.4523 ми	-0.0801
-4.7534 миг	-0.0801
-4.7534 миге	0.0039
-4.7534 миккель	-0.0731
-4.4523 милая	0.0099
-4.7534 миленькие	-0.0761
-4.7534 миленький	-0.0801
-4.7534 милицию	0.0039
-4.4523 милиция	-0.2481
-4.7534 милостивая	-0.0801
-4.7534 милостивый	-0.0801
-4.7534 милочка	-0.0801
-4.7534 милы	-0.0728
-4.7534 милые	-0.0761
-4.2762 милый	0.0178
-4.7534 мимо	-0.0801
-4.7534 минерах	0.0039
-4.7534 минервы	0.0039
-4.4523 министр	0.0039
-4.4523 министра	0.0039
-4.7534 минской	0.0039
-3.9752 минут	-0.1118
-4.4523 минута	0.0040
-4.4523 минутку	-0.2481
-4.4523 минуту	0.0040
-4.4523 мины	0.0039
-4.7534 миня	-0.0795
-4.2762 мио	-0.2309
-4.7534 мир	0.0039
-4.7534 мир[20]	0.0039
-4.1513 мире	0.0041
-4.7534 мирон	-0.0801
-4.7534 миронов	-0.0801
-4.4523 мисс	0.0039
-4.4523 миссис	-0.0801
-3.9752 мистер	-0.2309
-4.7534 митенька	-0.0800
-4.4523 митинг	0.0039
-4.7534 митинге	0.0039
-4.4523 митька	-0.0794
-4.4523 михаил	0.0040
-4.4523 михайлик	0.0040
-4.7534 михайлов	0.0039
-3.8502 михайлович	-0.4458
-4.7534 михайловна	0.0039
-4.7534 михалыч	-0.0801
-4.7534 миш	0.0039
-3.9752 миша	0.0211
-4.7534 мишанчик	-0.0801
-4.7534 мишей	0.0039
-4.7534 мишени	0.0039
-4.7534 мишенька	-0.0801
-4.7534 мишка	-0.0787
-4.7534 мишке	-0.0801
-4.7534 младенец	-0.0792
-4.4523 младший	-0.3319
-4.7534 младых	-0.0801
-4.7534 мм	0.0039
-2.6103 мне	-0.0848
-4.4523 мнимой	0.0099
-4.7534 многа	0.0039
-4.7534 многих	-0.0801
-3.3062 много	-0.0598
-3.4109 мной	-0.2881
-4.7534 мо	-0.0801
-4.7534 мовлю	-0.0801
-3.7533 мог	-0.0748
-4.7534 могил	0.0039
-4.2762 могила	-0.1469
-4.7534 могилкин	0.0039
-4.7534 могилу	-0.0696
-3.8502 могли	-0.1654
-4.7534 могло	-0.0796
-3.1970 могу	-0.2118
-4.2762 могут	-0.0795
-4.7534 могущественнее	-0.0801
-4.7534 могущественное	-0.0801
-4.7534 мода	-0.0773
-4.7534 моде	0.0039
-3.7119 мое	-0.0903
-4.0544 моего	0.0129
-4.0544 моей	-0.0801
-4.0544 моем	0.0040
-3.9082 моему	-0.0661
-4.7534 моется	0.0039
-4.7534 моешь	-0.0800
-4.7534 мож	-0.0801
-4.7534 може	-0.0790
-3.9752 можем	0.0040
-2.6427 может	-0.1601
-3.7533 можете	-0.0290
-3.4523 можешь	-0.1253
-2.7533 можно	-0.1739
-3.7991 мои	-0.0710
-4.0544 моим	-0.0795
-4.7534 моих	-0.0801
-3.3554 мой	-0.0269
-4.7534 мокрой	-0.0801
-4.7534 мокут	-0.0801
-4.7534 молдаванина	0.0039
-4.7534 моллюсков	0.0039
-4.7534 молодежь	-0.0799
-3.7119 молодец	-0.0367
-4.7534 молодой	-0.0800
-4.7534 молодцы	-0.0799
-4.7534 молодые	-0.0800
-4.4523 моложе	0.0062
-4.4523 молока	-0.2481
-4.7534 молоко	0.0039
-4.7534 молоком	0.0039
-4.7534 молотилки	0.0039
-4.4523 молчал	-0.2481
-4.7534 молчание	-0.0800
-4.7534 молчи	-0.0801
-4.4523 молчит	0.0039
-3.9752 молчите	-0.3118
-3.9752 молчишь	-0.3148
-4.7534 молчу	-0.0760
-4.7534 момент	0.0039
-4.7534 монголии	0.0039
-4.7534 монеты	0.0039
-4.7534 монпансье	0.0039
-4.7534 монтируется	0.0039
-4.7534 мораль	0.0039
-4.7534 моран	-0.0773
-4.7534 морде	-0.0801
-4.7534 морды	-0.0801
-4.4523 море	-0.2481
-4.7534 морем	-0.0801
-4.7534 морозить	-0.0801
-4.7534 морозище	0.0039
-4.7534 морозов	-0.0801
-4.7534 морочишь	-0.0791
-4.7534 морская	-0.0801
-4.4523 морским	0.0048
-4.7534 морское	-0.0801
-4.7534 мортен	-0.0800
-4.7534 моря	0.0039
-4.7534 моряк	0.0039
-4.7534 моряком	-0.0799
-4.7534 морям	0.0039
-4.7534 морячок	0.0039
-4.7534 москау	0.0039
-4.2762 москва	0.0091
-4.4523 москве	-0.2481
-4.7534 москвой	0.0039
-3.9082 москву	-0.2303
-4.4523 москвы	0.0073
-4.0544 мост	0.0060
-4.7534 мостики	0.0039
-4.7534 мостом	0.0039
-4.7534 мосту	0.0039
-4.7534 мотовилов	0.0039
-4.7534 мотогонщик	-0.0711
-3.8502 мотор	-0.1922
-4.7534 моторист	0.0039
-4.7534 моторное	-0.0801
-4.7534 мотором	0.0039
-4.2762 моторы	0.0047
-4.4523 мотька	-0.0801
-4.7534 мох	0.0039
-3.9082 мою	-0.1384
-3.7533 моя	-0.0635
-4.7534 мразь	0.0039
-4.4523 му	-0.0778
-4.7534 мудрик	-0.0775
-4.7534 мудрите	-0.0801
-4.7534 мудрить	-0.0801
-4.4523 мудрый	-0.0798
-3.8502 муж	-0.1260
-4.7534 мужа	0.0039
-4.7534 мужем	0.0039
-4.7534 мужик	0.0039
-4.7534 мужики	-0.0801
-4.7534 мужской	-0.0801
-4.7534 мужчина	0.0039
-4.4523 музей	-0.2481
-4.7534 музыкальной	-0.0801
-4.7534 мука	0.0039
-4.7534 мун	-0.0801
-4.7534 мурзиком	0.0039
-4.7534 мурзилка	0.0039
-4.7534 мурми	0.0039
-4.4523 мустафа	-0.2481
-4.7534 мусь	-0.0711
-4.7534 мутная	0.0039
-4.7534 муторно	0.0039
-4.4523 муха	0.0056
-4.7534 мухавец	0.0039
-4.7534 мухи	-0.0801
-4.4523 мухобою	0.0148
-4.7534 мухобоя	-0.0752
-4.7534 муху	-0.0775
-4.7534 мучение	0.0039
-4.7534 мучиться	0.0039
-2.5128 мы	-0.1651
-4.7534 мыло	-0.0800
-4.7534 мыльницы	0.0039
-4.7534 мытый	0.0039
-4.7534 мыш	-0.0711
-4.4523 мышек	0.0062
-3.9752 мышь	-0.0955
-4.7534 мэри	-0.0801
-4.7534 мякиша	0.0039
-4.7534 мясо	-0.0728
-4.7534 мяу	0.0039
-4.2762 мяч	0.0048
-4.7534 мячик	0.0039
-3.9082 н	-0.0484
-2.1898 на	-0.0479
-4.7534 набережная	0.0039
-4.2762 набери	0.0040
-4.7534 набиев	0.0039
-4.4523 набил	0.0053
-4.7534 набирать	0.0039
-4.7534 наблюдал	-0.0801
-4.7534 наблюдали	0.0039
-4.7534 наблюдение	-0.0801
-4.7534 набрал	-0.0763
-4.7534 набрали	0.0039
-3.6741 наверно	-0.0872
-3.6072 наверное	0.0270
-4.4523 наверняка	-0.0785
-4.2762 наверх	0.0129
-4.4523 наверху	0.0039
-4.7534 наводчик	-0.0801
-4.7534 навожу	-0.0801
-4.7534 навсегда	0.0039
-4.4523 навстречу	-0.0801
-4.7534 наградили	0.0039
-4.4523 награды	-0.0767
-4.7534 награжден	0.0039
-3.9752 над	-0.0792
-4.7534 надевайте	0.0039
-4.7534 надеетесь	-0.0801
-4.1513 надежда	-0.1900
-4.4523 надежных	0.0039
-4.7534 надела	0.0039
-4.7534 наделал	0.0039
-4.7534 надень	-0.0793
-4.1513 надеюсь	-0.1040
-4.7534 надеялась	-0.0786
-4.4523 надеяться	0.0167
-4.7534 надзирателя	0.0039
-2.6705 надо	-0.2005
-4.7534 надобно	-0.0801
-4.7534 надоели	-0.0790
-4.7534 надоело	-0.0801
-4.7534 надоил	0.0039
-4.1513 надолго	-0.1890
-4.7534 надуешь	0.0039
-4.7534 надули	-0.0795
-4.7534 надумал	-0.0696
-4.4523 надя	0.0045
-4.7534 нажимают	-0.0790
-4.7534 нажмем	0.0039
-3.9082 назад	-0.2536
-4.7534 назвали	0.0039
-4.7534 назвать	-0.0800
-4.7534 наземная	-0.0801
-4.7534 назначен	-0.0801
-4.7534 назначением	-0.0793
-4.7534 назначить	-0.0801
-4.7534 называетесь	-0.0801
-4.4523 называется	-0.2481
-4.7534 называй	-0.0772
-4.1513 найдем	-0.1886
-4.4523 найдется	-0.3309
-4.4523 найдешь	0.0043
-4.4523 найду	-0.0789
-4.4523 найдутся	0.0039
-3.9752 найти	-0.0718
-4.7534 накажем	-0.0799
-4.7534 наказать	-0.0786
-4.4523 накачка	-0.2481
-3.9082 наконец	-0.1687
-4.7534 накормить	0.0039
-4.7534 накрыт	0.0039
-4.7534 налаживается	0.0039
-4.7534 налево	0.0039
-4.7534 налет	-0.0773
-4.7534 налеты	0.0039
-4.7534 наливаю	-0.0790
-4.7534 налогами	0.0039
-4.7534 наломали	-0.0800
-2.9145 нам	-0.0762
-4.4523 намерены	-0.0796
-4.7534 намерзнешься	-0.0790
-3.5492 нами	-0.1632
-4.7534 намного	0.0039
-4.7534 намочил	0.0039
-4.4523 нао	-0.0801
-4.2762 наоборот	-0.1360
-4.7534 напевал	0.0039
-4.7534 напильник	-0.0801
-3.9752 написал	-0.3167
-4.7534 написала	0.0039
-4.0544 написано	-0.1246
-4.7534 написать	0.0039
-4.7534 напишет	-0.0801
-4.7534 напишете	0.0039
-4.7534 напишу	0.0039
-4.7534 наплакали	0.0039
-4.7534 напористые	0.0039
-4.7534 напоролся	0.0039
-4.7534 напороться	-0.0798
-4.7534 напоследок	-0.0775
-4.7534 направил	0.0039
-4.2762 направляетесь	-0.1423
-4.7534 направляюсь	-0.0800
-4.4523 направо	0.0040
-4.7534 напрасно	-0.0789
-4.2762 например	-0.2802
-4.7534 напугал	-0.0790
-4.7534 напугалась	0.0039
-4.7534 напутал	0.0039
-4.7534 напысав	-0.0801
-4.7534 нар	0.0039
-4.7534 нара	0.0039
-4.7534 нарвались	0.0039
-4.7534 нарвемся	0.0039
-3.9082 народ	-0.0869
-4.4523 народу	0.0058
-4.7534 нарождения	0.0039
-4.4523 нарочно	0.0148
-4.7534 нарушаете	-0.0801
-4.7534 нарушена	-0.0711
-4.7534 нарушения	0.0039
-2.8088 нас	-0.0803
-4.7534 наско	-0.0696
-4.7534 наследники	0.0039
-4.7534 насмерть	0.0039
-4.7534 насмехаешься	-0.0801
-4.1513 насовсем	-0.0801
-4.7534 настенька	0.0039
-4.7534 настоятельно	-0.0801
-4.1513 настоящая	-0.1039
-4.7534 настоящего	-0.0801
-4.7534 настоящее	0.0039
-4.7534 настоящему	0.0039
-4.7534 настоящие	-0.0801
-4.7534 настоящий	0.0039
-4.1513 настроение	-0.1819
-4.7534 наступает	-0.0801
-4.7534 наступали	0.0039
-4.4523 наступают	0.0040
-4.7534 наступит	0.0039
-4.4523 наступление	-0.2481
-4.7534 наступлении	0.0039
-4.7534 настя	-0.0769
-4.7534 насущный	0.0039
-3.7991 насчет	-0.1234
-4.7534 наташу	0.0039
-4.7534 натворил	0.0039
-4.7534 натворила	0.0039
-4.7534 натворили	0.0039
-4.7534 натягивай	-0.0801
-4.7534 натянем	0.0039
-4.4523 науки	-0.2481
-4.4523 научил	0.0039
-4.7534 научились	-0.0801
-4.7534 научился	0.0039
-4.7534 научите	-0.0800
-4.7534 научиться	-0.0801
-4.7534 научусь	0.0039
-4.7534 нах	-0.0801
-4.7534 нахалка	0.0039
-4.1513 находимся	-0.1039
-4.4523 находитесь	0.0041
-4.0544 находится	-0.4040
-4.7534 находишься	0.0039
-4.7534 нахожусь	0.0039
-4.7534 нацельте	-0.0797
-4.7534 национальность	0.0039
-4.7534 начал	-0.0801
-4.4523 начала	0.0040
-4.7534 началась	-0.0801
-4.1513 начали	-0.1900
-4.7534 начало	0.0039
-4.7534 началось	-0.0790
-4.4523 начался	-0.0801
-4.0544 начальник	-0.2670
-4.7534 начальником	-0.0786
-4.7534 начальства	0.0039
-4.1513 начальство	-0.1040
-4.7534 начать	0.0039
-4.4523 начинается	-0.2481
-3.9082 начинать	-0.2504
-3.8502 начнем	-0.0373
-4.7534 начштаба	-0.0797
-3.4746 наш	0.0027
-3.6741 наша	0.0041
-4.7534 нашатырный	-0.0801
-4.0544 наше	-0.0797
-3.9752 нашего	-0.0797
-4.4523 нашей	-0.0801
-3.6741 нашел	-0.2931
-4.7534 нашелся	0.0039
-4.1513 нашем	0.0040
-4.7534 нашему	-0.0801
-4.7534 нашествие	0.0039
-3.3220 наши	-0.1718
-4.7534 нашим	-0.0801
-4.7534 нашими	-0.0801
-4.1513 наших	0.0056
-4.7534 нашла	0.0039
-4.7534 нашлась	0.0039
-3.5772 нашли	-0.4204
-4.4523 нашу	-0.0801
-1.7742 не	-0.0637
-4.2762 неба	-0.1430
-4.2762 небе	0.0129
-4.7534 небесное	0.0039
-4.7534 небо	0.0039
-4.7534 небогатов	0.0039
-4.7534 небоеспособны	0.0039
-4.7534 небольшие	-0.0801
-4.2762 небось	0.0045
-4.7534 неважно	-0.0799
-4.7534 неверно	0.0039
-4.7534 невестой	-0.0772
-4.7534 невесту	0.0039
-4.7534 невидимки	-0.0728
-4.7534 невидимо	0.0039
-4.1513 невозможно	-0.1900
-4.7534 негаснущую	-0.0801
-3.4981 него	-0.1051
-4.7534 недавно	0.0039
-4.1513 недалеко	-0.1036
-4.7534 неделе	0.0039
-4.7534 недели	-0.0801
-4.7534 неделю	0.0039
-4.2762 недоволен	-0.1468
-4.4523 недовольны	0.0053
-4.7534 недолги	-0.0785
-4.4523 недолго	-0.0801
-4.7534 недосчитаемся	0.0039
-4.7534 недосчитываемся	0.0039
-4.7534 недотепа	0.0039
-3.7991 нее	0.0324
-4.7534 неженка	0.0039
-4.4523 незабудный	-0.0801
-4.7534 независимость	-0.0801
-4.7534 незаконно	-0.0801
-4.7534 незаметно	-0.0801
-4.7534 незаметный	-0.0696
-4.2762 нездоров	-0.1467
-4.7534 нездоровится	0.0039
-4.7534 нездоровы	0.0039
-4.7534 незнайка	-0.0711
-4.7534 незнакомые	-0.0800
-4.7534 неизвестно	0.0039
-4.7534 неисправные	-0.0801
-3.9082 ней	0.0169
-4.7534 некем	0.0039
-4.4523 некогда	-0.2481
-4.7534 некоторых	-0.0800
-4.7534 некуда	0.0039
-4.7534 неладен	0.0039
-4.7534 нелишне	0.0039
-3.3916 нельзя	-0.2953
-3.9752 нем	-0.1129
-4.7534 нема	0.0039
-3.9752 немедленно	-0.0603
-4.7534 немедленному	-0.0801
-4.2762 немец	0.0059
-4.7534 немецкие	-0.0801
-4.2762 немецкий	-0.0769
-3.7533 немного	-0.3127
-4.7534 немножечко	-0.0728
-3.9082 немножко	-0.2503
-4.7534 немой	-0.0696
-4.2762 нему	0.0039
-4.7534 немца	-0.0799
-4.7534 немцам	0.0039
-4.1513 немцев	-0.1854
-4.7534 немцу	-0.0801
-3.5229 немцы	-0.4264
-4.7534 ненависть	-0.0800
-4.7534 ненадолго	-0.0800
-4.4523 ненормальный	0.0167
-4.7534 ненорму	-0.0801
-4.4523 ненужные	-0.2481
-4.4523 необходимо	0.0039
-4.7534 необходимости	0.0039
-4.7534 неоновых	-0.0801
-4.7534 неохота	-0.0801
-4.2762 неплохо	-0.2802
-4.7534 непонятный	-0.0800
-4.7534 непорядок	0.0039
-4.2762 неправда	-0.0748
-4.7534 неправду	0.0039
-4.7534 неправильно	0.0039
-4.7534 непредвиденность	0.0039
-4.2762 непременно	0.0039
-4.7534 неприличен	0.0039
-4.7534 неприлично	0.0039
-4.7534 неприятное	-0.0801
-4.7534 неразлучной	-0.0801
-4.7534 нервный	-0.0801
-4.7534 нервы	0.0039
-4.7534 неровность	0.0039
-4.7534 нерон	-0.0801
-4.4523 несет	0.0058
-4.4523 несете	0.0040
-4.1513 несешь	-0.6210
-4.7534 неси	-0.0801
-4.7534 несите	0.0039
-4.7534 нескольку	-0.0801
-4.7534 несмотря	-0.0773
-4.7534 нести	-0.0791
-2.3860 нет	-0.4224
-4.7534 неточным	0.0039
-4.7534 нетрудное	0.0039
-3.9082 нету	-0.5813
-4.7534 неугомонный	-0.0799
-3.2762 неужели	-0.0393
-4.1513 неужто	-0.0731
-4.7534 нефедова	-0.0801
-3.9082 нечего	-0.2411
-4.4523 нечем	-0.2481
-4.1513 нечестно	-0.1867
-4.7534 нечисть	-0.0801
-4.7534 нзамби	-0.0760
-3.4523 ни	-0.2456
-2.9471 нибудь	-0.1517
-4.2762 нигде	0.0135
-4.7534 нижне	-0.0801
-4.7534 низкий	-0.0801
-3.5229 никак	-0.3563
-4.2762 никаких	0.0039
-4.7534 никакого	0.0039
-4.4523 никита	-0.0731
-4.7534 никитин	0.0039
-4.7534 никитича	0.0039
-3.9752 никогда	-0.1363
-4.1513 никого	0.0165
-4.4523 николаев	0.0039
-4.0544 николаевич	-0.4237
-4.7534 николаевна	0.0039
-4.7534 николаем	0.0039
-3.6741 николай	-0.0224
-4.4523 никому	-0.0793
-4.7534 никонович	-0.0801
-3.6394 никто	-0.5771
-4.1513 никуда	-0.2650
-3.3916 ним	-0.2921
-3.7119 ними	-0.0391
-4.4523 нина	0.0148
-4.7534 ниной	-0.0801
-4.4523 ниночка	0.0167
-4.7534 нисколечки	0.0039
-4.7534 нисколечко	0.0039
-4.7534 нисколько	0.0039
-3.9752 них	-0.1459
-2.9082 ничего	-0.4200
-4.7534 ничье	0.0039
-2.8138 но	-0.1010
-4.7534 новаковский	0.0039
-4.7534 новаковского	0.0039
-4.1513 новая	0.0040
-4.7534 новенький	0.0039
-4.7534 новеньких	0.0039
-4.7534 новенькое	-0.0799
-4.7534 новенькую	-0.0800
-4.1513 новиков	-0.1026
-4.4523 новичка	0.0046
-4.4523 новичок	-0.0741
-4.0544 нового	-0.1435
-4.4523 новое	0.0039
-4.7534 новолуние	0.0039
-4.2762 новости	0.0060
-4.7534 новость	0.0039
-4.7534 новостями	-0.0763
-4.7534 новочеркасский	0.0039
-4.7534 новую	-0.0801
-4.4523 новые	-0.0801
-4.0544 новый	-0.0634
-4.7534 новым	-0.0801
