#############################################################################
## Copyright (c) 1996, Carnegie Mellon University, Cambridge University,
## Ronald Rosenfeld and Philip Clarkson
## Version 3, Copyright (c) 2006, Carnegie Mellon University 
## Contributors includes Wen Xu, Ananlada Chotimongkol, 
## David Huggins-Daines, Arthur Chan and Alan Black 
#############################################################################
=============================================================================
===============  This file was produced by the CMU-Cambridge  ===============
===============     Statistical Language Modeling Toolkit     ===============
=============================================================================
This is a 3-gram language model, based on a vocabulary of 2763 words,
  which begins "</s>", "<s>", "а"...
This is a CLOSED-vocabulary model
  (OOVs eliminated from training data and are forbidden in test data)
Good-Turing discounting was applied.
1-gram frequency of frequency : 1885 
2-gram frequency of frequency : 6726 682 183 106 50 39 21 
3-gram frequency of frequency : 9819 498 125 65 31 18 11 
1-gram discounting ratios : 1.00 
2-gram discounting ratios : 0.18 0.39 0.77 0.58 0.93 0.62 
3-gram discounting ratios : 0.09 0.37 0.69 0.59 0.69 0.71 0.93 
This file is in the ARPA-standard format introduced by Doug Paul.

p(wd3|wd1,wd2)= if(trigram exists)           p_3(wd1,wd2,wd3)
                else if(bigram w1,w2 exists) bo_wt_2(w1,w2)*p(wd3|wd2)
                else                         p(wd3|w2)

p(wd2|wd1)= if(bigram exists) p_2(wd1,wd2)
            else              bo_wt_1(wd1)*p_1(wd2)

All probs and back-off weights (bo_wt) are given in log10 form.

Data formats:

Beginning of data mark: \data\
ngram 1=nr            # number of 1-grams
ngram 2=nr            # number of 2-grams
ngram 3=nr            # number of 3-grams

\1-grams:
p_1     wd_1 bo_wt_1
\2-grams:
p_2     wd_1 wd_2 bo_wt_2
\3-grams:
p_3     wd_1 wd_2 wd_3 

end of data mark: \end\

\data\
ngram 1=2763
ngram 2=7896
ngram 3=10618

\1-grams:
-0.9109 </s>	-3.1475
-0.9106 <s>	-0.4720
-1.7745 а	-0.4380
-4.1152 авансы	-0.0319
-4.1152 автобуса	-0.0888
-4.1152 автобусе	-0.0888
-3.6379 ага	-0.6323
-4.1152 ад	-0.0319
-3.6379 адвокат	-0.1113
-4.1152 амбар	-0.0319
-4.1152 ангел	-0.0319
-4.1152 анекдот	-0.0319
-4.1152 аплодисменты	-0.0863
-4.1152 ассистентку	-0.0319
-4.1152 ателье	-0.0888
-3.5129 ах	-0.1357
-4.1152 ахти	-0.0859
-4.1152 бабочки	-0.0319
-4.1152 балкон	-0.0319
-4.1152 баловник	-0.0319
-4.1152 барин	-0.0319
-4.1152 барон	-0.0888
-4.1152 баскетбол	-0.0854
-4.1152 беги	-0.0888
-4.1152 бегу	-0.0319
-4.1152 беда	-0.0842
-4.1152 бедности	-0.0888
-4.1152 бежать	-0.0842
-3.0010 без	-0.1022
-4.1152 безвыходное	-0.0888
-4.1152 безоглядно	-0.0319
-4.1152 безотказно	-0.0883
-4.1152 безотцовщина	-0.0859
-4.1152 безумно	-0.0888
-4.1152 безумное	-0.0888
-3.8139 белое	-0.0883
-3.6379 белье	-0.0293
-4.1152 береги	-0.0886
-4.1152 бережете	-0.0887
-4.1152 бережно	-0.0319
-3.8139 бери	-0.0319
-3.8139 берите	-0.0887
-4.1152 берут	-0.0319
-4.1152 беседа	-0.0867
-3.6379 бесплатно	-0.0277
-4.1152 беспокойства	-0.0884
-4.1152 беспокойстве	-0.0319
-3.8139 беспокойся	-0.0784
-4.1152 беспокойтесь	-0.0847
-4.1152 бесполезно	-0.0786
-4.1152 бессонница	-0.0319
-4.1152 билет	-0.0885
-4.1152 биолога	-0.0319
-4.1152 благодарна	-0.0319
-3.8139 благодарю	-0.0743
-4.1152 благородства	-0.0887
-4.1152 благородстве	-0.0319
-4.1152 близко	-0.0888
-4.1152 бога	-0.0786
-4.1152 богатыря	-0.0882
-4.1152 богу	-0.0818
-3.4160 боитесь	-0.2621
-3.5129 боишься	-0.0799
-4.1152 бойся	-0.0888
-4.1152 бокал	-0.0319
-3.6379 более	-0.0887
-4.1152 болеть	-0.0319
-4.1152 болит	-0.0815
-4.1152 больница	-0.0867
-4.1152 больнице	-0.0888
-3.5129 больше	-0.0816
-4.1152 большего	-0.0797
-4.1152 большей	-0.0888
-4.1152 большие	-0.0886
-4.1152 большой	-0.0888
-4.1152 большом	-0.0887
-4.1152 бот	0.0000
-3.6379 боюсь	-0.0189
-3.8139 бояться	-0.0886
-4.1152 брак	-0.0867
-4.1152 браков	-0.0888
-4.1152 брала	-0.0888
-4.1152 брат	-0.0319
-4.1152 братья	-0.0888
-4.1152 брачный	-0.0888
-4.1152 брехня	-0.0319
-4.1152 бродячей	-0.0888
-4.1152 бросаем	-0.0865
-4.1152 бросал	-0.0319
-4.1152 бросала	-0.0884
-3.6379 бросали	-0.1092
-4.1152 бросать	-0.0888
-4.1152 бросить	-0.0888
-4.1152 бросишь	-0.0861
-4.1152 брошенным	-0.0888
-4.1152 брошусь	-0.0870
-4.1152 брудершафтов	-0.0319
-4.1152 бугаева	-0.0319
-3.0358 будем	-0.1049
-2.6379 будет	-0.0460
-3.3368 будете	-0.0315
-3.3368 будешь	-0.0306
-3.8139 будто	-0.0873
-3.0736 буду	-0.1219
-4.1152 будут	-0.0888
-4.1152 будущего	-0.0319
-4.1152 будущее	-0.0887
-3.8139 будь	-0.2140
-4.1152 будьте	-0.0888
-4.1152 бумаги	-0.0888
-4.1152 бутылку	-0.0319
-4.1152 бутылочка	-0.0319
-4.1152 бухгалтер	-0.0760
-2.4715 бы	0.0119
-4.1152 бываем	-0.0319
-4.1152 бывать	-0.0842
-4.1152 бывают	-0.0888
-4.1152 бывшим	-0.0319
-4.1152 быдло	-0.0878
-3.0736 был	-0.0006
-3.0010 была	-0.1683
-3.4160 были	-0.0235
-2.7726 было	-0.1129
-4.1152 быстрее	-0.0888
-3.8139 быстро	-0.0828
-4.1152 быстры	-0.0887
-4.1152 быта	-0.0888
-2.6098 быть	-0.0574
-1.9783 в	-0.1702
-4.1152 важна	-0.0319
-3.8139 важно	-0.0309
-4.1152 валидол	-0.0888
-2.4429 вам	-0.0407
-3.0010 вами	-0.0279
-4.1152 ванную	-0.0881
-4.1152 вареньем	-0.0319
-3.8139 варианта	-0.0301
-4.1152 варианты	-0.0842
-2.3826 вас	-0.1144
-4.1152 вата	-0.0888
-3.1150 ваш	-0.1890
-3.6379 ваша	-0.1680
-3.8139 ваше	-0.2139
-3.6379 вашего	-0.0317
-3.8139 вашей	-0.0886
-4.1152 вашем	-0.0888
-3.6379 вашему	-0.0738
-3.8139 ваши	-0.0887
-4.1152 вашим	-0.0888
-4.1152 ваших	-0.0888
-4.1152 вашу	-0.0888
-4.1152 вдвое	-0.0319
-3.5129 вдруг	-0.0749
-4.1152 вдумчивых	-0.0319
-4.1152 ведут	-0.0888
-2.5965 ведь	-0.0362
-3.8139 везло	-0.0319
-4.1152 велите	-0.0886
-4.1152 велосипеде	-0.0855
-4.1152 вера	-0.0874
-4.1152 верить	-0.0804
-4.1152 вернемся	-0.0877
-4.1152 вернетесь	-0.0847
-4.1152 вернешься	-0.0319
-3.8139 верно	-0.0887
-3.8139 верность	-0.0886
-3.8139 верну	-0.0864
-4.1152 вернулся	-0.0319
-3.8139 вернусь	-0.0759
-4.1152 вероятно	-0.0786
-4.1152 версию	-0.0797
-4.1152 верь	-0.0886
-4.1152 верю	-0.0804
-4.1152 весе	-0.0888
-4.1152 веселый	-0.0319
-4.1152 веселых	-0.0874
-3.8139 вести	-0.0885
-4.1152 ветер	-0.0319
-4.1152 вечер	-0.0319
-4.1152 вечера	-0.0888
-4.1152 вечерами	-0.0319
-3.4160 вечером	-0.0658
-3.6379 вечно	-0.0313
-4.1152 вещи	-0.0881
-4.1152 взбесившаяся	-0.0888
-4.1152 взвинчены	-0.0867
-3.8139 взгляд	-0.0281
-4.1152 взял	-0.0319
-4.1152 взяла	-0.0855
-4.1152 взялась	-0.0888
-3.6379 взять	-0.0805
-3.5129 вид	-0.0799
-3.8139 видать	-0.0880
-4.1152 видел	-0.0847
-3.8139 видела	-0.0888
-3.8139 видели	-0.0319
-3.8139 видео	-0.0883
-3.8139 видимо	-0.0755
-3.5129 видишь	-0.1525
-4.1152 виднее	-0.0888
-4.1152 видно	-0.0804
-3.6379 виду	-0.1017
-4.1152 видят	-0.0884
-3.5129 вижу	-0.0739
-4.1152 вилки	-0.0888
-4.1152 вина	-0.0319
-3.8139 вино	-0.0319
-3.6379 виноват	-0.0137
-4.1152 висит	-0.0319
-4.1152 витамины	-0.0319
-4.1152 включу	-0.0319
-4.1152 вкус	-0.0319
-4.1152 вкусный	-0.0319
-4.1152 влево	-0.0319
-4.1152 влезет	-0.0818
-4.1152 влюбить	-0.0842
-4.1152 влюбиться	-0.0319
-4.1152 влюблены	-0.0884
-3.0358 вместе	-0.1061
-3.8139 вместо	-0.2113
-4.1152 внезапно	-0.0319
-4.1152 внешность	-0.0855
-4.1152 вниз	-0.0877
-4.1152 внизу	-0.0861
-4.1152 вносил	-0.0888
-4.1152 внутренне	-0.0319
-3.1150 во	-0.2496
-4.1152 вовремя	-0.0319
-3.4160 вовсе	-0.2877
-4.1152 водку	-0.0319
-3.8139 возможно	-0.0785
-4.1152 возмущаться	-0.0882
-4.1152 возникают	-0.0888
-3.8139 возьми	-0.0286
-3.8139 возьму	-0.0295
-4.1152 возьмут	-0.0888
-3.8139 волк	-0.0314
-4.1152 волнует	-0.0319
-4.1152 вон	-0.0885
-3.0736 вообще	-0.3760
-3.8139 вопрос	-0.0216
-4.1152 вопросов	-0.0319
-4.1152 восемь	-0.0854
-4.1152 воскресенье	-0.0319
-4.1152 воспримет	-0.0319
-4.1152 восстания	-0.0888
-4.1152 востро	-0.0876
-2.6836 вот	-0.0780
-3.8139 впереди	-0.0288
-3.8139 вполне	-0.0814
-3.5129 вправду	-0.0757
-4.1152 вправо	-0.0874
-4.1152 впрочем	-0.0828
-4.1152 враг	-0.0319
-4.1152 врача	-0.0319
-4.1152 врачей	-0.0319
-3.6379 времени	-0.0316
-3.3368 время	-0.0270
-2.1959 все	-0.3082
-3.0010 всегда	-0.0086
-3.3368 всего	-0.0695
-3.6379 всем	-0.0759
-4.1152 всерьез	-0.0888
-3.2699 всех	-0.2298
-4.1152 вспоминала	-0.0887
-4.1152 вспомнила	-0.0319
-4.1152 встала	-0.0855
-4.1152 встретились	-0.0319
-4.1152 встретимся	-0.0842
-3.8139 встретиться	-0.0317
-4.1152 встреч	-0.0855
-3.8139 встреча	-0.0862
-4.1152 встречаемся	-0.0888
-3.8139 встречаетесь	-0.0280
-4.1152 встречалась	-0.0854
-3.6379 встречались	-0.0232
-4.1152 встречать	-0.0319
-3.8139 встречаться	-0.0280
-4.1152 встречаюсь	-0.0854
-4.1152 встречают	-0.0888
-4.1152 встрече	-0.0319
-4.1152 встречи	-0.0319
-4.1152 встречу	-0.0865
-3.8139 всю	-0.2138
-4.1152 вся	-0.0881
-4.1152 всякая	-0.0887
-4.1152 всякий	-0.0888
-3.8139 всяких	-0.0888
-4.1152 всякого	-0.0888
-4.1152 вторжение	-0.0319
-4.1152 второй	-0.0881
-4.1152 вторых	-0.0877
-4.1152 входила	-0.0842
-4.1152 входит	-0.0842
-3.8139 вчера	-0.0317
-1.8621 вы	-0.0604
-4.1152 выборов	-0.0786
-4.1152 выбрали	-0.0888
-4.1152 выбрать	-0.0860
-4.1152 выброшу	-0.0888
-4.1152 выглядеть	-0.0319
-3.8139 выглядит	-0.0317
-4.1152 выглядишь	-0.0319
-4.1152 выглядят	-0.0818
-3.8139 выгляжу	-0.0317
-4.1152 выгнать	-0.0860
-4.1152 выгоняете	-0.0319
-4.1152 вызывает	-0.0888
-4.1152 вызывающе	-0.0319
-4.1152 выйдем	-0.0884
-4.1152 выйдет	-0.0786
-4.1152 выйдете	-0.0319
-4.1152 выйду	-0.0887
-4.1152 вынуждены	-0.0888
-4.1152 выпейте	-0.0319
-4.1152 выпить	-0.0319
-4.1152 выполняет	-0.0888
-4.1152 выпрямлю	-0.0319
-4.1152 выпускали	-0.0867
-3.8139 выпьем	-0.0306
-4.1152 выпью	-0.0876
-4.1152 вырастают	-0.0818
-4.1152 выращивала	-0.0319
-4.1152 вырвались	-0.0319
-4.1152 выручите	-0.0888
-4.1152 вырываться	-0.0319
-4.1152 выслушай	-0.0860
-4.1152 выслушайте	-0.0860
-4.1152 выслушивать	-0.0888
-4.1152 высокой	-0.0888
-4.1152 выступали	-0.0855
-4.1152 вытирать	-0.0874
-3.4160 выходит	-0.1288
-3.5129 выходите	-0.1451
-4.1152 выходным	-0.0888
-4.1152 выходят	-0.0887
-4.1152 вышел	-0.0319
-4.1152 вышло	-0.0887
-4.1152 выяснили	-0.0804
-4.1152 галстуки	-0.0818
-4.1152 гвоздики	-0.0871
-2.8139 где	-0.1859
-4.1152 генриетта	-0.0888
-4.1152 героиня	-0.0874
-4.1152 гитаре	-0.0319
-3.8139 главное	-0.0280
-4.1152 главные	-0.0888
-3.8139 глаза	-0.0319
-4.1152 глубине	-0.0888
-4.1152 глубокие	-0.0888
-3.8139 глупо	-0.0804
-4.1152 глупостей	-0.0880
-4.1152 глупости	-0.0319
-4.1152 глупость	-0.0319
-3.6379 говори	-0.0885
-3.5129 говорил	-0.0886
-3.8139 говорила	-0.0223
-3.8139 говорили	-0.0319
-4.1152 говорит	-0.0887
-3.8139 говорите	-0.0886
-3.5129 говорить	-0.0876
-3.6379 говоришь	-0.1017
-3.5129 говорю	-0.0072
-3.6379 говоря	-0.0788
-4.1152 говорят	-0.0888
-4.1152 год	-0.0888
-4.1152 года	-0.0319
-4.1152 годится	-0.0886
-4.1152 году	-0.0885
-4.1152 голова	-0.0888
-4.1152 голове	-0.0319
-3.8139 голову	-0.0319
-4.1152 голоду	-0.0319
-3.8139 голос	-0.0884
-4.1152 голосом	-0.0319
-4.1152 гонит	-0.0319
-3.6379 гоните	-0.1103
-4.1152 гоню	-0.0319
-4.1152 гораций	-0.0886
-4.1152 горация	-0.0319
-3.8139 горло	-0.0878
-4.1152 город	-0.0888
-3.6379 городе	-0.0881
-3.5129 гостей	-0.3203
-4.1152 гости	-0.0863
-4.1152 гостиная	-0.0879
-4.1152 гостиница	-0.0319
-4.1152 гостиницах	-0.0319
-3.8139 гостинице	-0.1572
-3.8139 готов	-0.1572
-3.8139 готовила	-0.0315
-3.8139 готовите	-0.1572
-3.6379 готовить	-0.1111
-4.1152 готовишь	-0.0886
-4.1152 готовкой	-0.0887
-3.8139 готово	-0.0319
-4.1152 готовым	-0.0888
-4.1152 грозят	-0.0888
-4.1152 грубо	-0.0887
-3.8139 грузовик	-0.0887
-4.1152 грузовике	-0.0888
-4.1152 грузчиком	-0.0887
-4.1152 губишь	-0.0319
-4.1152 гюго	-0.0888
-2.6678 да	-0.1038
-3.6379 давай	-0.0879
-3.2119 давайте	-0.1029
-4.1152 давать	-0.0319
-3.0736 давно	-0.0225
-4.1152 дадите	-0.0863
-4.1152 дадут	-0.0319
-3.1607 даже	-0.1250
-4.1152 дай	-0.0888
-3.6379 дайте	-0.0885
-4.1152 дал	-0.0870
-3.6379 дальше	-0.5762
-3.8139 дать	-0.0862
-4.1152 дашь	-0.0863
-4.1152 дают	-0.0319
-3.8139 два	-0.0888
-3.5129 две	-0.0887
-4.1152 двенадцатого	-0.0786
-3.5129 дверь	-0.0778
-4.1152 дверью	-0.0319
-4.1152 двое	-0.0887
-4.1152 двоих	-0.0884
-4.1152 двойная	-0.0888
-3.8139 двойной	-0.0887
-4.1152 двух	-0.0888
-4.1152 деваться	-0.0867
-4.1152 девица	-0.0888
-4.1152 девочка	-0.0319
-3.8139 девочку	-0.1572
-4.1152 девушки	-0.0884
-4.1152 девчонкой	-0.0760
-3.1150 действительно	-0.0828
-3.8139 дел	-0.0316
-4.1152 дела	-0.0870
-3.8139 делаете	-0.0785
-4.1152 делается	-0.0319
-3.6379 делаешь	-0.1102
-4.1152 делайте	-0.0887
-4.1152 делал	-0.0863
-4.1152 делала	-0.0319
-3.2699 делать	-0.1670
-3.5129 деле	-0.0783
-3.8139 дележе	-0.0319
-4.1152 делим	-0.0884
-3.8139 делить	-0.2139
-2.9688 дело	-0.2106
-4.1152 деловая	-0.0888
-4.1152 делят	-0.0319
-3.5129 денег	-0.0158
-3.3368 день	-0.0580
-3.3368 деньги	-0.2116
-4.1152 депутат	-0.0887
-4.1152 депутатом	-0.0888
-4.1152 дергайтесь	-0.0828
-3.8139 держать	-0.0870
-4.1152 держаться	-0.0880
-4.1152 держите	-0.0888
-4.1152 держится	-0.0855
-4.1152 держишься	-0.0319
-3.5129 детей	-0.0881
-3.4160 дети	-0.0776
-3.8139 детьми	-0.0240
-4.1152 дешевле	-0.0319
-4.1152 директор	-0.0882
-2.7532 для	-0.1873
-4.1152 дня	-0.0885
-4.1152 дням	-0.0887
-3.1150 до	-0.1085
-4.1152 доброго	-0.0319
-4.1152 добрую	-0.0887
-4.1152 добрый	-0.0888
-4.1152 доверху	-0.0319
-4.1152 доводилось	-0.0888
-4.1152 довольно	-0.0888
-4.1152 догадались	-0.0887
-4.1152 догадываетесь	-0.0319
-4.1152 догадывается	-0.0319
-4.1152 догадываешься	-0.0319
-4.1152 договаривались	-0.0319
-4.1152 договор	-0.0319
-3.5129 договорились	-0.0870
-4.1152 договоримся	-0.0319
-3.8139 дождалась	-0.1572
-3.3368 дождь	-0.1042
-4.1152 докладом	-0.0319
-4.1152 доктор	-0.0319
-3.8139 документ	-0.0300
-4.1152 документах	-0.0319
-4.1152 долгий	-0.0319
-3.6379 долго	-0.0280
-3.8139 должен	-0.0793
-3.4160 должна	-0.1327
-3.5129 должно	-0.3762
-4.1152 должности	-0.0818
-3.6379 должны	-0.0854
-3.8139 долой	-0.0319
-3.8139 долю	-0.0818
-4.1152 доля	-0.0865
-3.6379 дом	-0.0817
-3.5129 дома	-0.0816
-3.8139 доме	-0.0314
-4.1152 домино	-0.0319
-4.1152 дому	-0.0319
-4.1152 допустим	-0.0865
-4.1152 дорог	-0.0842
-3.8139 дорогая	-0.0785
-4.1152 дороге	-0.0842
-4.1152 дослушайте	-0.0849
-4.1152 доставало	-0.0319
-4.1152 доставляет	-0.0870
-4.1152 доставлять	-0.0887
-4.1152 досталось	-0.0319
-3.8139 достаточно	-0.0870
-4.1152 достать	-0.0882
-4.1152 достоин	-0.0886
-4.1152 достоинство	-0.0319
-4.1152 дотронулся	-0.0885
-4.1152 дочери	-0.0319
-4.1152 дочки	-0.0879
-3.8139 драгоценности	-0.0880
-4.1152 дрожишь	-0.0887
-3.3368 друг	-0.1213
-3.4160 друга	-0.2306
-4.1152 другая	-0.0319
-3.8139 другие	-0.0888
-4.1152 другим	-0.0319
-4.1152 другими	-0.0888
-3.6379 других	-0.0757
-4.1152 другого	-0.0888
-3.6379 другое	-0.1108
-3.5129 другой	-0.1391
-3.8139 другом	-0.0319
-4.1152 другому	-0.0319
-4.1152 другу	-0.0760
-4.1152 другую	-0.0319
-4.1152 дружеская	-0.0888
-4.1152 дружок	-0.0760
-4.1152 друзья	-0.0319
-4.1152 друзьями	-0.0319
-4.1152 дует	-0.0815
-3.6379 думаете	-0.1493
-3.0010 думаешь	-0.2202
-3.6379 думал	-0.0096
-4.1152 думала	-0.0804
-3.8139 думать	-0.0318
-3.5129 думаю	-0.0128
-4.1152 думая	-0.0876
-4.1152 дурацкое	-0.0888
-4.1152 духе	-0.0319
-4.1152 душа	-0.0888
-4.1152 души	-0.0865
-4.1152 душу	-0.0319
-4.1152 дышишь	-0.0319
-2.7726 его	-0.0427
-4.1152 едешь	-0.0855
-4.1152 единственное	-0.0804
-4.1152 еду	-0.0854
-2.9688 ее	-0.0783
-4.1152 ездил	-0.0866
-4.1152 ездит	-0.0319
-4.1152 ездить	-0.0855
-3.2119 ей	-0.0948
-4.1152 ем	-0.0886
-3.0736 ему	-0.0658
-2.5835 если	-0.1995
-4.1152 естественно	-0.0865
-2.7170 есть	-0.1237
-4.1152 ехать	-0.0869
-2.4917 еще	-0.0587
-3.2699 ж	-0.0759
-4.1152 жалеете	-0.0319
-4.1152 жалеешь	-0.0804
-4.1152 жалел	-0.0319
-4.1152 жалела	-0.0786
-4.1152 жалеют	-0.0883
-3.3368 жалко	-0.0650
-4.1152 жалуете	-0.0319
-4.1152 жалуюсь	-0.0866
-3.6379 жаль	-0.0868
-3.8139 ждал	-0.0886
-4.1152 ждать	-0.0319
-4.1152 ждет	-0.0319
-3.8139 ждете	-0.0886
-4.1152 ждешь	-0.0319
-4.1152 жди	-0.0319
-3.8139 жду	-0.0878
-2.2012 же	-0.0651
-4.1152 желающих	-0.0319
-4.1152 железно	-0.0887
-3.5129 жена	-0.3652
-3.8139 женат	-0.0303
-3.8139 женаты	-0.1572
-4.1152 жене	-0.0319
-4.1152 женились	-0.0319
-4.1152 женился	-0.0877
-4.1152 жениться	-0.0319
-4.1152 жених	-0.0878
-4.1152 жениха	-0.0867
-3.4160 женой	-0.0606
-4.1152 женским	-0.0888
-4.1152 жену	-0.0888
-3.5129 женщин	-0.0277
-3.4160 женщина	-0.0312
-3.6379 женщинам	-0.0311
-3.8139 женщинами	-0.0317
-4.1152 женщинах	-0.0885
-4.1152 женщине	-0.0319
-3.8139 женщиной	-0.1572
-3.8139 женщину	-0.0319
-3.2699 женщины	-0.0232
-3.5129 жены	-0.0297
-4.1152 жестоко	-0.0319
-4.1152 жива	-0.0319
-4.1152 живем	-0.0855
-3.4160 живет	-0.0685
-3.4160 живете	-0.1263
-4.1152 живешь	-0.0319
-4.1152 живи	-0.0884
-4.1152 животного	-0.0319
-4.1152 живы	-0.0319
-3.6379 жизни	-0.5762
-3.2119 жизнь	-0.1524
-4.1152 жизнью	-0.0888
-3.8139 жили	-0.0846
-4.1152 житейская	-0.0888
-3.2699 жить	-0.0592
-4.1152 жуана	-0.0319
-4.1152 жутко	-0.0887
-2.5587 за	-0.1360
-4.1152 заботой	-0.0786
-4.1152 забудем	-0.0885
-4.1152 забудьте	-0.0884
-4.1152 забываешь	-0.0885
-3.3368 забыл	-0.1070
-4.1152 забыла	-0.0804
-4.1152 забыли	-0.0319
-4.1152 забыто	-0.0319
-4.1152 заварю	-0.0870
-4.1152 заведем	-0.0888
-3.8139 зависит	-0.2132
-4.1152 зависти	-0.0319
-4.1152 завистники	-0.0319
-4.1152 зависть	-0.0877
-4.1152 завладеть	-0.0888
-4.1152 заводить	-0.0887
-3.1607 завтра	-0.0479
-4.1152 завтрак	-0.0319
-3.8139 завтракать	-0.0882
-4.1152 завязывать	-0.0888
-4.1152 загадочностью	-0.0880
-4.1152 загнала	-0.0886
-4.1152 заговорят	-0.0319
-4.1152 загрустил	-0.0319
-4.1152 задержался	-0.0855
-4.1152 задерживается	-0.0319
-4.1152 задержу	-0.0319
-3.8139 задумал	-0.1572
-4.1152 задумала	-0.0319
-4.1152 задушите	-0.0319
-4.1152 зажигалка	-0.0319
-4.1152 зайду	-0.0877
-4.1152 займусь	-0.0888
-3.8139 зайти	-0.0831
-4.1152 закажем	-0.0804
-4.1152 заказ	-0.0319
-4.1152 заказала	-0.0319
-4.1152 заканчиваешь	-0.0319
-4.1152 заключается	-0.0319
-4.1152 заключить	-0.0888
-4.1152 закон	-0.0878
-4.1152 законам	-0.0888
-4.1152 законная	-0.0887
-4.1152 закончим	-0.0887
-4.1152 закончишь	-0.0886
-3.8139 закончу	-0.0884
-4.1152 закрепить	-0.0319
-4.1152 закусывали	-0.0319
-3.6379 заметил	-0.5762
-4.1152 заметит	-0.0319
-4.1152 замолчишь	-0.0882
-3.4160 замуж	-0.0600
-3.5129 замужем	-0.0888
-4.1152 занавесок	-0.0760
-4.1152 занеси	-0.0860
-4.1152 заниматься	-0.0888
-4.1152 занято	-0.0319
-4.1152 заняты	-0.0319
-4.1152 заняться	-0.0888
-3.8139 запереть	-0.0888
-4.1152 заперла	-0.0319
-4.1152 записана	-0.0855
-4.1152 записи	-0.0888
-4.1152 записку	-0.0888
-4.1152 записывать	-0.0319
-4.1152 запись	-0.0879
-4.1152 заплатить	-0.0319
-3.8139 заплачу	-0.0319
-4.1152 запомнили	-0.0319
-3.8139 зарабатывать	-0.0853
-4.1152 заработала	-0.0876
-4.1152 заработали	-0.0319
-4.1152 заработано	-0.0887
-3.6379 заранее	-0.0887
-4.1152 зарегистрируемся	-0.0815
-4.1152 зарплаты	-0.0888
-4.1152 засовы	-0.0319
-4.1152 заставляет	-0.0786
-4.1152 застанет	-0.0319
-4.1152 застать	-0.0319
-4.1152 застеснялся	-0.0319
-3.8139 застрахована	-0.0307
-4.1152 затеяла	-0.0874
-3.6379 зато	-0.0820
-3.8139 захлопну	-0.0886
-4.1152 захочешь	-0.0319
-2.7532 зачем	-0.1202
-4.1152 защиту	-0.0319
-4.1152 звал	-0.0319
-3.8139 звать	-0.0784
-4.1152 звезд	-0.0319
-4.1152 зверский	-0.0888
-4.1152 звонил	-0.0883
-2.7726 здесь	-0.2330
-4.1152 здорово	-0.0888
-3.5129 здоровье	-0.0318
-3.8139 здравствуй	-0.0317
-4.1152 здравствуйте	-0.0886
-4.1152 зевая	-0.0888
-4.1152 злишься	-0.0319
-4.1152 змеи	-0.0797
-4.1152 змея	-0.0888
-3.4160 знает	-0.0193
-3.0010 знаете	0.0064
-3.1607 знаешь	-0.1533
-4.1152 знакомств	-0.0319
-3.6379 знакомство	-0.0305
-3.8139 знакомы	-0.1572
-4.1152 знакомые	-0.0887
-4.1152 знакомых	-0.0888
-3.8139 знал	-0.0223
-3.8139 знала	-0.1572
-4.1152 знали	-0.0886
-3.6379 знать	-0.0175
-3.8139 значения	-0.0306
-2.7348 значит	-0.0750
-2.8139 знаю	-0.0816
-4.1152 зовете	-0.0860
-4.1152 зови	-0.0860
-4.1152 зовите	-0.0860
-4.1152 зовут	-0.0319
-4.1152 золотом	-0.0888
-4.1152 зрелой	-0.0888
-4.1152 зря	-0.0760
-3.6379 зуб	-0.0725
-1.7969 и	-0.1356
-3.6379 играет	-0.0228
-4.1152 играю	-0.0319
-3.8139 идем	-0.0842
-3.6379 идет	-0.1112
-4.1152 идешь	-0.0877
-3.5129 иди	-0.0200
-3.6379 идите	-0.0317
-4.1152 идти	-0.0842
-4.1152 иду	-0.0842
-3.1150 из	-0.1917
-4.1152 избавиться	-0.0319
-4.1152 избалован	-0.0319
-4.1152 избиратели	-0.0319
-4.1152 известно	-0.0804
-3.4160 извини	-0.1733
-3.3368 извините	-0.0695
-4.1152 издеваетесь	-0.0319
-3.8139 изменила	-0.0318
-3.8139 изменилась	-0.1572
-4.1152 измениться	-0.0319
-3.8139 изменяет	-0.0317
-4.1152 изображайте	-0.0888
-2.4715 или	-0.1154
-3.5129 им	-0.0691
-3.6379 имеет	-0.1112
-3.8139 имеешь	-0.0809
-4.1152 именами	-0.0884
-4.1152 именем	-0.0888
-3.6379 именно	-0.0297
-3.8139 иметь	-0.0885
-4.1152 имею	-0.0842
-4.1152 импозантная	-0.0888
-3.8139 имущества	-0.0173
-3.3368 имущество	-0.1990
-4.1152 имя	-0.0319
-4.1152 иначе	-0.0881
-4.1152 инженеров	-0.0888
-3.6379 иногда	-0.0859
-4.1152 инспектором	-0.0885
-3.3368 интересно	-0.1030
-4.1152 интересует	-0.0888
-4.1152 интересуюсь	-0.0319
-4.1152 интересуют	-0.0888
-4.1152 интернет	-0.0319
-4.1152 интимном	-0.0881
-4.1152 интриги	-0.0319
-3.8139 инфаркт	-0.0744
-4.1152 инфарктом	-0.0888
-4.1152 информацию	-0.0319
-4.1152 искал	-0.0815
-4.1152 использовать	-0.0887
-4.1152 испугалась	-0.0319
-4.1152 испытаем	-0.0888
-4.1152 испытала	-0.0818
-4.1152 историю	-0.0888
-3.6379 история	-0.1087
-4.1152 исходит	-0.0880
-3.8139 исчез	-0.1572
-4.1152 исчезать	-0.0888
-4.1152 итак	-0.0828
-4.1152 италии	-0.0319
-4.1152 итог	-0.0319
-2.9688 их	-0.1257
-2.5965 к	-0.1862
-4.1152 ка	-0.0880
-4.1152 каждого	-0.0319
-4.1152 каждой	-0.0887
-3.8139 каждом	-0.0887
-3.6379 каждый	-0.6329
-3.4160 кажется	-0.0713
-3.8139 казалось	-0.0223
-4.1152 казаться	-0.0888
-4.1152 казнись	-0.0888
-2.0251 как	-0.1177
-3.0358 какая	-0.1835
-3.3368 какие	-0.2759
-4.1152 каким	-0.0888
-4.1152 какими	-0.0879
-3.8139 каких	-0.0785
-4.1152 каков	-0.0888
-4.1152 каковы	-0.0888
-4.1152 какого	-0.0887
-3.5129 какое	-0.0801
-3.1150 какой	-0.1205
-4.1152 каком	-0.0887
-4.1152 какую	-0.0888
-4.1152 кампания	-0.0874
-4.1152 кандидатуру	-0.0319
-4.1152 капли	-0.0319
-4.1152 карман	-0.0760
-4.1152 картина	-0.0884
-4.1152 картины	-0.0888
-4.1152 касаются	-0.0888
-4.1152 квалификации	-0.0319
-3.5129 квартира	-0.0146
-3.6379 квартире	-0.5762
-3.5129 квартиру	-0.0735
-3.4160 кем	-0.1317
-4.1152 кенгуру	-0.0319
-4.1152 ключ	-0.0885
-4.1152 клянчат	-0.0888
-4.1152 клянчу	-0.0888
-4.1152 кнопками	-0.0882
-4.1152 кнопки	-0.0888
-3.5129 ко	-0.3747
-4.1152 кобелях	-0.0818
-2.8139 когда	-0.0867
-3.1607 кого	-0.0518
-3.8139 кое	-0.0793
-4.1152 коек	-0.0760
-4.1152 колебаний	-0.0319
-4.1152 колесе	-0.0319
-4.1152 колючка	-0.0319
-3.6379 ком	-0.0865
-4.1152 комната	-0.0888
-3.6379 комнате	-0.0884
-3.8139 комнату	-0.0842
-3.6379 комнаты	-0.0314
-4.1152 компанейский	-0.0888
-4.1152 комплекцию	-0.0842
-4.1152 компьютеры	-0.0888
-3.6379 кому	-0.0265
-4.1152 конец	-0.0319
-2.8845 конечно	-0.0063
-3.8139 конкретно	-0.0216
-4.1152 контору	-0.0319
-3.6379 конца	-0.0319
-3.4160 конце	-1.1841
-3.4160 концов	-0.0754
-3.8139 кончается	-0.0888
-4.1152 кончил	-0.0872
-4.1152 кончилась	-0.0818
-4.1152 кончилось	-0.0319
-4.1152 коньяк	-0.0877
-4.1152 коньяку	-0.0319
-4.1152 коньячку	-0.0319
-4.1152 коридорах	-0.0888
-4.1152 кормит	-0.0319
-4.1152 кормят	-0.0319
-4.1152 коснуться	-0.0842
-4.1152 костюме	-0.0319
-3.8139 которая	-0.0869
-4.1152 которого	-0.0883
-3.8139 которые	-0.0739
-4.1152 который	-0.0887
-3.5129 кофе	-0.3652
-4.1152 кочерга	-0.0888
-3.8139 кошка	-0.0886
-3.8139 крайней	-0.2140
-4.1152 крайнем	-0.0887
-4.1152 краном	-0.0871
-3.4160 красивая	-1.1273
-4.1152 красиво	-0.0872
-4.1152 красивое	-0.0319
-4.1152 красивы	-0.0887
-4.1152 красивый	-0.0818
-4.1152 красивых	-0.0888
-4.1152 красноречивый	-0.0319
-4.1152 красные	-0.0888
-4.1152 кричащее	-0.0882
-4.1152 кричишь	-0.0854
-4.1152 кроватка	-0.0319
-4.1152 кроет	-0.0319
-3.8139 кроме	-0.0867
-4.1152 кругозор	-0.0319
-3.3368 кстати	-0.0100
-2.5835 кто	-0.0744
-2.9389 куда	-0.1059
-4.1152 кузнец	-0.0888
-4.1152 кукла	-0.0881
-3.4160 купил	-0.0719
-3.8139 купишь	-0.0813
-4.1152 курю	-0.0319
-3.8139 кухне	-0.0173
-4.1152 кухни	-0.0319
-4.1152 кухня	-0.0818
-4.1152 кухонный	-0.0888
-4.1152 кучу	-0.0888
-3.8139 ладно	-0.0319
-4.1152 легким	-0.0319
-4.1152 легких	-0.0888
-3.8139 легко	-0.0796
-4.1152 легкого	-0.0888
-4.1152 легкомыслен	-0.0319
-4.1152 ледяной	-0.0887
-4.1152 лежать	-0.0319
-3.8139 лежит	-0.0311
-4.1152 лезете	-0.0319
-4.1152 лекарства	-0.0885
-4.1152 лексике	-0.0319
-3.6379 лестнице	-0.0748
-4.1152 лестью	-0.0888
-3.5129 лет	-0.0778
-4.1152 лета	-0.0882
-4.1152 лети	-0.0883
-4.1152 летите	-0.0885
-4.1152 лжешь	-0.0319
-2.9688 ли	-0.4900
-4.1152 лиза	-0.0855
-3.8139 лимон	-0.0303
-4.1152 лист	-0.0319
-3.8139 лицо	-0.1572
-3.8139 лишь	-0.0887
-4.1152 ложились	-0.0874
-4.1152 ложки	-0.0888
-4.1152 ложку	-0.0887
-4.1152 ломать	-0.0888
-4.1152 лопнет	-0.0880
-4.1152 лошадь	-0.0888
-4.1152 лучшая	-0.0885
-2.7000 лучше	-0.0395
-4.1152 лучший	-0.0888
-4.1152 льет	-0.0319
-3.6379 любви	-0.1093
-4.1152 любезны	-0.0319
-3.8139 любил	-0.0295
-4.1152 любили	-0.0319
-4.1152 любим	-0.0319
-3.8139 любимая	-0.0886
-3.8139 любимой	-0.0886
-4.1152 любимый	-0.0888
-3.4160 любит	-0.0725
-3.6379 любите	-0.0317
-4.1152 любить	-0.0888
-3.0358 любишь	-0.6507
-3.3368 люблю	-0.0306
-3.3368 любовь	-0.2108
-4.1152 любовью	-0.0854
-4.1152 любой	-0.0888
-4.1152 любопытно	-0.0319
-4.1152 любую	-0.0888
-4.1152 любуюешься	-0.0319
-4.1152 любят	-0.0887
-4.1152 людей	-0.0319
-4.1152 лягаете	-0.0886
-4.1152 ляпнул	-0.0760
-4.1152 магазине	-0.0881
-4.1152 мается	-0.0319
-4.1152 малейших	-0.0888
-4.1152 маленькая	-0.0319
-3.4160 мало	-0.0794
-4.1152 малыша	-0.0319
-4.1152 малышу	-0.0887
-4.1152 мальчик	-0.0319
-3.6379 мальчика	-0.1576
-3.8139 мама	-0.0173
-4.1152 мамаша	-0.0786
-4.1152 мамин	-0.0319
-4.1152 мармелад	-0.0319
-4.1152 махнули	-0.0888
-4.1152 машинально	-0.0319
-3.8139 машине	-0.0319
-4.1152 машинку	-0.0842
-4.1152 машину	-0.0797
-4.1152 мебели	-0.0888
-4.1152 мебель	-0.0887
-4.1152 медовый	-0.0888
-4.1152 медом	-0.0874
-3.5129 между	-0.1464
-4.1152 мелочь	-0.0319
-2.1907 меня	-0.1064
-4.1152 менять	-0.0888
-3.6379 мере	-0.0303
-4.1152 мерзкая	-0.0888
-4.1152 места	-0.0885
-4.1152 месте	-0.0786
-3.8139 месяц	-0.0293
-4.1152 месяца	-0.0319
-4.1152 мечешься	-0.0319
-4.1152 мечтайте	-0.0887
-4.1152 мешать	-0.0319
-4.1152 мешаю	-0.0888
-4.1152 миг	-0.0885
-4.1152 милая	-0.0888
-4.1152 миллионер	-0.0866
-4.1152 милуетесь	-0.0319
-4.1152 милый	-0.0319
-4.1152 минут	-0.0319
-3.6379 минуту	-0.0736
-4.1152 минуты	-0.0319
-4.1152 мир	-0.0882
-2.2399 мне	-0.0790
-4.1152 мнения	-0.0319
-3.4160 много	-0.0233
-3.3368 мной	-0.0786
-4.1152 мобильник	-0.0887
-3.5129 мог	-0.0870
-3.6379 могла	-0.0848
-3.0358 могу	-0.0468
-3.6379 могут	-0.0843
-3.8139 мое	-0.0888
-3.5129 моего	-0.0238
-3.8139 моей	-0.0888
-3.8139 моем	-0.0888
-3.6379 моему	-0.0783
-4.1152 моете	-0.0888
-2.3021 может	-0.2244
-3.6379 можете	-0.0289
-2.9389 можешь	-0.1114
-2.8362 можно	-0.0812
-3.3368 мои	-0.1265
-4.1152 моим	-0.0874
-4.1152 моих	-0.0888
-3.0358 мой	-0.1425
-4.1152 молва	-0.0319
-4.1152 молодым	-0.0319
-4.1152 молоко	-0.0887
-4.1152 молчите	-0.0319
-4.1152 москвы	-0.0319
-4.1152 мощной	-0.0888
-3.8139 мою	-0.0888
-3.3368 моя	-0.0615
-2.9688 муж	-0.0521
-3.3368 мужа	-0.1924
-4.1152 муже	-0.0319
-4.1152 мужей	-0.0879
-3.8139 мужем	-0.0318
-4.1152 мужик	-0.0319
-3.5129 мужики	-0.0854
-4.1152 мужику	-0.0886
-3.8139 мужски	-0.0319
-4.1152 мужском	-0.0887
-3.4160 мужу	-0.0237
-3.4160 мужчин	-0.0694
-3.4160 мужчина	-0.0760
-4.1152 мужчинами	-0.0884
-3.8139 мужчине	-0.0318
-4.1152 мужчиной	-0.0854
-3.8139 мужчины	-0.0888
-4.1152 мускулы	-0.0815
-4.1152 мучает	-0.0888
-4.1152 мучила	-0.0760
-2.2761 мы	-0.1507
-4.1152 мыло	-0.0319
-4.1152 мысль	-0.0847
-4.1152 мэйл	-0.0319
-4.1152 мягкая	-0.0818
-4.1152 мягкий	-0.0888
-4.1152 мягче	-0.0877
-3.8139 мясо	-0.0317
-2.1150 на	-0.1267
-4.1152 наберет	-0.0888
-4.1152 наберись	-0.0888
-4.1152 наблюдательны	-0.0319
-4.1152 набор	-0.0888
-4.1152 наверно	-0.0880
-3.4160 наверное	-0.0676
-4.1152 наверноеболее	-0.0888
-4.1152 наверняка	-0.0888
-4.1152 навести	-0.0888
-4.1152 навестить	-0.0319
-4.1152 навсегда	-0.0804
-4.1152 наглости	-0.0319
-4.1152 награждают	-0.0760
-3.8139 над	-0.0818
-4.1152 надевали	-0.0881
-4.1152 надежда	-0.0874
-4.1152 надеждами	-0.0786
-4.1152 надели	-0.0319
-3.6379 надеюсь	-0.0735
-4.1152 надеялся	-0.0319
-4.1152 надломилось	-0.0319
-2.7726 надо	0.0007
-3.8139 надоел	-0.0319
-4.1152 надоели	-0.0861
-3.8139 надоело	-0.0887
-3.8139 надоесть	-0.0319
-4.1152 надолго	-0.0881
-3.8139 нажили	-0.0870
-4.1152 назад	-0.0888
-4.1152 назвал	-0.0874
-4.1152 назначена	-0.0888
-4.1152 называет	-0.0319
-4.1152 найдется	-0.0888
-4.1152 найти	-0.0887
-4.1152 наклеили	-0.0888
-3.5129 наконец	-0.0874
-4.1152 налью	-0.0876
-3.0358 нам	-0.1060
-4.1152 намекнула	-0.0886
-4.1152 намного	-0.0888
-4.1152 наоборот	-0.0319
-4.1152 напало	-0.0319
-4.1152 напился	-0.0319
-4.1152 напиток	-0.0888
-4.1152 напиться	-0.0886
-3.6379 напрасно	-0.0819
-3.6379 например	-0.0864
-4.1152 нарастил	-0.0887
-4.1152 нарядную	-0.0319
-2.9688 нас	-0.0319
-4.1152 наслаждений	-0.0888
-4.1152 наслажденья	-0.0888
-4.1152 наслушалась	-0.0319
-4.1152 настолько	-0.0888
-3.8139 настоящему	-0.0317
-4.1152 настоящий	-0.0888
-4.1152 настроение	-0.0319
-3.8139 насчет	-0.0885
-4.1152 научилась	-0.0319
-4.1152 научу	-0.0888
-4.1152 наушниках	-0.0887
-4.1152 находчивый	-0.0818
-4.1152 находятся	-0.0888
-3.5129 начала	-0.0820
-4.1152 начальство	-0.0319
-4.1152 начинает	-0.0888
-3.8139 начнем	-0.0280
-3.8139 начнется	-0.0878
-3.8139 наш	-0.0887
-3.8139 наша	-0.0886
-3.6379 наше	-0.0886
-4.1152 нашей	-0.0888
-4.1152 нашел	-0.0319
-4.1152 нашем	-0.0888
-4.1152 нашему	-0.0888
-3.8139 наши	-0.0887
-4.1152 наших	-0.0888
-4.1152 нашли	-0.0888
-4.1152 нашлось	-0.0886
-1.5352 не	-0.1573
-4.1152 невероятно	-0.0888
-4.1152 невзначай	-0.0319
-4.1152 невозможно	-0.0877
-4.1152 негде	-0.0878
-3.0736 него	-0.0551
-4.1152 недавно	-0.0888
-3.8139 неделю	-0.0883
-4.1152 недоволен	-0.0319
-4.1152 недотрогу	-0.0882
-3.5129 нее	-0.0886
-4.1152 нежеланна	-0.0319
-4.1152 незваных	-0.0887
-4.1152 неисправен	-0.0319
-3.0358 ней	-0.0241
-4.1152 некогда	-0.0881
-4.1152 некому	-0.0888
-4.1152 некоторых	-0.0887
-4.1152 нелегкая	-0.0818
-3.8139 нелегко	-0.1572
-3.8139 нелепо	-0.0818
-4.1152 нелепых	-0.0888
-3.5129 нельзя	-0.0794
-3.6379 нем	-0.0852
-4.1152 немало	-0.0887
-3.4160 немного	-0.0836
-3.4160 немножко	-0.0840
-3.8139 нему	-0.0887
-4.1152 ненавидела	-0.0319
-3.8139 ненавидите	-0.2139
-4.1152 ненависть	-0.0877
-3.8139 ненормальная	-0.0223
-4.1152 ненужных	-0.0888
-4.1152 необъяснимое	-0.0888
-4.1152 неожиданно	-0.0786
-4.1152 неожиданное	-0.0888
-4.1152 неплохая	-0.0888
-4.1152 неплохой	-0.0887
-4.1152 непогода	-0.0319
-4.1152 непорядочно	-0.0818
-4.1152 непохоже	-0.0319
-4.1152 неправда	-0.0319
-4.1152 непрактичный	-0.0319
-4.1152 непривычно	-0.0319
-3.8139 неприятен	-0.1572
-4.1152 неприятна	-0.0319
-3.8139 нервничаешь	-0.1572
-4.1152 несгибаемым	-0.0888
-4.1152 несет	-0.0860
-4.1152 несколько	-0.0888
-4.1152 несогретую	-0.0887
-4.1152 несостоявшееся	-0.0887
-4.1152 неспособен	-0.0888
-4.1152 несуществующей	-0.0888
-4.1152 несчастливы	-0.0873
-4.1152 несчастья	-0.0888
-2.4337 нет	-0.3011
-4.1152 неудобно	-0.0786
-3.0736 неужели	-0.0756
-3.8139 неужто	-0.0818
-4.1152 неуютно	-0.0886
-4.1152 нехитро	-0.0786
-4.1152 нецензурной	-0.0888
-3.6379 нечего	-0.0966
-2.9688 ни	-0.1115
-2.8362 нибудь	-0.0370
-4.1152 нигде	-0.0760
-4.1152 никак	-0.0884
-3.8139 никаких	-0.0887
-4.1152 никакого	-0.0888
-4.1152 никакой	-0.0888
-3.5129 никогда	-0.3505
-4.1152 никому	-0.0760
-4.1152 никто	-0.0760
-3.4160 никуда	-0.1111
-3.0736 ним	-0.0010
-4.1152 ними	-0.0887
-4.1152 нисколько	-0.0760
-3.4160 них	-0.0653
-2.7532 ничего	-0.3062
-4.1152 ничуть	-0.0760
-2.2825 но	-0.1589
-3.8139 новая	-0.2140
-4.1152 новинку	-0.0886
-3.8139 нового	-0.0286
-4.1152 новости	-0.0319
-4.1152 новость	-0.0319
-3.6379 новый	-0.0887
-4.1152 ногах	-0.0849
-3.8139 ноги	-0.0879
-4.1152 ножи	-0.0319
-4.1152 ножки	-0.0797
-3.6379 номер	-0.1106
-4.1152 норковые	-0.0888
-4.1152 нормальная	-0.0886
-4.1152 нормальной	-0.0849
-4.1152 нормальную	-0.0888
-4.1152 нос	-0.0319
-4.1152 носе	-0.0760
-4.1152 носи	-0.0888
-4.1152 носите	-0.0874
-4.1152 носится	-0.0319
-4.1152 носом	-0.0319
-4.1152 ноте	-0.0865
-3.6379 ночи	-0.1017
-4.1152 ночные	-0.0888
-3.3368 ночь	-0.0293
-3.5129 ночью	-0.0137
-4.1152 ношено	-0.0828
-4.1152 ноют	-0.0888
-4.1152 нравитесь	-0.0319
-3.1150 нравится	-0.1226
-4.1152 нравлюсь	-0.0319
-4.1152 нравственности	-0.0319
-4.1152 нравятся	-0.0319
-2.4248 ну	-0.4529
-4.1152 нуждается	-0.0319
-3.8139 нужен	-0.0317
-3.4160 нужна	-0.0805
-3.1150 нужно	-0.1959
-3.5129 нужны	-0.0852
-2.5468 о	-0.3545
-3.1607 об	-0.2792
-3.8139 оба	-0.0288
-4.1152 обдумать	-0.0319
-3.8139 обе	-0.0881
-4.1152 обед	-0.0319
-4.1152 обеспечена	-0.0319
-4.1152 обеспечу	-0.0319
-4.1152 обещала	-0.0319
-4.1152 обещании	-0.0797
-4.1152 обиделась	-0.0319
-4.1152 обидели	-0.0881
-3.8139 обиделся	-0.1572
-3.8139 обидишься	-0.0306
-3.8139 обидно	-0.0804
-4.1152 обиды	-0.0877
-4.1152 обман	-0.0854
-3.6379 обнимать	-0.1660
-4.1152 обнять	-0.0319
-3.1607 обо	-0.8647
-4.1152 обозлены	-0.0877
-4.1152 обои	-0.0888
-4.1152 обоим	-0.0881
-4.1152 обойтись	-0.0319
-4.1152 образец	-0.0888
-4.1152 образованные	-0.0886
-4.1152 обращаться	-0.0888
-4.1152 обрядов	-0.0884
-4.1152 обслуживание	-0.0319
-4.1152 обсудим	-0.0887
-4.1152 обсуждали	-0.0319
-4.1152 обухом	-0.0877
-4.1152 общее	-0.0886
-3.8139 общем	-0.0849
-4.1152 общий	-0.0888
-4.1152 объяснений	-0.0319
-4.1152 объяснения	-0.0319
-4.1152 объясни	-0.0882
-4.1152 объяснить	-0.0870
-4.1152 объясниться	-0.0319
-4.1152 объяснять	-0.0319
-4.1152 объясняться	-0.0887
-4.1152 объятий	-0.0319
-4.1152 обыкновенную	-0.0888
-3.8139 обычно	-0.0314
-4.1152 обычный	-0.0888
-4.1152 обязанности	-0.0884
-3.3368 обязательно	-0.0755
-4.1152 оговорился	-0.0786
-4.1152 огонь	-0.0319
-4.1152 огорчайтесь	-0.0859
-4.1152 огурцы	-0.0319
-4.1152 одеяло	-0.0319
-3.3368 один	-0.0151
-3.8139 одиннадцатого	-0.0202
-4.1152 одиночество	-0.0828
-4.1152 одиночка	-0.0828
-3.4160 одна	-0.2414
-4.1152 одним	-0.0887
-3.5129 одно	-0.0887
-4.1152 одновременно	-0.0874
-4.1152 одногодки	-0.0319
-3.8139 одной	-0.0858
-3.8139 одном	-0.0319
-4.1152 одному	-0.0319
-4.1152 однообразно	-0.0818
-3.6379 одну	-0.0887
-4.1152 ожидал	-0.0804
-4.1152 окне	-0.0319
-4.1152 окно	-0.0319
-3.8139 окном	-0.1572
-4.1152 окончательное	-0.0888
-4.1152 окружил	-0.0867
-2.3990 он	-0.0580
-2.7532 она	-0.0053
-2.9389 они	-0.0805
-3.2699 оно	-0.0912
-4.1152 опаздываешь	-0.0319
-4.1152 опасаетесь	-0.0874
-4.1152 опасности	-0.0319
-4.1152 опомнитесь	-0.0828
-4.1152 опостылел	-0.0887
-4.1152 определенно	-0.0882
-4.1152 опыт	-0.0319
-3.2119 опять	-0.0426
-3.8139 орхидеи	-0.0280
-4.1152 освобожденности	-0.0880
-4.1152 осенняя	-0.0886
-4.1152 осиновый	-0.0888
-4.1152 оскорбить	-0.0319
-4.1152 оскорбляю	-0.0870
-4.1152 осложняют	-0.0886
-4.1152 осмелюсь	-0.0786
-3.8139 особенного	-0.2134
-4.1152 оставите	-0.0863
-3.8139 оставить	-0.0319
-4.1152 оставишь	-0.0319
-3.8139 оставлять	-0.0319
-4.1152 остаешься	-0.0319
-4.1152 осталась	-0.0884
-4.1152 остальное	-0.0882
-3.8139 останешься	-0.0849
-4.1152 остановлюсь	-0.0886
-3.8139 останусь	-0.0883
-3.8139 остаться	-0.0811
-3.8139 остаюсь	-0.0202
-3.8139 осторожна	-0.0853
-4.1152 осточертеть	-0.0887
-2.7170 от	-0.1185
-4.1152 отвергаете	-0.0319
-4.1152 ответ	-0.0871
-3.8139 ответа	-0.1572
-4.1152 ответили	-0.0804
-4.1152 ответить	-0.0867
-4.1152 ответственности	-0.0319
-4.1152 ответь	-0.0863
-4.1152 отвечал	-0.0319
-4.1152 отвечать	-0.0818
-4.1152 отгремели	-0.0818
-4.1152 отгул	-0.0879
-4.1152 отдам	-0.0319
-3.6379 отдельно	-0.5762
-4.1152 отдохнешь	-0.0319
-4.1152 отдохни	-0.0786
-3.8139 отдохнуть	-0.0216
-4.1152 отелло	-0.0860
-4.1152 отказываетесь	-0.0786
-3.8139 отказываешься	-0.0291
-3.8139 откладывать	-0.0311
-4.1152 откроете	-0.0888
-4.1152 открывай	-0.0319
-4.1152 открывать	-0.0760
-4.1152 открыто	-0.0888
-3.8139 открыть	-0.0888
-3.3368 откуда	-0.1017
-4.1152 отличаешься	-0.0880
-4.1152 отличаться	-0.0818
-4.1152 отличная	-0.0887
-3.8139 отлично	-0.0887
-4.1152 отличные	-0.0888
-4.1152 относились	-0.0877
-4.1152 относился	-0.0319
-4.1152 относитесь	-0.0877
-3.8139 отношения	-0.0307
-3.5129 отношениях	-0.3203
-4.1152 отношусь	-0.0877
-4.1152 отобрать	-0.0881
-4.1152 отомстила	-0.0319
-4.1152 отпуск	-0.0319
-4.1152 отпускать	-0.0828
-4.1152 отрекаюсь	-0.0866
-4.1152 отремонтирую	-0.0888
-4.1152 отсюда	-0.0760
-4.1152 оттого	-0.0804
-4.1152 отцов	-0.0319
-4.1152 отъезде	-0.0319
-4.1152 официальное	-0.0888
-3.8139 официантом	-0.1572
-3.8139 охладел	-0.0307
-4.1152 оцениваете	-0.0888
-4.1152 оценивается	-0.0879
-4.1152 очаровательная	-0.0888
-3.8139 очевидно	-0.0827
-2.6678 очень	-0.0435
-4.1152 очереди	-0.0319
-4.1152 очередь	-0.0860
-4.1152 ошиблась	-0.0319
-4.1152 ощутить	-0.0867
-4.1152 ощущение	-0.0804
-4.1152 ощущений	-0.0319
-4.1152 павловна	-0.0859
-4.1152 палкой	-0.0842
-3.5129 пальто	-0.3203
-4.1152 пара	-0.0888
-4.1152 парикмахерскую	-0.0319
-4.1152 парке	-0.0319
-4.1152 пары	-0.0888
-4.1152 паспорт	-0.0888
-4.1152 пахнешь	-0.0888
-4.1152 пей	-0.0319
-4.1152 пекла	-0.0319
-4.1152 первая	-0.0319
-4.1152 первоклассный	-0.0888
-3.6379 первый	-0.0883
-4.1152 первых	-0.0881
-4.1152 перебрать	-0.0861
-4.1152 перевели	-0.0319
-3.6379 перед	-0.0879
-4.1152 передадут	-0.0866
-4.1152 передай	-0.0885
-4.1152 передать	-0.0855
-4.1152 передник	-0.0842
-4.1152 передумаешь	-0.0319
-4.1152 передумал	-0.0319
-4.1152 переживу	-0.0786
-4.1152 переменим	-0.0888
-4.1152 перенести	-0.0319
-4.1152 переодеваться	-0.0877
-4.1152 переполняло	-0.0888
-4.1152 переполох	-0.0888
-4.1152 перепугал	-0.0860
-4.1152 пересесть	-0.0887
-4.1152 пересохшая	-0.0888
-4.1152 перестань	-0.0887
-3.8139 перестаньте	-0.0828
-4.1152 переходить	-0.0855
-4.1152 перешли	-0.0855
-4.1152 пестрое	-0.0319
-4.1152 печенье	-0.0319
-3.8139 пили	-0.0318
-4.1152 пилите	-0.0319
-4.1152 пирогом	-0.0877
-4.1152 писал	-0.0874
-4.1152 писать	-0.0319
-3.8139 пить	-0.0885
-4.1152 пишете	-0.0855
-4.1152 плавают	-0.0319
-4.1152 плакать	-0.0797
-4.1152 планах	-0.0319
-3.8139 платить	-0.0306
-4.1152 платное	-0.0888
-3.4160 платье	-0.0715
-3.6379 платят	-0.0966
-3.8139 плачете	-0.0223
-4.1152 плачь	-0.0786
-4.1152 плевать	-0.0319
-4.1152 плесну	-0.0888
-4.1152 плеч	-0.0888
-3.2699 плохо	-0.4949
-4.1152 площадь	-0.0888
-2.5709 по	-0.1806
-4.1152 побежала	-0.0319
-4.1152 побеждать	-0.0884
-4.1152 побрал	-0.0319
-4.1152 поварешки	-0.0319
-4.1152 поведение	-0.0319
-4.1152 поведения	-0.0319
-4.1152 поверить	-0.0319
-4.1152 поверь	-0.0849
-3.8139 повод	-0.1572
-4.1152 повода	-0.0319
-4.1152 поводу	-0.0884
-4.1152 погасите	-0.0888
-4.1152 погнута	-0.0882
-4.1152 поговорил	-0.0854
-4.1152 поговорили	-0.0876
-4.1152 поговорим	-0.0855
-3.8139 поговорить	-0.0306
-3.8139 погода	-0.0202
-4.1152 погоде	-0.0319
-4.1152 погореть	-0.0815
-4.1152 погреюсь	-0.0319
-3.6379 под	-0.0887
-4.1152 подался	-0.0880
-4.1152 подальше	-0.0319
-3.8139 подарил	-0.0881
-4.1152 подарила	-0.0888
-4.1152 подарки	-0.0319
-4.1152 подарок	-0.0877
-4.1152 подачки	-0.0319
-4.1152 подают	-0.0818
-4.1152 подделку	-0.0888
-4.1152 подевались	-0.0319
-4.1152 поделать	-0.0319
-4.1152 подкует	-0.0859
-4.1152 подлость	-0.0818
-4.1152 подлый	-0.0888
-4.1152 подмени	-0.0860
-4.1152 подниматься	-0.0888
-4.1152 поднимет	-0.0881
-4.1152 подобает	-0.0786
-4.1152 подождать	-0.0867
-3.8139 подожди	-0.0864
-4.1152 подождите	-0.0828
-4.1152 подозревает	-0.0319
-4.1152 подозрений	-0.0319
-4.1152 подойду	-0.0319
-4.1152 подойти	-0.0888
-4.1152 подошла	-0.0877
-4.1152 подошло	-0.0888
-4.1152 подписал	-0.0881
-4.1152 подписано	-0.0859
-4.1152 подписи	-0.0855
-4.1152 подразнить	-0.0319
-4.1152 подробностей	-0.0797
-3.8139 подруга	-0.1572
-4.1152 подруге	-0.0319
-4.1152 подружились	-0.0319
-3.8139 подсели	-0.0886
-4.1152 подсказать	-0.0319
-4.1152 подстерегают	-0.0884
-4.1152 подтолкнул	-0.0319
-3.8139 подумав	-0.1572
-3.8139 подумай	-0.0319
-4.1152 подумайте	-0.0882
-3.6379 подумать	-0.1017
-4.1152 подумаю	-0.0828
-4.1152 подходим	-0.0319
-3.8139 подходит	-0.1572
-3.8139 подцепить	-0.0877
-4.1152 подыскать	-0.0887
-4.1152 поедем	-0.0876
-4.1152 поеду	-0.0319
-4.1152 поездах	-0.0887
-4.1152 поехала	-0.0319
-4.1152 пожалеешь	-0.0319
-4.1152 пожалеть	-0.0319
-4.1152 пожаловаться	-0.0760
-3.6379 пожалуй	-0.0877
-3.3368 пожалуйста	-0.0843
-4.1152 пожить	-0.0818
-4.1152 позапрошлом	-0.0888
-4.1152 позарез	-0.0887
-4.1152 позвать	-0.0804
-4.1152 позволю	-0.0882
-4.1152 позволяет	-0.0870
-4.1152 позволяла	-0.0873
-4.1152 позволять	-0.0319
-3.6379 позвоню	-0.0860
-4.1152 позвонят	-0.0881
-4.1152 позднее	-0.0319
-3.6379 поздно	-0.0878
-4.1152 познакомимся	-0.0887
-4.1152 позову	-0.0319
-4.1152 поизносился	-0.0319
-4.1152 поискать	-0.0319
-3.6379 пойдем	-0.1105
-3.5129 пойду	-0.0795
-4.1152 поймешь	-0.0319
-4.1152 пойму	-0.0882
-3.5129 пойти	-0.0840
-3.0010 пока	-0.1676
-4.1152 покажется	-0.0888
-3.8139 показалось	-0.0223
-4.1152 показать	-0.0888
-4.1152 показывал	-0.0319
-3.8139 покончено	-0.0293
-4.1152 покорить	-0.0888
-3.6379 покрепче	-0.1096
-4.1152 покрывает	-0.0888
-4.1152 покупать	-0.0885
-4.1152 полагается	-0.0888
-4.1152 полагал	-0.0804
-4.1152 полдень	-0.0319
-4.1152 полдня	-0.0854
-4.1152 полковник	-0.0888
-4.1152 полной	-0.0887
-3.8139 половина	-0.0888
-4.1152 половиной	-0.0319
-3.4160 половину	-0.0308
-4.1152 положение	-0.0888
-3.8139 получается	-0.0319
-4.1152 получать	-0.0888
-3.6379 получил	-0.0818
-4.1152 получили	-0.0887
-4.1152 получится	-0.0319
-4.1152 получка	-0.0887
-4.1152 полчаса	-0.0319
-4.1152 помещай	-0.0887
-4.1152 помещения	-0.0319
-4.1152 помним	-0.0319
-4.1152 помните	-0.0888
-4.1152 помнится	-0.0319
-4.1152 помнишь	-0.0842
-4.1152 помог	-0.0319
-4.1152 помогает	-0.0319
-4.1152 помоги	-0.0863
-3.8139 помогу	-0.1572
-4.1152 поможешь	-0.0863
-4.1152 помолчать	-0.0319
-3.8139 помолчим	-0.1572
-3.5129 помочь	-0.3605
-4.1152 помощь	-0.0319
-4.1152 помощью	-0.0888
-4.1152 помою	-0.0888
-4.1152 понадобятся	-0.0319
-4.1152 поневоле	-0.0888
-4.1152 понимаем	-0.0842
-4.1152 понимаете	-0.0319
-3.1150 понимаешь	-0.0437
-2.8845 понимаю	-0.0670
-4.1152 понял	-0.0886
-3.5129 поняла	-0.0201
-3.6379 понятно	-0.1029
-4.1152 понять	-0.0885
-4.1152 попадает	-0.0319
-4.1152 попаду	-0.0842
-4.1152 попал	-0.0842
-4.1152 попала	-0.0319
-4.1152 попали	-0.0842
-4.1152 поприличнее	-0.0319
-3.8139 попробуем	-0.0319
-4.1152 попробуй	-0.0879
-4.1152 попробую	-0.0881
-4.1152 попросту	-0.0887
-4.1152 попрошу	-0.0885
-3.8139 популярность	-0.0319
-4.1152 попусту	-0.0319
-4.1152 попытаться	-0.0888
-3.5129 пор	-0.0708
-3.1150 пора	-0.3403
-4.1152 порекомендовать	-0.0319
-4.1152 поросенка	-0.0887
-4.1152 портить	-0.0319
-4.1152 портиться	-0.0888
-4.1152 портнихи	-0.0319
-4.1152 порядком	-0.0888
-4.1152 порядок	-0.0842
-4.1152 порядочная	-0.0319
-4.1152 порядочной	-0.0319
-4.1152 порядочности	-0.0760
-4.1152 порядочность	-0.0319
-3.8139 порядочных	-0.0251
-4.1152 посадка	-0.0319
-4.1152 посидел	-0.0887
-4.1152 посидим	-0.0882
-4.1152 посижу	-0.0884
-4.1152 послабее	-0.0319
-3.2699 после	-0.0884
-4.1152 последнее	-0.0886
-4.1152 последние	-0.0888
-4.1152 последний	-0.0881
-3.6379 послезавтра	-0.1061
-3.8139 послушай	-0.0722
-3.8139 послушайте	-0.0729
-4.1152 посмотреть	-0.0888
-3.6379 посмотри	-0.1676
-4.1152 посмотрим	-0.0319
-3.8139 посмотрите	-0.1572
-4.1152 посмотрю	-0.0319
-4.1152 посоветуешь	-0.0319
-4.1152 посоветуй	-0.0847
-4.1152 поссорились	-0.0804
-4.1152 поставила	-0.0874
-4.1152 поставить	-0.0888
-4.1152 поставишь	-0.0886
-4.1152 постарайся	-0.0319
-4.1152 постараться	-0.0888
-4.1152 постараюсь	-0.0888
-4.1152 постели	-0.0319
-3.6379 постель	-0.0272
-3.8139 постой	-0.0319
-4.1152 постойте	-0.0883
-4.1152 посторонним	-0.0871
-4.1152 постояльцами	-0.0815
-4.1152 постояльцев	-0.0877
-4.1152 построить	-0.0815
-4.1152 поступает	-0.0877
-4.1152 поступила	-0.0319
-4.1152 поступит	-0.0319
-4.1152 поступлю	-0.0319
-4.1152 посудить	-0.0319
-3.8139 посуду	-0.1572
-4.1152 потерпим	-0.0888
-4.1152 потерянный	-0.0887
-3.0358 потом	-0.1389
-3.2119 потому	-0.9806
-4.1152 потребуешь	-0.0319
-4.1152 поухаживаю	-0.0319
-3.8139 похож	-0.2107
-4.1152 похожа	-0.0319
-3.8139 похоже	-0.0757
-3.8139 похожи	-0.0319
-4.1152 похорошела	-0.0319
-4.1152 поцелуй	-0.0886
-2.3515 почему	-0.1077
-4.1152 почитать	-0.0888
-3.4160 почти	-0.1174
-3.8139 пошел	-0.0319
-4.1152 пошло	-0.0886
-4.1152 пошлю	-0.0870
-4.1152 поэзии	-0.0319
-3.5129 поэтому	-0.1270
-4.1152 появился	-0.0319
-4.1152 появиться	-0.0319
-4.1152 права	-0.0786
-2.9688 правда	-0.3953
-3.8139 правильно	-0.0859
-4.1152 право	-0.0319
-4.1152 предвыборная	-0.0888
-3.6379 предлагаешь	-0.5762
-3.8139 предложение	-0.0202
-4.1152 предложила	-0.0888
-4.1152 предложишь	-0.0886
-4.1152 предположим	-0.0786
-3.8139 предпочитаете	-0.0884
-4.1152 предпринимать	-0.0319
-4.1152 представить	-0.0886
-4.1152 представления	-0.0319
-3.8139 представляешь	-0.2099
-4.1152 представляю	-0.0888
-3.8139 предупредить	-0.0306
-3.8139 презираете	-0.0235
-4.1152 прекрасная	-0.0888
-3.3368 прекрасно	-0.0244
-4.1152 прекрасный	-0.0888
-4.1152 прекратиться	-0.0319
-4.1152 прелесть	-0.0319
-3.8139 премиальные	-0.1572
-4.1152 прерывай	-0.0860
-4.1152 преступление	-0.0319
-3.4160 при	-0.1337
-4.1152 приберем	-0.0880
-4.1152 приберу	-0.0888
-4.1152 прибирать	-0.0319
-4.1152 прибор	-0.0319
-3.8139 привет	-0.0319
-4.1152 привыкла	-0.0888
-4.1152 привычными	-0.0847
-4.1152 пригласила	-0.0870
-4.1152 пригласили	-0.0887
-4.1152 пригласите	-0.0860
-3.8139 приглашаете	-0.2113
-3.8139 приглашение	-0.0316
-4.1152 пригодиться	-0.0319
-4.1152 пригодны	-0.0884
-4.1152 приготовила	-0.0881
-4.1152 приготовь	-0.0884
-4.1152 придачу	-0.0319
-4.1152 придет	-0.0319
-3.6379 придется	-0.0308
-3.6379 придешь	-0.1096
-4.1152 придумывай	-0.0804
-3.8139 придут	-0.1572
-4.1152 приезжает	-0.0885
-4.1152 приезжий	-0.0886
-4.1152 приехала	-0.0319
-4.1152 признание	-0.0319
-4.1152 прийти	-0.0888
-4.1152 приличия	-0.0319
-4.1152 примере	-0.0888
-3.8139 примерю	-0.0886
-4.1152 принесло	-0.0319
-4.1152 принципах	-0.0886
-4.1152 приняли	-0.0849
-4.1152 приревновали	-0.0319
-4.1152 природы	-0.0319
-4.1152 присоединитесь	-0.0319
-4.1152 приставала	-0.0854
-4.1152 пристаю	-0.0877
-4.1152 притронулись	-0.0867
-4.1152 приходится	-0.0888
-4.1152 приходу	-0.0319
-4.1152 причем	-0.0760
-3.8139 причина	-0.0841
-3.6379 пришел	-0.0308
-3.6379 пришла	-0.0142
-4.1152 пришлось	-0.0888
-4.1152 пришлю	-0.0886
-4.1152 приятной	-0.0888
-3.8139 про	-0.0860
-3.8139 пробежала	-0.1572
-4.1152 проведу	-0.0854
-4.1152 провели	-0.0842
-4.1152 проверенные	-0.0888
-4.1152 провести	-0.0884
-4.1152 провоцируете	-0.0319
-4.1152 прогневили	-0.0319
-4.1152 проголодался	-0.0319
-4.1152 прогул	-0.0319
-4.1152 прогулки	-0.0319
-4.1152 продажной	-0.0888
-4.1152 продолжать	-0.0886
-4.1152 продолжаться	-0.0887
-4.1152 продолжим	-0.0888
-4.1152 продумал	-0.0887
-3.8139 прожили	-0.0318
-4.1152 проиграли	-0.0865
-4.1152 произошло	-0.0319
-4.1152 пройти	-0.0319
-4.1152 прокатимся	-0.0884
-4.1152 проклятое	-0.0887
-4.1152 проклятый	-0.0888
-4.1152 проклятых	-0.0888
-4.1152 пролетел	-0.0888
-4.1152 проломит	-0.0863
-4.1152 проникнуть	-0.0888
-3.8139 просил	-0.0886
-3.8139 просила	-0.0852
-4.1152 прости	-0.0319
-3.3368 простите	-0.2160
-4.1152 проститутки	-0.0319
-4.1152 проститутку	-0.0828
-2.7928 просто	-0.0073
-4.1152 простое	-0.0861
-3.8139 против	-0.0295
-4.1152 противен	-0.0319
-3.6379 профессии	-0.5762
-4.1152 профессия	-0.0319
-4.1152 прохожих	-0.0319
-4.1152 проценты	-0.0888
-4.1152 прочим	-0.0885
-4.1152 прочитать	-0.0873
-4.1152 прочной	-0.0319
-4.1152 прошлое	-0.0866
-4.1152 прошлом	-0.0878
-3.6379 прошу	-0.0262
-3.8139 прощай	-0.0319
-3.8139 прощайте	-0.1572
-4.1152 прощание	-0.0888
-4.1152 прощанье	-0.0888
-4.1152 прощаться	-0.0854
-4.1152 проще	-0.0877
-3.4160 прямо	-0.1285
-4.1152 прямой	-0.0887
-4.1152 пряности	-0.0842
-4.1152 психолог	-0.0888
-4.1152 пустая	-0.0888
-4.1152 пустое	-0.0319
-4.1152 пустую	-0.0888
-4.1152 пустырь	-0.0815
-4.1152 пусть	-0.0861
-4.1152 пустяк	-0.0786
-4.1152 пустякам	-0.0319
-4.1152 путем	-0.0815
-4.1152 пути	-0.0859
-4.1152 пытаются	-0.0888
-4.1152 пьем	-0.0319
-3.8139 пьет	-0.1572
-3.8139 пьете	-0.0317
-4.1152 пьешь	-0.0886
-4.1152 пьют	-0.0888
-4.1152 пьянки	-0.0855
-4.1152 пятерку	-0.0876
-4.1152 пятерых	-0.0888
-4.1152 пятницу	-0.0786
-4.1152 пятого	-0.0319
-3.6379 пять	-0.0886
-3.6379 работа	-0.0789
-4.1152 работает	-0.0319
-3.6379 работаете	-0.5762
-4.1152 работали	-0.0319
-4.1152 работать	-0.0888
-4.1152 работаю	-0.0319
-3.5129 работе	-0.3203
-3.8139 работу	-0.1572
-3.6379 работы	-0.1075
-3.4160 равно	-0.1193
-4.1152 рад	-0.0885
-3.8139 рада	-0.1572
-4.1152 ради	-0.0888
-4.1152 радикулит	-0.0319
-4.1152 радоваться	-0.0319
-4.1152 радостно	-0.0818
-4.1152 радость	-0.0319
-2.7726 раз	-0.1412
-4.1152 разбираешься	-0.0842
-4.1152 разбирать	-0.0319
-4.1152 разбудите	-0.0887
-4.1152 разваливается	-0.0319
-4.1152 развалилась	-0.0818
-2.6236 разве	-0.2958
-4.1152 разведется	-0.0319
-3.8139 развестись	-0.1572
-4.1152 развлекать	-0.0319
-4.1152 развлеклись	-0.0818
-3.8139 разводимся	-0.1572
-4.1152 разводиться	-0.0319
-4.1152 разводом	-0.0319
-4.1152 разводятся	-0.0818
-4.1152 разговариваю	-0.0319
-3.8139 разговор	-0.0878
-4.1152 разговора	-0.0760
-4.1152 разговорам	-0.0319
-4.1152 разговору	-0.0876
-4.1152 разговоры	-0.0876
-4.1152 раздел	-0.0319
-4.1152 раздела	-0.0888
-4.1152 разделить	-0.0886
-4.1152 разделочные	-0.0888
-4.1152 раздражают	-0.0319
-4.1152 разлюбил	-0.0319
-4.1152 размер	-0.0319
-3.5129 разница	-0.0792
-4.1152 разницу	-0.0319
-3.6379 разнообразия	-0.0299
-4.1152 разойдемся	-0.0818
-4.1152 разориться	-0.0859
-4.1152 разорять	-0.0319
-4.1152 разочарование	-0.0888
-4.1152 разошелся	-0.0319
-3.8139 разрешаете	-0.1572
-4.1152 разрушаю	-0.0888
-4.1152 разу	-0.0319
-4.1152 разузнать	-0.0797
-3.8139 разумеется	-0.0863
-4.1152 разумно	-0.0815
-4.1152 разумные	-0.0888
-4.1152 разыгрываешь	-0.0877
-4.1152 районе	-0.0887
-4.1152 рано	-0.0884
-3.0010 раньше	-0.0013
-4.1152 раскусила	-0.0815
-4.1152 раскусить	-0.0319
-4.1152 расписываетесь	-0.0319
-4.1152 расплатиться	-0.0854
-4.1152 расскажи	-0.0885
-3.5129 расскажите	-0.0821
-3.8139 рассказать	-0.0298
-4.1152 рассказывай	-0.0319
-3.8139 рассказывать	-0.0814
-4.1152 расспросами	-0.0319
-3.8139 расставаться	-0.1572
-4.1152 расстаемся	-0.0760
-3.8139 расстались	-0.1572
-3.6379 расстанемся	-0.1109
-3.8139 расстаться	-0.0306
-3.8139 рассчитывала	-0.1572
-4.1152 растишь	-0.0888
-3.5129 ребенка	-0.3643
-3.8139 ребенком	-0.0216
-4.1152 ребенку	-0.0885
-3.6379 ребенок	-0.1102
-4.1152 ребят	-0.0888
-4.1152 ребячество	-0.0319
-4.1152 регистрации	-0.0319
-3.8139 регистрация	-0.1572
-4.1152 редкие	-0.0888
-4.1152 резко	-0.0319
-3.8139 ресторане	-0.0317
-3.8139 речь	-0.1572
-4.1152 решали	-0.0818
-4.1152 решаться	-0.0319
-4.1152 решение	-0.0319
-3.5129 решил	-0.0803
-3.4160 решила	-0.0729
-3.6379 решили	-0.0223
-3.8139 решим	-0.0887
-4.1152 решить	-0.0885
-4.1152 решиться	-0.0319
-4.1152 риск	-0.0797
-4.1152 рискованно	-0.0319
-4.1152 рискованный	-0.0887
-4.1152 робот	-0.0319
-4.1152 родители	-0.0888
-4.1152 родишь	-0.0319
-4.1152 родная	-0.0319
-4.1152 родной	-0.0319
-4.1152 рожден	-0.0319
-4.1152 рождения	-0.0319
-4.1152 рожу	-0.0888
-4.1152 ролик	-0.0879
-3.6379 рубашка	-0.5762
-3.8139 рубашки	-0.0281
-3.8139 рубашку	-0.0317
-3.8139 руках	-0.0873
-3.8139 руки	-0.0173
-4.1152 рукой	-0.0319
-4.1152 рушат	-0.0319
-3.8139 рюмку	-0.0888
-4.1152 рюмочку	-0.0319
-2.1021 с	-0.3801
-3.5129 сад	-0.0862
-3.8139 садись	-0.0804
-4.1152 салат	-0.0319
-3.6379 сам	-0.0753
-3.0736 сама	-0.0342
-4.1152 самая	-0.0888
-3.5129 сами	-0.0843
-4.1152 самих	-0.0319
-3.5129 самого	-0.1467
-4.1152 самодельный	-0.0319
-3.8139 самое	-0.2140
-4.1152 самолет	-0.0319
-4.1152 самолете	-0.0880
-3.5129 самом	-0.3771
-4.1152 самочувствие	-0.0760
-3.8139 самый	-0.0881
-4.1152 сантехник	-0.0319
-4.1152 сахар	-0.0859
-4.1152 сбежаться	-0.0888
-4.1152 сборник	-0.0888
-4.1152 свадебноe	-0.0887
-4.1152 свадебные	-0.0888
-4.1152 свадьба	-0.0849
-4.1152 свадьбе	-0.0319
-3.8139 свадьбы	-0.0202
-4.1152 сваливаются	-0.0877
-4.1152 свалился	-0.0319
-4.1152 свежести	-0.0888
-4.1152 свежестью	-0.0319
-3.8139 свекровь	-0.0319
-4.1152 свести	-0.0319
-4.1152 свет	-0.0319
-4.1152 света	-0.0888
-4.1152 свидание	-0.0319
-4.1152 свидании	-0.0319
-4.1152 свидания	-0.0319
-4.1152 свинарник	-0.0319
-3.6379 свободно	-0.0996
-3.8139 свободной	-0.0318
-4.1152 свободны	-0.0319
-4.1152 свободы	-0.0887
-3.6379 свое	-0.0318
-3.8139 своего	-0.0888
-3.8139 своей	-0.0818
-4.1152 своем	-0.0888
-4.1152 своему	-0.0887
-3.8139 свои	-0.0319
-3.8139 своим	-0.0887
-3.5129 своих	-0.0318
-3.2119 свой	-0.1464
-4.1152 свойства	-0.0888
-3.4160 свою	-0.0886
-4.1152 связано	-0.0854
-4.1152 связи	-0.0319
-4.1152 сгореть	-0.0319
-4.1152 сдавал	-0.0887
-4.1152 сдвинемся	-0.0887
-4.1152 сделаешь	-0.0849
-4.1152 сделайте	-0.0863
-3.8139 сделал	-0.0293
-3.8139 сделала	-0.0318
-3.2119 сделать	-0.0808
-4.1152 сделаю	-0.0888
-4.1152 сделку	-0.0888
-3.0358 себе	-0.0417
-3.2119 себя	-0.0412
-3.1607 сегодня	-0.0497
-4.1152 сезоне	-0.0828
-4.1152 сейфе	-0.0319
-2.7170 сейчас	-0.0915
-4.1152 семейной	-0.0887
-3.8139 семью	-0.1572
-3.3368 семья	-0.0614
-3.8139 сервиз	-0.0863
-3.8139 сердись	-0.1572
-4.1152 сердитесь	-0.0319
-4.1152 сердцем	-0.0888
-4.1152 середине	-0.0888
-4.1152 сержусь	-0.0866
-4.1152 сером	-0.0888
-3.5129 серьезно	-0.0899
-4.1152 серьезный	-0.0887
-4.1152 сестра	-0.0874
-4.1152 сестру	-0.0888
-4.1152 сестры	-0.0880
-3.3368 сесть	-0.2134
-4.1152 сзади	-0.0847
-4.1152 сидела	-0.0854
-3.6379 сидеть	-0.0879
-4.1152 сидишь	-0.0319
-4.1152 сижу	-0.0876
-4.1152 силачу	-0.0319
-4.1152 сильные	-0.0319
-4.1152 симпатичной	-0.0888
-4.1152 ситуации	-0.0880
-4.1152 сих	-0.0887
-4.1152 скажем	-0.0319
-3.8139 скажете	-0.0202
-3.3368 скажешь	-0.2713
-3.2699 скажи	-0.0656
-3.6379 скажите	-0.0794
-4.1152 скажу	-0.0887
-3.4160 сказал	-0.0104
-4.1152 сказала	-0.0804
-3.8139 сказали	-0.0309
-3.1607 сказать	-0.1447
-4.1152 скалозуб	-0.0319
-4.1152 скамью	-0.0815
-4.1152 скачешь	-0.0888
-4.1152 скверная	-0.0888
-4.1152 скитался	-0.0887
-4.1152 склонна	-0.0888
-3.1607 сколько	-0.0803
-3.6379 скоро	-0.0884
-4.1152 скорчил	-0.0888
-4.1152 скрипкой	-0.0319
-4.1152 скроешь	-0.0319
-4.1152 скромную	-0.0888
-4.1152 скрутила	-0.0319
-4.1152 скрывала	-0.0877
-4.1152 скуки	-0.0319
-3.8139 скуку	-0.0319
-4.1152 скулят	-0.0815
-4.1152 скучайте	-0.0887
-4.1152 скучна	-0.0888
-3.3368 скучно	-0.0588
-4.1152 слабые	-0.0874
-4.1152 слава	-0.0888
-4.1152 следует	-0.0884
-4.1152 следующая	-0.0319
-4.1152 следующей	-0.0888
-4.1152 слез	-0.0319
-4.1152 слезть	-0.0886
-4.1152 сливы	-0.0888
-3.3368 слишком	-0.0886
-3.8139 слов	-0.0752
-4.1152 слова	-0.0319
-4.1152 словами	-0.0797
-4.1152 словах	-0.0804
-3.8139 словно	-0.0887
-3.8139 слово	-0.0313
-3.6379 словом	-0.1536
-4.1152 сложилось	-0.0319
-4.1152 сложить	-0.0888
-4.1152 сломя	-0.0888
-4.1152 слон	-0.0888
-4.1152 служебное	-0.0319
-3.5129 случае	-0.1365
-4.1152 случаем	-0.0319
-4.1152 случай	-0.0887
-3.6379 случайно	-0.0966
-4.1152 случаю	-0.0881
-3.6379 случилось	-0.5762
-3.8139 случиться	-0.1572
-4.1152 слушайте	-0.0870
-3.8139 слышал	-0.0847
-4.1152 слышала	-0.0319
-4.1152 слышали	-0.0888
-4.1152 слышишь	-0.0319
-4.1152 слышно	-0.0319
-3.8139 смеетесь	-0.1572
-3.8139 смеешься	-0.1572
-4.1152 смейтесь	-0.0319
-4.1152 смелости	-0.0818
-3.8139 смерти	-0.0173
-4.1152 смесь	-0.0888
-4.1152 смешите	-0.0860
-3.8139 смешно	-0.0240
-4.1152 смогу	-0.0849
-4.1152 сможешь	-0.0888
-4.1152 смотрели	-0.0881
-3.8139 смотреть	-0.0886
-4.1152 смотри	-0.0319
-3.8139 смотрите	-0.0770
-4.1152 смотришь	-0.0319
-3.5129 смотрю	-0.1283
-4.1152 смутно	-0.0888
-4.1152 смывался	-0.0855
-4.1152 смысл	-0.0319
-4.1152 смысле	-0.0885
-4.1152 смычком	-0.0815
-3.8139 сначала	-0.0887
-4.1152 снежок	-0.0887
-4.1152 снизу	-0.0888
-4.1152 снилось	-0.0319
-3.8139 снимешь	-0.0886
-3.8139 сними	-0.0845
-3.1607 снова	-0.0212
-4.1152 снял	-0.0887
-3.3368 со	-0.7202
-4.1152 собираетесь	-0.0888
-3.8139 собираешься	-0.0884
-4.1152 собирались	-0.0888
-3.8139 собираюсь	-0.2139
-4.1152 соблазна	-0.0888
-4.1152 соблазнительной	-0.0888
-4.1152 соблюдаете	-0.0888
-4.1152 собой	-0.0319
-4.1152 собственницы	-0.0319
-3.8139 собственно	-0.0876
-3.8139 собственного	-0.0886
-4.1152 совершенно	-0.0884
-4.1152 совершили	-0.0888
-4.1152 совесть	-0.0881
-4.1152 совет	-0.0319
-4.1152 советоваться	-0.0877
-3.2119 совсем	-0.1031
-4.1152 согласен	-0.0884
-4.1152 согласись	-0.0855
-4.1152 согласна	-0.0887
-4.1152 согласны	-0.0319
-4.1152 соглашусь	-0.0319
-4.1152 созданы	-0.0886
-4.1152 сознанием	-0.0888
-4.1152 сознаюсь	-0.0319
-4.1152 сойти	-0.0319
-4.1152 солнца	-0.0888
-4.1152 солнце	-0.0319
-4.1152 сомневалась	-0.0842
-4.1152 сомненья	-0.0319
-4.1152 сон	-0.0319
-4.1152 сообщать	-0.0319
-3.8139 сорок	-0.0307
-3.8139 соседка	-0.0288
-3.8139 соседям	-0.0814
-4.1152 сослуживца	-0.0888
-4.1152 состоялось	-0.0319
-3.8139 софья	-0.0888
-4.1152 сохнуть	-0.0319
-4.1152 сошли	-0.0786
-3.8139 спальне	-0.0319
-4.1152 спальню	-0.0319
-4.1152 спальня	-0.0319
-4.1152 спаси	-0.0860
-3.1607 спасибо	-0.0561
-3.8139 спать	-0.0307
-4.1152 спешил	-0.0881
-4.1152 списать	-0.0842
-4.1152 спит	-0.0319
-3.8139 спички	-0.0303
-4.1152 спокойна	-0.0818
-3.6379 спокойно	-0.0319
-3.8139 спокойной	-0.2140
-4.1152 спор	-0.0319
-4.1152 споре	-0.0863
-4.1152 спорить	-0.0760
-4.1152 способностей	-0.0842
-4.1152 способы	-0.0888
-4.1152 справедливости	-0.0849
-4.1152 спрашиваешь	-0.0885
-3.6379 спрашиваю	-0.0851
-4.1152 спят	-0.0319
-3.1150 сразу	-0.0447
-4.1152 среди	-0.0888
-3.8139 срочно	-0.0886
-4.1152 ссоримся	-0.0319
-4.1152 ставил	-0.0888
-4.1152 ставишь	-0.0860
-4.1152 ставка	-0.0866
-4.1152 ставке	-0.0818
-4.1152 стал	-0.0887
-3.6379 стала	-0.0871
-3.8139 стало	-0.0886
-4.1152 станем	-0.0888
-4.1152 станете	-0.0888
-4.1152 стараюсь	-0.0888
-4.1152 стареет	-0.0884
-3.8139 старик	-0.0831
-4.1152 старики	-0.0319
-4.1152 старое	-0.0319
-4.1152 статистике	-0.0888
-4.1152 стать	-0.0888
-4.1152 стекле	-0.0319
-4.1152 стелить	-0.0879
-4.1152 стеснительный	-0.0319
-4.1152 стеснял	-0.0319
-4.1152 стилетти	-0.0319
-3.8139 стихи	-0.0884
-4.1152 стихов	-0.0888
-4.1152 стихотворение	-0.0888
-4.1152 сто	-0.0888
-3.2699 стоит	-0.0871
-4.1152 стойкости	-0.0818
-4.1152 стол	-0.0818
-4.1152 столиком	-0.0319
-3.6379 столько	-0.1680
-4.1152 стороне	-0.0319
-4.1152 сторонник	-0.0888
-4.1152 сторону	-0.0888
-4.1152 стороны	-0.0886
-4.1152 стоят	-0.0879
-4.1152 стоять	-0.0888
-4.1152 страданье	-0.0319
-4.1152 странная	-0.0888
-3.5129 странно	-0.0756
-4.1152 странной	-0.0319
-4.1152 странным	-0.0319
-3.6379 страховать	-0.0826
-3.8139 страхуется	-0.2095
-4.1152 страхуют	-0.0888
-3.8139 страшно	-0.1572
-4.1152 страшные	-0.0888
-4.1152 стремились	-0.0888
-4.1152 стремился	-0.0877
-4.1152 стричь	-0.0319
-4.1152 строим	-0.0874
-4.1152 стукач	-0.0319
-4.1152 стул	-0.0319
-4.1152 стула	-0.0786
-4.1152 стучат	-0.0874
-3.8139 стыдно	-0.0311
-4.1152 сугроб	-0.0888
-4.1152 сударыня	-0.0854
-3.4160 сударь	-0.0184
-4.1152 суде	-0.0887
-4.1152 сумасшедшая	-0.0319
-4.1152 сумею	-0.0319
-4.1152 сумме	-0.0887
-4.1152 супа	-0.0879
-4.1152 сухо	-0.0888
-4.1152 существует	-0.0874
-4.1152 сущности	-0.0888
-4.1152 сходится	-0.0885
-4.1152 сходишь	-0.0319
-4.1152 счастлив	-0.0786
-3.6379 счастлива	-0.5762
-4.1152 счастливых	-0.0884
-4.1152 счастье	-0.0319
-4.1152 счет	-0.0880
-3.8139 считаете	-0.2056
-3.8139 считаешь	-0.0223
-4.1152 считаться	-0.0885
-4.1152 съесть	-0.0887
-3.5129 сын	-0.0859
-3.6379 сына	-0.1066
-4.1152 сыро	-0.0818
-4.1152 сыт	-0.0886
-3.5129 сюда	-0.0317
-3.8139 сядьте	-0.0202
-3.8139 та	-0.0856
-4.1152 тайна	-0.0319
-4.1152 тайны	-0.0319
-2.1705 так	-0.0458
-3.6379 такая	-0.0318
-2.7348 таки	-0.1005
-3.8139 такие	-0.0888
-4.1152 такими	-0.0888
-3.8139 таких	-0.0847
-4.1152 такова	-0.0886
-4.1152 таковы	-0.0319
-3.8139 такого	-0.1572
-3.2699 такое	-0.0622
-3.3368 такой	-0.0839
-3.6379 таком	-0.1680
-4.1152 такую	-0.0888
-3.1607 там	-0.0492
-4.1152 танцевать	-0.0866
-4.1152 тарелка	-0.0319
-4.1152 тарелки	-0.0888
-4.1152 тарелку	-0.0786
-4.1152 татьяна	-0.0319
-3.8139 тахта	-0.1572
-4.1152 тахте	-0.0888
-4.1152 тахту	-0.0319
-4.1152 тахты	-0.0888
-4.1152 твердишь	-0.0804
-4.1152 твердо	-0.0887
-4.1152 твержу	-0.0873
-3.8139 твое	-0.0887
-4.1152 твоего	-0.0887
-3.6379 твоей	-0.0887
-3.6379 твоем	-0.0887
-4.1152 твои	-0.0888
-4.1152 твоим	-0.0888
-2.9109 твой	-0.0925
-3.8139 твою	-0.0885
-3.4160 твоя	-0.0784
-4.1152 те	-0.0861
-4.1152 театр	-0.0319
-2.3668 тебе	-0.1028
-2.3088 тебя	-0.0351
-4.1152 телевизоры	-0.0888
-3.8139 телекоммуникации	-0.0301
-3.8139 телефон	-0.0173
-4.1152 телом	-0.0319
-3.8139 тем	-0.0868
-4.1152 темень	-0.0804
-4.1152 тему	-0.0319
-2.6379 теперь	-0.0658
-4.1152 теплая	-0.0319
-4.1152 теплее	-0.0887
-4.1152 теплицу	-0.0882
-4.1152 тепло	-0.0882
-3.8139 терпеть	-0.2012
-4.1152 теряла	-0.0319
-4.1152 тетушкою	-0.0888
-3.6379 тех	-0.1669
-4.1152 течет	-0.0319
-4.1152 теща	-0.0887
-4.1152 тещами	-0.0888
-4.1152 тираж	-0.0847
-4.1152 тихо	-0.0877
-3.8139 тише	-0.0797
-4.1152 ткнут	-0.0842
-2.3021 то	-0.0514
-2.9389 тобой	-0.0143
-4.1152 товарищи	-0.0888
-2.5709 тогда	-0.0260
-3.4160 того	-0.1765
-2.7726 тоже	-0.0956
-4.1152 той	-0.0888
-2.6678 только	0.0091
-3.5129 том	-0.0762
-4.1152 тому	-0.0861
-4.1152 торгуюсь	-0.0319
-3.6379 торопиться	-0.1093
-4.1152 торопишься	-0.0319
-4.1152 торопливости	-0.0319
-4.1152 тороплюсь	-0.0319
-4.1152 тосковал	-0.0886
-4.1152 тот	-0.0888
-4.1152 точит	-0.0885
-4.1152 точки	-0.0888
-3.8139 точно	-0.0793
-4.1152 травма	-0.0319
-4.1152 требовал	-0.0866
-4.1152 требует	-0.0888
-4.1152 тревожиться	-0.0877
-4.1152 трезвой	-0.0319
-4.1152 трезвонит	-0.0854
-4.1152 трезвый	-0.0818
-4.1152 третий	-0.0881
-3.8139 три	-0.0887
-4.1152 тривиальная	-0.0887
-4.1152 тридцатилетнего	-0.0887
-3.8139 тридцать	-0.0800
-4.1152 троих	-0.0888
-4.1152 трубку	-0.0319
-3.8139 труднее	-0.0311
-3.5129 трудно	-0.3652
-3.8139 трудности	-0.1572
-4.1152 труппы	-0.0888
-4.1152 трусливо	-0.0319
-4.1152 тряпкам	-0.0888
-4.1152 ту	-0.0888
-3.8139 туда	-0.0888
-4.1152 тумбочках	-0.0884
-3.0358 тут	-0.0664
-1.6836 ты	-0.1533
-4.1152 тысяч	-0.0887
-4.1152 тюрьму	-0.0876
-4.1152 тяжелая	-0.0815
-4.1152 тяжело	-0.0888
-4.1152 тяжелым	-0.0888
-4.1152 тянуть	-0.0861
-2.1755 у	-0.8463
-4.1152 убавить	-0.0319
-4.1152 уберу	-0.0888
-4.1152 убирают	-0.0319
-4.1152 убить	-0.0881
-4.1152 убрать	-0.0874
-3.8139 уверен	-0.2056
-3.8139 уверена	-0.2056
-4.1152 уверенно	-0.0319
-4.1152 уверены	-0.0842
-4.1152 уверяю	-0.0870
-4.1152 увидала	-0.0888
-4.1152 увидел	-0.0849
-4.1152 увидели	-0.0842
-4.1152 увидишь	-0.0319
-4.1152 увлечется	-0.0319
-4.1152 уволить	-0.0876
-4.1152 уговаривать	-0.0867
-4.1152 уговорить	-0.0882
-4.1152 угодно	-0.0842
-4.1152 угол	-0.0319
-4.1152 удачной	-0.0319
-4.1152 удачный	-0.0319
-3.8139 удерживает	-0.0879
-4.1152 удержу	-0.0888
-4.1152 удивился	-0.0319
-4.1152 удобнее	-0.0884
-3.5129 удовольствие	-0.0899
-4.1152 уезжаешь	-0.0319
-4.1152 уезжать	-0.0818
-3.2119 уж	-0.0741
-2.5965 уже	-0.0950
-4.1152 ужина	-0.0319
-3.8139 ужинать	-0.0315
-4.1152 узнаете	-0.0319
-4.1152 узнала	-0.0867
-4.1152 узнали	-0.0888
-4.1152 узнать	-0.0880
-3.6379 уйдет	-0.1093
-3.8139 уйдете	-0.0281
-3.6379 уйдешь	-0.0230
-4.1152 уйду	-0.0319
-4.1152 уйдут	-0.0319
-3.4160 уйти	-1.1273
-4.1152 улетать	-0.0882
-3.5129 улице	-0.0316
-4.1152 улицу	-0.0319
-3.8139 уличная	-0.0317
-4.1152 уложить	-0.0888
-3.5129 ума	-0.0788
-4.1152 уме	-0.0786
-4.1152 умеете	-0.0319
-4.1152 умеешь	-0.0888
-4.1152 умереть	-0.0888
-4.1152 уметь	-0.0847
-4.1152 умная	-0.0319
-4.1152 умный	-0.0319
-4.1152 умрете	-0.0854
-4.1152 унылый	-0.0888
-4.1152 управления	-0.0888
-4.1152 упрек	-0.0319
-4.1152 упрека	-0.0319
-4.1152 уродлива	-0.0888
-4.1152 усах	-0.0319
-4.1152 условиях	-0.0319
-4.1152 услуге	-0.0319
-4.1152 успев	-0.0888
-4.1152 успевает	-0.0888
-4.1152 успеется	-0.0883
-4.1152 успела	-0.0319
-4.1152 успеха	-0.0786
-4.1152 успокоилась	-0.0319
-4.1152 успокойся	-0.0797
-3.6379 успокойтесь	-0.0229
-3.2699 устал	-0.2322
-3.5129 устала	-0.0839
-4.1152 усталыми	-0.0888
-4.1152 утешительно	-0.0319
-4.1152 утра	-0.0319
-4.1152 утро	-0.0319
-3.8139 утром	-0.1572
-4.1152 утрясать	-0.0888
-3.8139 ухо	-0.0887
-3.6379 уходить	-0.1100
-3.2699 уходишь	-0.0600
-4.1152 учту	-0.0888
-4.1152 ушел	-0.0319
-4.1152 ушли	-0.0319
-4.1152 уютно	-0.0859
-4.1152 фильма	-0.0888
-4.1152 фильмах	-0.0888
-4.1152 финансируешь	-0.0319
-4.1152 финансовых	-0.0888
-4.1152 финише	-0.0886
-4.1152 фирма	-0.0849
-4.1152 фокусники	-0.0887
-4.1152 фотографии	-0.0849
-4.1152 фотографию	-0.0888
-4.1152 фотография	-0.0880
-4.1152 француз	-0.0871
-4.1152 фруктов	-0.0319
-4.1152 фужеры	-0.0888
-4.1152 футбол	-0.0881
-4.1152 халат	-0.0881
-4.1152 характер	-0.0319
-4.1152 характера	-0.0319
-4.1152 характеристика	-0.0888
-4.1152 характером	-0.0319
-4.1152 хватало	-0.0888
-3.8139 хватит	-0.0888
-4.1152 хватится	-0.0888
-4.1152 хлопотала	-0.0855
-4.1152 хлопочете	-0.0319
-4.1152 ход	-0.0886
-4.1152 ходит	-0.0855
-3.8139 ходите	-0.0316
-4.1152 ходить	-0.0855
-3.5129 хозяин	-0.0271
-4.1152 хозяина	-0.0828
-4.1152 хозяину	-0.0319
-3.8139 хозяйка	-0.0240
-3.8139 холод	-0.0240
-4.1152 холодно	-0.0888
-4.1152 хорош	-0.0319
-3.8139 хорошая	-0.0309
-4.1152 хорошему	-0.0319
-4.1152 хорошенько	-0.0847
-4.1152 хорошие	-0.0888
-2.7726 хорошо	-0.2353
-3.6379 хотел	-0.0317
-3.3368 хотела	-0.0828
-3.8139 хотели	-0.0837
-4.1152 хотелось	-0.0878
-4.1152 хотим	-0.0888
-3.3368 хотите	-0.0574
-3.2119 хоть	-0.0769
-3.3368 хотя	-0.4186
-3.5129 хочет	-0.1426
-3.2699 хочется	-0.0638
-2.6098 хочешь	-0.0783
-2.8597 хочу	-0.0669
-4.1152 храните	-0.0842
-4.1152 хранить	-0.0888
-4.1152 худущей	-0.0888
-4.1152 цапаются	-0.0319
-4.1152 цвет	-0.0319
-3.8139 цветы	-0.0726
-4.1152 целая	-0.0886
-3.6379 целый	-0.1679
-4.1152 цена	-0.0888
-4.1152 ценные	-0.0319
-4.1152 цепляюсь	-0.0886
-4.1152 циничной	-0.0319
-3.4160 цирк	-0.0688
-3.8139 цирка	-0.1572
-3.8139 цирке	-0.0887
-4.1152 цирком	-0.0319
-4.1152 цитирующих	-0.0888
-4.1152 цыганщиной	-0.0877
-3.3368 чай	-0.0495
-4.1152 чайку	-0.0319
-3.5129 час	-0.3652
-4.1152 часов	-0.0888
-3.8139 часто	-0.0887
-4.1152 часы	-0.0319
-4.1152 чашку	-0.0887
-3.2699 чаю	-0.1644
-2.8597 чего	-0.2229
-3.5129 человек	-0.0896
-4.1152 человечески	-0.0877
-2.5709 чем	-0.1572
-4.1152 чемпионом	-0.0319
-3.3368 чему	-0.0397
-3.8139 через	-0.0849
-4.1152 череп	-0.0319
-3.8139 черт	-0.0873
-4.1152 черты	-0.0888
-3.6379 честно	-0.0856
-4.1152 честное	-0.0888
-4.1152 честны	-0.0887
-4.1152 честным	-0.0888
-4.1152 четверг	-0.0886
-3.8139 четыре	-0.0887
-4.1152 числа	-0.0885
-4.1152 числе	-0.0818
-4.1152 чистая	-0.0828
-4.1152 чистосердечное	-0.0888
-4.1152 читаем	-0.0888
-4.1152 читала	-0.0888
-4.1152 читать	-0.0888
-4.1152 чрезвычайно	-0.0319
-1.7170 что	-0.2822
-4.1152 чтоб	-0.0888
-2.6678 чтобы	-0.1188
-4.1152 чувств	-0.0888
-4.1152 чувство	-0.0888
-4.1152 чувствуете	-0.0886
-4.1152 чувствую	-0.0804
-4.1152 чудесная	-0.0887
-4.1152 чудесную	-0.0866
-4.1152 чудная	-0.0888
-4.1152 чудо	-0.0319
-3.6379 чужие	-0.1029
-4.1152 чужом	-0.0887
-4.1152 чучела	-0.0879
-3.8139 чушь	-0.0314
-4.1152 чьи	-0.0867
-3.6379 шаг	-0.0311
-4.1152 шагать	-0.0879
-4.1152 шаги	-0.0319
-4.1152 шагу	-0.0818
-3.6379 шампанское	-0.1112
-4.1152 шанс	-0.0319
-4.1152 шансов	-0.0872
-4.1152 шансы	-0.0859
-4.1152 шантажировать	-0.0319
-4.1152 шатаются	-0.0888
-4.1152 шел	-0.0842
-4.1152 шептались	-0.0854
-4.1152 шестом	-0.0888
-4.1152 шеф	-0.0885
-4.1152 шею	-0.0319
-4.1152 шикарно	-0.0888
-4.1152 шило	-0.0855
-4.1152 шить	-0.0881
-4.1152 шкафом	-0.0818
-4.1152 шла	-0.0855
-4.1152 шокирует	-0.0804
-4.1152 шофер	-0.0888
-4.1152 шпионю	-0.0786
-4.1152 штука	-0.0886
-4.1152 шубы	-0.0319
-4.1152 шутишь	-0.0319
-3.8139 шьете	-0.0319
-4.1152 экономии	-0.0319
-3.3368 эта	-0.0884
-4.1152 этаже	-0.0319
-4.1152 эти	-0.0888
-3.8139 этим	-0.0860
-3.6379 этих	-0.0887
-2.0505 это	-0.0278
-3.1150 этого	-0.1648
-3.2699 этой	-0.0885
-2.9688 этом	-0.0440
-3.4160 этому	-0.0317
-3.3368 этот	-0.0876
-3.5129 эту	-0.0885
-1.6321 я	-0.0916
-4.1152 яблоней	-0.0319
-4.1152 язык	-0.0319
-4.1152 языков	-0.0319
-4.1152 яркое	-0.0818
-4.1152 яркость	-0.0888
-3.8139 ясно	-0.0814
-4.1152 ясность	-0.0319
-2.8597 —	-0.1665

\2-grams:
-0.0003 </s> <s> 0.0488
-1.0003 <s> а -0.0201
-2.8423 <s> ага 0.1229
-2.8386 <s> ах 0.0315
-3.9373 <s> беда 0.0456
-3.3133 <s> без -0.0307
-3.9373 <s> безотказно 0.0456
-3.3133 <s> белье 0.0139
-3.9373 <s> бережете 0.0456
-3.9373 <s> берите -0.0011
-3.9373 <s> благодарю -0.0011
-3.9373 <s> больница 0.0456
-3.3133 <s> боюсь 0.0139
-3.9373 <s> братья 0.0456
-3.9373 <s> бросали -0.0156
-3.9373 <s> будет -0.0086
-3.9373 <s> будешь -0.0297
-3.3133 <s> будь 0.0121
-3.9373 <s> бухгалтер 0.0456
-3.9373 <s> было 0.0047
-1.9256 <s> в -0.0068
-2.3013 <s> вам -0.0087
-3.9373 <s> вас -0.0245
-2.8423 <s> ваш 0.0917
-3.9373 <s> ваша 0.0872
-3.9373 <s> ваши -0.0011
-2.8423 <s> ведь -0.0359
-3.9373 <s> велите 0.0456
-3.9373 <s> вернетесь 0.0456
-3.9373 <s> вероятно 0.0456
-3.9373 <s> вечно -0.0156
-3.9373 <s> видимо -0.0011
-3.9373 <s> вино -0.0011
-2.5348 <s> во 0.0064
-3.9373 <s> вовсе -0.0269
-2.8386 <s> вообще -0.2278
-2.0003 <s> вот -0.0084
-2.3013 <s> все -0.0149
-3.3133 <s> всего -0.0156
-3.9373 <s> всю 0.1708
-1.5416 <s> вы 0.0390
-3.9373 <s> выйдем 0.0456
-3.9373 <s> выручите 0.0456
-3.9373 <s> выслушайте 0.0456
-3.9373 <s> выступали 0.0456
-3.3133 <s> выходит 0.0497
-3.9373 <s> выходите 0.0507
-2.1252 <s> где 0.0223
-3.9373 <s> глубокие 0.0456
-3.9373 <s> говори -0.0156
-3.9373 <s> говорят 0.0456
-3.9373 <s> грозят 0.0456
-3.9373 <s> грузчиком 0.0456
-1.8620 <s> да 0.0644
-2.8423 <s> давайте 0.0240
-2.8386 <s> давно -0.0130
-3.9373 <s> дать -0.0011
-3.9373 <s> двенадцатого 0.0456
-3.3133 <s> действительно 0.0007
-3.3133 <s> дело -0.1232
-3.3133 <s> дети -0.0099
-2.8386 <s> для -0.0135
-3.3133 <s> до 0.0007
-3.9373 <s> добрый 0.0456
-3.9373 <s> долой -0.0011
-3.9373 <s> допустим 0.0456
-3.9373 <s> дорогая -0.0011
-3.9373 <s> достаточно -0.0011
-3.9373 <s> драгоценности -0.0011
-3.9373 <s> другие -0.0011
-3.9373 <s> другими 0.0456
-3.9373 <s> думаете 0.0872
-3.3133 <s> думаешь -0.0098
-3.9373 <s> ей -0.0331
-3.9373 <s> ему -0.0359
-2.6339 <s> если 0.0037
-2.8423 <s> есть -0.0335
-2.6339 <s> еще -0.0676
-3.9373 <s> жалко -0.0297
-3.3133 <s> жаль 0.0139
-3.9373 <s> ждете -0.0011
-3.9373 <s> женщины -0.0316
-3.9373 <s> жизнь -0.0331
-3.3133 <s> за -0.0122
-3.9373 <s> забудем 0.0456
-2.8423 <s> завтра -0.0156
-3.9373 <s> завтракать -0.0011
-3.9373 <s> занеси 0.0456
-3.9373 <s> запереть -0.0011
-3.9373 <s> заработала 0.0456
-2.8423 <s> зато 0.0456
-2.1252 <s> зачем 0.0020
-3.3133 <s> здесь 0.0088
-3.3133 <s> здравствуй 0.0456
-3.9373 <s> здравствуйте 0.0456
-2.8386 <s> знаете -0.0178
-3.3133 <s> знаешь 0.0059
-2.0583 <s> значит -0.0128
-3.9373 <s> зовите 0.0456
-1.4720 <s> и -0.0193
-3.9373 <s> идем -0.0011
-3.9373 <s> иди -0.0227
-2.8423 <s> идите 0.0456
-2.8423 <s> извини 0.0196
-2.8386 <s> извините 0.0139
-3.9373 <s> иногда -0.0156
-2.8386 <s> интересно -0.0715
-3.3133 <s> к -0.0384
-3.9373 <s> каждый 0.5898
-3.9373 <s> кажется -0.0269
-1.6603 <s> как 0.0123
-2.5348 <s> какая 0.0181
-3.3133 <s> какие 0.1892
-3.9373 <s> каких -0.0011
-3.9373 <s> какое -0.0227
-2.8423 <s> какой 0.0097
-3.9373 <s> квартиру -0.0227
-2.6339 <s> когда -0.0184
-2.8423 <s> кого 0.0501
-2.3593 <s> конечно 0.0079
-3.9373 <s> который 0.0456
-3.9373 <s> кофе -0.0227
-3.9373 <s> красивая 1.1410
-3.9373 <s> красиво 0.0456
-2.8423 <s> кстати -0.0011
-2.0583 <s> кто 0.0015
-2.5348 <s> куда 0.0552
-3.9373 <s> купил -0.0269
-3.9373 <s> ладно -0.0011
-3.9373 <s> ледяной 0.0456
-2.8386 <s> лучше -0.0204
-3.9373 <s> люблю -0.0297
-3.9373 <s> любовь -0.0297
-3.9373 <s> любой 0.0456
-3.9373 <s> мало -0.0269
-3.9373 <s> малышу 0.0456
-3.9373 <s> мама -0.0011
-3.9373 <s> машину 0.0456
-3.9373 <s> медовый 0.0456
-3.9373 <s> между -0.0227
-2.8423 <s> меня -0.0294
-2.3013 <s> мне -0.0108
-3.9373 <s> много -0.0269
-3.9373 <s> могла -0.0156
-3.9373 <s> могу -0.0365
-1.7273 <s> может -0.0037
-3.3133 <s> можешь -0.0324
-2.2501 <s> можно 0.0713
-3.9373 <s> мои -0.0297
-2.5348 <s> мой -0.1936
-3.9373 <s> моя -0.0297
-3.9373 <s> мужчина -0.0269
-3.9373 <s> мучает 0.0456
-2.2501 <s> мы -0.0108
-2.6339 <s> на -0.0262
-3.9373 <s> наверное -0.0269
-3.9373 <s> наверноеболее 0.0456
-3.9373 <s> надеждами 0.0456
-3.3133 <s> надеюсь 0.0139
-2.8386 <s> надо -0.0284
-3.9373 <s> надолго 0.0456
-3.3133 <s> наконец -0.1080
-3.9373 <s> нам -0.0365
-3.9373 <s> напрасно -0.0156
-3.9373 <s> нарастил 0.0456
-1.4884 <s> не -0.0899
-3.9373 <s> ненужных 0.0456
-3.9373 <s> неплохая 0.0456
-3.9373 <s> неправда 0.0456
-3.9373 <s> несчастья 0.0456
-1.9256 <s> нет 0.2922
-2.3593 <s> неужели 0.0385
-3.9373 <s> неужто -0.0011
-2.8423 <s> ни -0.0257
-3.9373 <s> никогда -0.0227
-3.9373 <s> никуда -0.0269
-2.8386 <s> ничего -0.0053
-1.6859 <s> но -0.0048
-3.9373 <s> нравится -0.0351
-1.5811 <s> ну 0.1387
-3.9373 <s> нужно -0.0351
-3.9373 <s> нужны -0.0227
-2.0283 <s> о -0.2286
-3.9373 <s> обо 0.6100
-3.9373 <s> обычный 0.0456
-3.3133 <s> обязательно -0.0156
-3.9373 <s> одним 0.0456
-3.9373 <s> одной -0.0011
-2.1252 <s> он 0.0283
-2.5348 <s> она -0.0136
-3.9373 <s> они -0.0379
-3.9373 <s> оно -0.0316
-3.9373 <s> опомнитесь 0.0456
-3.3133 <s> опять -0.0227
-3.9373 <s> оскорбляю 0.0456
-3.9373 <s> осмелюсь 0.0456
-3.3133 <s> от -0.0262
-3.9373 <s> ответь 0.0456
-3.9373 <s> отдохни 0.0456
-2.5348 <s> откуда 0.0092
-3.9373 <s> очаровательная 0.0456
-3.3133 <s> очевидно 0.0456
-2.5348 <s> очень -0.0788
-3.9373 <s> передадут 0.0456
-3.9373 <s> перепугал 0.0456
-3.9373 <s> перестань 0.0456
-3.3133 <s> перестаньте 0.0456
-2.5348 <s> по 0.0127
-3.9373 <s> поверь 0.0456
-3.9373 <s> подарок 0.0456
-3.9373 <s> подмени 0.0456
-3.3133 <s> подожди 0.0456
-3.9373 <s> подождите 0.0456
-3.9373 <s> подписано 0.0456
-3.3133 <s> пожалуйста 0.0327
-3.9373 <s> пойти -0.0227
-3.3133 <s> пока -0.0098
-3.3133 <s> половину -0.0099
-3.9373 <s> получил -0.0156
-3.9373 <s> помещай 0.0456
-3.9373 <s> помоги 0.0456
-2.8386 <s> понимаешь -0.0099
-3.9373 <s> понятно 0.0872
-3.9373 <s> попробуй 0.0456
-3.9373 <s> попросту 0.0456
-3.9373 <s> после -0.0316
-3.9373 <s> последний 0.0456
-3.3133 <s> послушай 0.0456
-3.9373 <s> послушайте -0.0011
-3.3133 <s> посмотри 0.1249
-3.3133 <s> постой 0.0456
-3.9373 <s> постойте 0.0456
-2.5348 <s> потому 0.3881
-3.3133 <s> похоже 0.0456
-1.7273 <s> почему 0.0578
-3.9373 <s> поэтому -0.0227
-3.3133 <s> правда -0.0324
-3.3133 <s> правильно 0.0456
-3.9373 <s> предвыборная 0.0456
-3.9373 <s> предположим 0.0456
-3.9373 <s> прекрасно -0.0297
-3.9373 <s> приберем 0.0456
-3.3133 <s> привет 0.0456
-3.9373 <s> приставала 0.0456
-3.9373 <s> пришла -0.0156
-3.9373 <s> проклятый 0.0456
-3.9373 <s> проникнуть 0.0456
-2.6339 <s> простите 0.0640
-2.8386 <s> просто -0.0277
-3.3133 <s> прощай 0.0456
-3.9373 <s> пять -0.0156
-3.3133 <s> раз -0.0238
-3.9373 <s> разбудите 0.0456
-2.1252 <s> разве 0.0380
-3.9373 <s> разговор -0.0011
-3.9373 <s> разумеется -0.0011
-2.8423 <s> раньше -0.1090
-2.8423 <s> расскажите 0.0216
-3.9373 <s> ребенок -0.0156
-3.9373 <s> ребячество 0.0456
-3.9373 <s> рюмку -0.0011
-2.6339 <s> с -0.0487
-3.3133 <s> садись 0.0456
-3.3133 <s> сама -0.0284
-3.9373 <s> свои -0.0011
-3.9373 <s> сделать -0.0331
-3.9373 <s> сегодня -0.0342
-2.8386 <s> сейчас -0.0195
-3.9373 <s> семья -0.0297
-3.9373 <s> сидеть -0.0156
-3.9373 <s> скажешь 0.0171
-2.8386 <s> скажи 0.0053
-2.8423 <s> скажите 0.0456
-3.9373 <s> скажу 0.0456
-3.9373 <s> сказать -0.0342
-3.9373 <s> скверная 0.0456
-3.3133 <s> сколько -0.0250
-3.9373 <s> слабые 0.0456
-3.9373 <s> слава 0.0456
-3.9373 <s> смеешься 0.1708
-3.9373 <s> смесь 0.0456
-3.9373 <s> смотрите -0.0011
-3.9373 <s> сначала -0.0011
-3.9373 <s> снежок 0.0456
-3.9373 <s> сними -0.0011
-3.3133 <s> снова -0.0250
-3.9373 <s> соблюдаете 0.0456
-3.9373 <s> совершенно 0.0456
-3.9373 <s> согласен 0.0456
-3.9373 <s> согласись 0.0456
-3.9373 <s> согласна 0.0456
-3.9373 <s> соглашусь 0.0456
-3.9373 <s> соседка -0.0011
-2.3013 <s> спасибо 0.0623
-3.9373 <s> сразу -0.0351
-3.9373 <s> срочно -0.0011
-3.9373 <s> странная 0.0456
-3.3133 <s> странно 0.0764
-3.9373 <s> стучат 0.0456
-3.9373 <s> сударь -0.0269
-3.9373 <s> сумасшедшая 0.0456
-3.9373 <s> сын -0.0227
-1.7730 <s> так -0.0934
-3.9373 <s> такие -0.0011
-3.9373 <s> такова 0.0456
-2.8386 <s> твой -0.0361
-2.3013 <s> тебе -0.0761
-3.9373 <s> тебя -0.0420
-2.5348 <s> теперь -0.0712
-3.9373 <s> терпеть 0.1708
-3.9373 <s> тихо 0.0456
-3.9373 <s> тише -0.0011
-2.5348 <s> то -0.1217
-1.9739 <s> тогда -0.0141
-3.9373 <s> тоже -0.0396
-3.9373 <s> только -0.0404
-3.9373 <s> тут -0.0365
-1.2453 <s> ты 0.0768
-1.9739 <s> у 0.2828
-3.9373 <s> уверяю 0.0456
-3.9373 <s> уговорить 0.0456
-3.9373 <s> уж -0.0331
-2.8423 <s> уже -0.0279
-3.9373 <s> ужинать -0.0011
-3.9373 <s> уйдете -0.0011
-3.9373 <s> успеется 0.0456
-3.9373 <s> успокоилась 0.0456
-3.9373 <s> успокойся 0.0456
-3.9373 <s> успокойтесь -0.0156
-3.9373 <s> уходишь 0.0079
-3.9373 <s> фокусники 0.0456
-3.9373 <s> фотография 0.0456
-3.9373 <s> фужеры 0.0456
-3.3133 <s> хозяин -0.0011
-2.8386 <s> хорошо 0.1312
-3.9373 <s> хотите -0.0297
-3.9373 <s> хоть -0.0331
-3.9373 <s> хотя 0.3768
-3.9373 <s> хочется -0.0316
-2.6339 <s> хочешь -0.0279
-3.9373 <s> хочу -0.0388
-3.9373 <s> чаю -0.0316
-2.3593 <s> чего 0.1237
-3.9373 <s> человек -0.0227
-2.8386 <s> чем 0.0067
-3.3133 <s> чему -0.0156
-3.3133 <s> черт 0.0456
-3.9373 <s> честное 0.0456
-3.9373 <s> четыре -0.0011
-3.9373 <s> числа 0.0456
-1.4485 <s> что 0.0658
-3.3133 <s> чтобы -0.0375
-3.9373 <s> чувство 0.0456
-3.9373 <s> шампанское 0.0872
-3.9373 <s> шел 0.0456
-3.9373 <s> шеф 0.0456
-3.3133 <s> эта -0.0156
-1.6603 <s> это -0.0758
-3.3133 <s> этого -0.0269
-3.9373 <s> этот -0.0297
-1.2501 <s> я -0.0063
-3.0733 а более -0.0156
-3.0733 а было -0.0396
-3.0733 а в -0.0313
-1.9746 а вам -0.0308
-3.0733 а вата 0.0456
-3.0733 а ваш -0.0351
-3.0733 а ваши -0.0011
-3.0733 а вот -0.0403
-1.0182 а вы -0.0189
-1.9784 а где -0.0310
-3.0733 а действительно -0.0351
-2.4493 а дети -0.0099
-1.9746 а для 0.0278
-1.9784 а дождь -0.0664
-3.0733 а дрожишь 0.0456
-3.0733 а ему -0.0114
-1.7700 а если 0.0229
-3.0733 а завтра -0.0342
-3.0733 а здесь -0.0396
-3.0733 а знаете -0.0370
-1.4953 а как 0.0065
-3.0733 а какие -0.0297
-3.0733 а каких -0.0011
-2.4493 а какой -0.0269
-3.0733 а картины 0.0456
-3.0733 а когда -0.0392
-2.4493 а кого 0.0059
-3.0733 а кому -0.0156
-1.6709 а кто -0.0023
-2.4493 а куда 0.0355
-3.0733 а любимая -0.0011
-2.4493 а меня -0.0304
-2.4493 а мне -0.0157
-1.6709 а может 0.0664
-3.0733 а можно -0.0390
-1.6709 а мы -0.0436
-2.4493 а на -0.0297
-1.9746 а не -0.0424
-3.0733 а ничего -0.0397
-3.0733 а ночью -0.0227
-3.0733 а они -0.0379
-3.0733 а платят -0.0156
-3.0733 а пока 0.0414
-3.0733 а помнится 0.0456
-3.0733 а после -0.0316
-1.9784 а потом 0.0285
-1.4953 а почему 0.0218
-2.4493 а разве -0.0069
-3.0733 а ребенка 0.3288
-3.0733 а ребенок 0.0872
-1.9784 а с -0.0966
-3.0733 а сейчас -0.0295
-3.0733 а сзади 0.0456
-3.0733 а сколько -0.0342
-3.0733 а скрипкой 0.0456
-3.0733 а там -0.0342
-1.9784 а твой -0.0279
-3.0733 а твоя -0.0269
-1.4953 а теперь 0.0290
-1.9746 а то -0.1077
-2.4493 а только -0.0375
-3.0733 а тут -0.0365
-1.0394 а ты -0.0078
-1.7700 а у -0.0322
-3.0733 а француз 0.0456
-3.0733 а халат 0.0456
-2.4493 а чем 0.0081
-1.0182 а что 0.0243
-3.0733 а чтобы -0.0404
-1.9784 а это 0.0015
-1.1363 а я -0.0222
-0.7329 авансы </s> 3.1611
-0.7329 автобуса полчаса 0.0456
-0.7329 автобусе ездил 0.0456
-0.1151 ага значит 0.0207
-0.7329 ад </s> 3.1611
-0.5860 адвокат </s> 3.0024
-1.2100 адвокат поступает 0.0456
-0.7329 амбар </s> 3.1611
-0.7329 ангел </s> 3.1611
-0.7329 анекдот </s> 3.1611
-0.7329 аплодисменты мне -0.0387
-0.7329 ассистентку </s> 3.1611
-0.7329 ателье покончено -0.0011
-1.3349 ах барин 0.0456
-0.7109 ах да -0.0281
-1.3349 ах я -0.0379
-0.7329 ахти так -0.0394
-0.7329 бабочки </s> 3.1611
-0.7329 балкон </s> 3.1611
-0.7329 баловник </s> 3.1611
-0.7329 барин </s> 3.1611
-0.7329 барон ем 0.0456
-0.7329 баскетбол с -0.0035
-0.7329 беги цена 0.0456
-0.7329 бегу </s> 3.1611
-0.7329 беда в -0.0359
-0.7329 бедности рожден 0.0456
-0.7329 бежать в -0.0427
-1.8468 без богатыря 0.0456
-1.2228 без всяких 0.0456
-1.8468 без всякого 0.0456
-1.8468 без денег -0.0227
-1.8468 без занавесок 0.0456
-1.8468 без конца -0.0156
-1.8468 без любви -0.0156
-1.8468 без меня -0.0423
-1.8468 без мужа 0.1693
-1.8468 без отцов 0.0456
-1.8468 без ума -0.0227
-1.8468 без хозяина 0.0456
-0.7329 безвыходное положение 0.0456
-0.7329 безоглядно </s> 3.1611
-0.7329 безотказно можешь -0.0379
-0.7329 безотцовщина у 0.0767
-0.7329 безумно нравитесь 0.0456
-0.7329 безумное необъяснимое 0.0456
-1.0339 белое вино -0.0011
-1.0339 белое правда 0.3547
-1.2100 белье </s> 3.1611
-1.2100 белье мы -0.0192
-1.2100 белье оценивается 0.0456
-0.7329 береги себя 0.0012
-0.7329 бережете здоровье -0.0227
-0.7329 бережно </s> 3.1611
-1.0339 бери </s> 3.1611
-1.0339 бери трубку 0.0456
-1.0339 берите берите -0.0011
-1.0339 берите работа -0.0156
-0.7329 берут </s> 3.1611
-0.7329 беседа может -0.0380
-1.2100 бесплатно </s> 3.1611
-1.2100 бесплатно она -0.0397
-1.2100 бесплатно так -0.0423
-0.7329 беспокойства ни -0.0375
-0.7329 беспокойстве </s> 3.1611
-1.0339 беспокойся иди -0.0227
-1.0339 беспокойся я -0.0430
-0.7329 беспокойтесь как -0.0405
-0.7329 бесполезно я -0.0430
-0.7329 бессонница </s> 3.1611
-0.7329 билет понимаешь -0.0351
-0.7329 биолога </s> 3.1611
-0.7329 благодарна </s> 3.1611
-1.0339 благодарю вы -0.0414
-1.0339 благодарю что -0.0182
-0.7329 благородства уйти 1.1410
-0.7329 благородстве </s> 3.1611
-0.7329 близко подойти 0.0456
-0.7329 бога я -0.0399
-0.7329 богатыря — 0.0167
-0.7329 богу и -0.0384
-0.3369 боитесь </s> 2.6943
-1.4318 боитесь меня 0.0111
-1.4318 боитесь что -0.0429
-1.3349 боишься боишься -0.0227
-1.3349 боишься женщин -0.0227
-1.3349 боишься сделать -0.0331
-1.3349 боишься что -0.0291
-0.7329 бойся позвонят 0.0456
-0.7329 бокал </s> 3.1611
-1.2100 более конкретно -0.0011
-1.2100 более находчивый 0.0456
-1.2100 более скромную 0.0456
-0.7329 болеть </s> 3.1611
-0.7329 болит а -0.0429
-0.7329 больница может -0.0109
-0.7329 больнице отдохнуть -0.0011
-1.3349 больше веселых 0.0456
-1.3349 больше вы -0.0428
-1.3349 больше фруктов 0.0456
-1.3349 больше чем -0.0137
-0.7329 большего ты -0.0184
-0.7329 большей обиды 0.0456
-0.7329 большие деньги 0.1669
-0.7329 большой мощной 0.0456
-0.7329 большом городе -0.0156
-1.2100 боюсь </s> 3.1611
-1.2100 боюсь мы -0.0383
-1.2100 боюсь ты -0.0420
-1.0339 бояться всех -0.0316
-1.0339 бояться прохожих 0.0456
-0.7329 брак может 0.0976
-0.7329 браков кончается -0.0011
-0.7329 брала отгул 0.0456
-0.7329 брат </s> 3.1611
-0.7329 братья сестры 0.0456
-0.7329 брачный договор 0.0456
-0.7329 брехня </s> 3.1611
-0.7329 бродячей жизнью 0.0456
-0.7329 бросаем мы -0.0421
-0.7329 бросал </s> 3.1611
-0.7329 бросала их -0.0375
-0.5860 бросали </s> 3.0024
-1.2100 бросали вас 0.0344
-0.7329 бросать старое 0.0456
-0.7329 бросить взгляд -0.0011
-0.7329 бросишь все -0.0423
-0.7329 брошенным мужем -0.0011
-0.7329 брошусь тебе -0.0250
-0.7329 брудершафтов </s> 3.1611
-0.7329 бугаева </s> 3.1611
-1.8121 будем делать -0.0316
-1.8121 будем делить 0.1708
-1.1880 будем жить 0.0210
-1.8121 будем пить -0.0011
-1.8121 будем покупать 0.0456
-1.8121 будем прибирать 0.0456
-1.8121 будем сидеть -0.0156
-1.8121 будем сразу -0.0351
-1.8121 будем страховать -0.0156
-1.8121 будем считаться 0.0456
-1.8121 будем тогда -0.0410
-1.1151 будет </s> 2.6943
-2.2100 будет времени -0.0156
-2.2100 будет встречаться -0.0011
-2.2100 будет выглядеть 0.0456
-2.2100 будет дальше 0.5898
-2.2100 будет депутатом 0.0456
-2.2100 будет долгий 0.0456
-2.2100 будет если -0.0409
-2.2100 будет легким 0.0456
-2.2100 будет мне -0.0387
-2.2100 будет на -0.0425
-2.2100 будет не -0.0424
-1.5860 будет нелегко 0.0121
-2.2100 будет очень -0.0404
-2.2100 будет потом -0.0365
-2.2100 будет проще 0.0456
-2.2100 будет ребенок 0.0872
-1.5860 будет с -0.0027
-2.2100 будет среди 0.0456
-2.2100 будет стоять 0.0456
-2.2100 будет сумею 0.0456
-2.2100 будет тебе -0.0418
-2.2100 будет только -0.0404
-2.2100 будет точно -0.0011
-2.2100 будет травма 0.0456
-2.2100 будет хорошо 0.1723
-1.5110 будете </s> 3.1611
-1.5110 будете вести -0.0011
-1.5110 будете ждать 0.0456
-1.5110 будете женой -0.0269
-1.5110 будете заниматься 0.0456
-1.5110 будете страховать -0.0156
-1.5110 будешь </s> 3.1611
-1.5110 будешь делать 0.1318
-1.5110 будешь есть -0.0400
-1.5110 будешь обеспечена 0.0456
-1.5110 будешь переодеваться 0.0456
-1.5110 будешь шить 0.0456
-1.0339 будто бы -0.0414
-1.0339 будто доставляет 0.0456
-0.6793 буду </s> 2.6943
-1.7743 буду держать -0.0011
-1.7743 буду значит -0.0399
-1.7743 буду кого -0.0040
-1.7743 буду порядочной 0.0456
-1.7743 буду работать 0.0456
-1.7743 буду твой -0.0382
-1.7743 буду тебе -0.0418
-1.7743 буду уговаривать 0.0456
-0.7329 будут платить -0.0011
-0.7329 будущего </s> 3.1611
-0.7329 будущее знает -0.0269
-0.4099 будь осторожна 0.0456
-0.7329 будьте честны 0.0456
-0.7329 бумаги разбирать 0.0456
-0.7329 бутылку </s> 3.1611
-0.7329 бутылочка </s> 3.1611
-0.7329 бухгалтер не -0.0430
-1.7523 бы </s> 3.0024
-2.3763 бы а -0.0386
-2.3763 бы бесплатно -0.0156
-2.3763 бы было -0.0396
-2.3763 бы в -0.0427
-2.3763 бы выгляжу -0.0011
-2.3763 бы даже -0.0342
-2.3763 бы его -0.0396
-2.3763 бы заняться 0.0456
-2.3763 бы записку 0.0456
-2.3763 бы и -0.0429
-2.3763 бы им -0.0227
-2.3763 бы лучше -0.0402
-2.3763 бы меня -0.0423
-2.3763 бы мог -0.0227
-2.3763 бы могла -0.0156
-1.7523 бы мы -0.0409
-2.3763 бы на -0.0399
-2.3763 бы нам -0.0365
-1.2814 бы не -0.0386
-2.3763 бы нормальная 0.0456
-2.3763 бы ответили 0.0456
-2.3763 бы подошло 0.0456
-2.3763 бы потом -0.0365
-2.3763 бы пять -0.0156
-2.3763 бы с -0.0425
-2.3763 бы сдавал 0.0456
-2.3763 бы сделала -0.0011
-2.3763 бы совсем -0.0331
-2.3763 бы спать -0.0011
-2.3763 бы так -0.0316
-2.3763 бы у -0.0014
-2.3763 бы ходить 0.0456
-2.3763 бы хорошо -0.0397
-1.7523 бы хотела -0.0156
-2.3763 бы чаю 0.1318
-1.7523 бы это -0.0419
-2.3763 бы я -0.0421
-0.7329 бываем </s> 3.1611
-0.7329 бывать в -0.0427
-0.7329 бывают интриги 0.0456
-0.7329 бывшим </s> 3.1611
-0.7329 быдло будет -0.0406
-1.7743 был </s> 3.1611
-1.7743 был и -0.0429
-1.7743 был не -0.0430
-1.7743 был он -0.0236
-1.7743 был подлый 0.0456
-1.7743 был посидел 0.0456
-1.7743 был похож 0.1708
-1.7743 был с -0.0425
-1.7743 был скитался 0.0456
-1.7743 был твой -0.0382
-1.7743 был уже -0.0408
-1.2228 была бы -0.0336
-1.8468 была девочка 0.0456
-1.8468 была красивая 1.1410
-1.8468 была не -0.0430
-1.8468 была по -0.0335
-1.8468 была симпатичной 0.0456
-1.8468 была следующая 0.0456
-1.8468 была совсем -0.0331
-1.8468 была счастлива 0.5898
-0.7519 была у -0.0405
-1.4318 были </s> 3.1611
-1.4318 были женаты 0.1708
-1.4318 были и -0.0219
-1.4318 были из -0.0351
-1.4318 были чемпионом 0.0456
-0.9804 было </s> 2.6943
-2.0753 было бы -0.0414
-2.0753 было вас -0.0418
-2.0753 было если 0.0071
-2.0753 было желающих 0.0456
-2.0753 было забыто 0.0456
-2.0753 было никакой 0.0456
-2.0753 было ночью -0.0227
-2.0753 было нужно 0.1587
-2.0753 было оставлять -0.0011
-2.0753 было плохо 0.4350
-2.0753 было потом 0.1179
-2.0753 было раскусить 0.0456
-2.0753 было сделать 0.0012
-2.0753 было скучно -0.0297
-0.9804 было хорошо 0.1840
-2.0753 было это -0.0426
-2.0753 было — -0.0388
-0.7329 быстрее тем -0.0011
-1.0339 быстро вы -0.0428
-1.0339 быстро пролетел 0.0456
-0.7329 быстры ночи 0.0872
-0.7329 быта свежести 0.0456
-1.1431 быть </s> 2.6943
-2.2380 быть в -0.0427
-2.2380 быть вам -0.0415
-2.2380 быть вернусь -0.0011
-2.2380 быть депутат 0.0456
-1.1431 быть и -0.0008
-2.2380 быть как -0.0266
-2.2380 быть лучше -0.0402
-2.2380 быть мы -0.0383
-1.6140 быть не -0.0244
-2.2380 быть неисправен 0.0456
-2.2380 быть ни -0.0375
-2.2380 быть но -0.0282
-2.2380 быть нормальной 0.0456
-2.2380 быть причина -0.0011
-2.2380 быть прочной 0.0456
-1.6140 быть с 0.0211
-2.2380 быть связано 0.0456
-2.2380 быть странной 0.0456
-2.2380 быть тайны 0.0456
-2.2380 быть такой -0.0297
-2.2380 быть тогда -0.0410
-1.6140 быть ты -0.0299
-2.2380 быть удачный 0.0456
-2.2380 быть цирк -0.0269
-2.8696 в ад 0.0456
-2.8696 в баскетбол 0.0456
-2.8696 в бедности 0.0456
-2.8696 в безвыходное 0.0456
-2.8696 в больнице 0.0456
-2.8696 в ванную 0.0456
-2.2456 в виду 0.1249
-2.2456 в глаза 0.0456
-2.8696 в глубине 0.0456
-2.8696 в гости 0.0456
-2.8696 в гостиницах 0.0456
-2.2456 в гостинице 0.0121
-2.8696 в дождь -0.0297
-2.8696 в домино 0.0456
-2.2456 в другой -0.1080
-2.8696 в другую 0.0456
-2.8696 в духе 0.0456
-2.8696 в интернет 0.0456
-2.8696 в интимном 0.0456
-2.8696 в италии 0.0456
-2.8696 в каждом -0.0011
-2.8696 в каком 0.0456
-2.8696 в карман 0.0456
-2.8696 в квартира -0.0227
-1.7747 в квартире 0.1229
-2.8696 в квартиру 0.0507
-2.2456 в комнате 0.0139
-2.8696 в комнату -0.0011
-1.4671 в конце 0.6692
-2.8696 в коридорах 0.0456
-2.8696 в крайнем 0.0456
-2.8696 в кухне -0.0011
-2.8696 в лицо 0.1708
-2.8696 в магазине 0.0456
-2.8696 в мобильник 0.0456
-2.8696 в моем -0.0011
-2.8696 в мужском 0.0456
-2.8696 в наушниках 0.0456
-2.8696 в нее -0.0227
-2.2456 в ней -0.0297
-2.2456 в нем 0.0139
-2.8696 в несогретую 0.0456
-2.8696 в них -0.0269
-2.8696 в новинку 0.0456
-2.2456 в номер -0.0715
-2.2456 в общем 0.0456
-2.8696 в огонь 0.0456
-2.8696 в окне 0.0456
-2.8696 в окно 0.0456
-2.8696 в отношениях 0.3340
-2.8696 в отпуск 0.0456
-2.8696 в отъезде 0.0456
-2.8696 в парикмахерскую 0.0456
-2.8696 в парке 0.0456
-2.8696 в платное 0.0456
-2.8696 в погоде 0.0456
-2.8696 в позапрошлом 0.0456
-2.8696 в полной 0.0456
-2.8696 в последнее 0.0456
-2.8696 в постели 0.0456
-2.8696 в придачу 0.0456
-2.8696 в прошлом 0.0456
-2.8696 в пятницу 0.0456
-2.8696 в пять -0.0156
-2.2456 в ресторане 0.0456
-2.8696 в самом 0.3340
-2.8696 в самый -0.0011
-2.8696 в своей -0.0011
-2.8696 в своем 0.0456
-2.8696 в свою -0.0269
-2.8696 в себя -0.0331
-2.8696 в сейфе 0.0456
-2.8696 в середине 0.0456
-2.8696 в сером 0.0456
-2.2456 в спальне 0.0456
-2.8696 в суде 0.0456
-2.8696 в сущности 0.0456
-2.8696 в такой -0.0297
-1.7747 в таком 0.0258
-2.8696 в твоем -0.0156
-2.8696 в театр 0.0456
-2.8696 в тебе -0.0418
-2.8696 в тираж 0.0456
-2.8696 в то -0.0420
-1.7747 в том 0.0216
-2.8696 в три -0.0011
-2.8696 в тридцать -0.0011
-2.8696 в тумбочках 0.0456
-2.8696 в тюрьму 0.0456
-2.8696 в угол 0.0456
-2.8696 в ухо -0.0011
-2.8696 в фильмах 0.0456
-2.2456 в цирк 0.0497
-2.2456 в цирке 0.0456
-1.5662 в чем -0.1465
-2.8696 в четверг 0.0456
-2.8696 в чужом 0.0456
-2.8696 в этих -0.0156
-2.8696 в это -0.0426
-2.8696 в этой -0.0316
-1.2916 в этом -0.0267
-2.8696 в этот -0.0297
-2.8696 в эту -0.0227
-0.7329 важна </s> 3.1611
-1.0339 важно </s> 3.1611
-1.0339 важно только -0.0404
-0.7329 валидол давать 0.0456
-1.7810 вам </s> 3.0024
-1.7810 вам в -0.0421
-2.4050 вам ведь -0.0119
-2.4050 вам виднее 0.0456
-2.4050 вам во 0.0703
-2.4050 вам все 0.1050
-2.4050 вам вы -0.0428
-2.4050 вам еще -0.0188
-2.4050 вам замужем -0.0227
-2.4050 вам какая 0.0492
-2.4050 вам кое -0.0011
-2.4050 вам лучше -0.0026
-2.4050 вам мало -0.0269
-1.7810 вам на -0.0322
-2.4050 вам надо -0.0396
-1.3101 вам не -0.0395
-2.4050 вам некому 0.0456
-1.7810 вам неприятен 0.0121
-1.3101 вам нравится -0.0171
-2.4050 вам нужен -0.0011
-2.4050 вам об 0.1883
-2.4050 вам относился 0.0456
-2.4050 вам очень -0.0404
-2.4050 вам подходит 0.1708
-2.4050 вам покрепче -0.0156
-2.4050 вам помогу 0.1708
-2.4050 вам помочь 0.3288
-2.4050 вам разве 0.0277
-2.4050 вам рассказать -0.0011
-2.4050 вам сами -0.0227
-2.4050 вам сейчас -0.0400
-2.4050 вам сесть 0.1669
-2.4050 вам со 0.6120
-2.4050 вам совет 0.0456
-2.4050 вам так -0.0394
-2.4050 вам хорошо -0.0397
-2.4050 вам чай -0.0297
-2.4050 вам часто -0.0011
-2.4050 вам чем -0.0335
-1.2228 вами </s> 3.0024
-1.8468 вами все -0.0423
-1.8468 вами или -0.0414
-1.8468 вами интересуюсь 0.0456
-1.8468 вами надо -0.0396
-1.8468 вами не -0.0424
-1.8468 вами ночь -0.0297
-1.8468 вами поухаживаю 0.0456
-1.8468 вами пробежала 0.1708
-1.8468 вами произошло 0.0456
-1.8468 вами разговариваю 0.0456
-1.8468 вами словно -0.0011
-0.7329 ванную зачем -0.0283
-0.7329 вареньем </s> 3.1611
-1.0339 варианта </s> 3.1611
-1.0339 варианта нет 0.1998
-0.7329 варианты в -0.0282
-0.7861 вас </s> 2.2501
-2.4732 вас будет -0.0406
-2.4732 вас бы -0.0414
-2.4732 вас ведь -0.0408
-2.4732 вас деньги 0.1669
-1.3745 вас есть -0.0045
-1.8492 вас за -0.0388
-2.4732 вас или -0.0049
-2.4732 вас какой -0.0081
-2.4732 вас кормит 0.0456
-2.4732 вас кочерга 0.0456
-2.4732 вас любил -0.0011
-2.4732 вас люблю -0.0297
-2.4732 вас мягче 0.0456
-2.4732 вас называет 0.0456
-2.4732 вас найдется 0.0456
-2.4732 вас наслушалась 0.0456
-2.4732 вас научу 0.0456
-1.3745 вас не -0.0322
-2.4732 вас никто 0.0456
-2.4732 вас отпускать 0.0456
-2.4732 вас подразнить 0.0456
-2.4732 вас подцепить -0.0011
-2.4732 вас похорошела 0.0456
-2.4732 вас прекрасный 0.0456
-2.4732 вас разорять 0.0456
-2.4732 вас сегодня -0.0342
-2.4732 вас сейчас -0.0400
-2.4732 вас сын 0.0507
-1.8492 вас так -0.0414
-2.4732 вас такой -0.0297
-2.4732 вас танцевать 0.0456
-2.4732 вас тяжелая 0.0456
-2.4732 вас увидала 0.0456
-2.4732 вас удерживает -0.0011
-2.4732 вас эта -0.0297
-2.4732 вас этих -0.0156
-2.4732 вас я 0.0019
-2.4732 вас — -0.0388
-0.7329 вата вся 0.0456
-1.7329 ваш голос -0.0011
-1.7329 ваш давно -0.0359
-1.7329 ваш дружок 0.0456
-0.6380 ваш муж 0.0487
-1.7329 ваш на -0.0425
-1.7329 ваш пьет 0.1708
-1.7329 ваш сын -0.0227
-1.7329 ваш хозяин -0.0227
-0.5860 ваша квартира -0.0011
-1.2100 ваша очередь 0.0456
-0.4099 ваше здоровье -0.0011
-1.2100 вашего </s> 3.1611
-1.2100 вашего мужа 0.1693
-1.2100 вашего супа 0.0456
-1.0339 вашей жене 0.0456
-1.0339 вашей женой 0.0302
-0.7329 вашем месте 0.0456
-1.2100 вашему в -0.0427
-1.2100 вашему уличная -0.0011
-1.2100 вашему я -0.0430
-1.0339 ваши жены -0.0227
-1.0339 ваши родители 0.0456
-0.7329 вашим несгибаемым 0.0456
-0.7329 ваших принципах 0.0456
-0.7329 вашу тарелку 0.0456
-0.7329 вдвое </s> 3.1611
-1.3349 вдруг он -0.0417
-1.3349 вдруг стало -0.0011
-1.3349 вдруг ты -0.0430
-1.3349 вдруг у 0.1109
-0.7329 вдумчивых </s> 3.1611
-0.7329 ведут ночные 0.0456
-1.6274 ведь </s> 3.0024
-2.2514 ведь в -0.0427
-2.2514 ведь все -0.0392
-1.1565 ведь вы -0.0405
-2.2514 ведь выяснили 0.0456
-2.2514 ведь знакомство -0.0156
-2.2514 ведь мои -0.0297
-2.2514 ведь муж 0.0347
-1.6274 ведь мы -0.0180
-2.2514 ведь не -0.0379
-2.2514 ведь ночью -0.0227
-2.2514 ведь обещала 0.0456
-2.2514 ведь она -0.0397
-2.2514 ведь очень -0.0404
-2.2514 ведь понимаешь -0.0081
-2.2514 ведь почти 0.0302
-2.2514 ведь решила -0.0269
-2.2514 ведь сам -0.0156
-2.2514 ведь свадьба 0.0456
-2.2514 ведь софья -0.0011
-2.2514 ведь столько -0.0156
-2.2514 ведь теперь -0.0083
-2.2514 ведь только -0.0310
-2.2514 ведь ты -0.0302
-2.2514 ведь уже -0.0119
-2.2514 ведь это -0.0403
-1.1565 ведь я 0.0193
-1.0339 везло </s> 3.1611
-1.0339 везло погасите 0.0456
-0.7329 велите ж -0.0316
-0.7329 велосипеде на -0.0425
-0.7329 вера или -0.0414
-0.7329 верить что -0.0419
-0.7329 вернемся к -0.0408
-0.7329 вернетесь как -0.0405
-0.7329 вернешься </s> 3.1611
-1.0339 верно иди -0.0227
-1.0339 верно умереть 0.0456
-1.0339 верность мужу -0.0269
-1.0339 верность нашему 0.0456
-1.0339 верну твой -0.0382
-1.0339 верну тебе -0.0372
-0.7329 вернулся </s> 3.1611
-1.0339 вернусь жди 0.0456
-1.0339 вернусь не -0.0430
-0.7329 вероятно я -0.0430
-0.7329 версию ты -0.0098
-0.7329 верь ей -0.0331
-0.7329 верю что -0.0392
-0.7329 весе мебель 0.0456
-0.7329 веселый </s> 3.1611
-0.7329 веселых или -0.0414
-1.0339 вести разговоры 0.0456
-1.0339 вести себя -0.0331
-0.7329 ветер </s> 3.1611
-0.7329 вечер </s> 3.1611
-0.7329 вечера никаких -0.0011
-0.7329 вечерами </s> 3.1611
-0.8078 вечером </s> 3.0024
-1.4318 вечером нравятся 0.0456
-1.4318 вечером один -0.0297
-1.4318 вечером я -0.0430
-1.2100 вечно </s> 3.1611
-1.2100 вечно дует 0.0456
-1.2100 вечно они -0.0379
-0.7329 вещи она -0.0397
-0.7329 взбесившаяся лошадь 0.0456
-0.7329 взвинчены может -0.0420
-1.0339 взгляд </s> 3.1611
-1.0339 взгляд на -0.0425
-0.7329 взял </s> 3.1611
-0.7329 взяла на -0.0425
-0.7329 взялась свекровь -0.0011
-1.2100 взять и -0.0429
-1.2100 взять себе -0.0365
-1.2100 взять чтобы -0.0310
-1.3349 вид </s> 3.1611
-1.3349 вид правда 0.3547
-0.7109 вид что -0.0416
-1.0339 видать давно -0.0114
-1.0339 видать куда -0.0379
-0.7329 видел как -0.0180
-1.0339 видела недавно 0.0456
-1.0339 видела чтоб 0.0456
-1.0339 видели </s> 3.1611
-1.0339 видели инженеров 0.0456
-1.0339 видео куда -0.0379
-1.0339 видео смотрели 0.0456
-1.0339 видимо не -0.0406
-1.0339 видимо раньше -0.0370
-0.7109 видишь </s> 3.0024
-0.7109 видишь как -0.0259
-0.7329 виднее спорить 0.0456
-0.7329 видно что -0.0429
-0.5860 виду </s> 3.0024
-1.2100 виду что -0.0429
-0.7329 видят какая -0.0365
-1.3349 вижу с -0.0035
-1.3349 вижу связи 0.0456
-1.3349 вижу у 0.0767
-1.3349 вижу что -0.0392
-0.7329 вилки ложки 0.0456
-0.7329 вина </s> 3.1611
-1.0339 вино </s> 3.1611
-1.0339 вино убрать 0.0456
-1.2100 виноват </s> 3.1611
-1.2100 виноват а -0.0339
-1.2100 виноват что -0.0032
-0.7329 висит </s> 3.1611
-0.7329 витамины </s> 3.1611
-0.7329 включу </s> 3.1611
-0.7329 вкус </s> 3.1611
-0.7329 вкусный </s> 3.1611
-0.7329 влево </s> 3.1611
-0.7329 влезет и -0.0429
-0.7329 влюбить в -0.0427
-0.7329 влюбиться </s> 3.1611
-0.7329 влюблены ли -0.0379
-0.7171 вместе </s> 2.6943
-1.8121 вместе ее -0.0375
-1.8121 вместе или -0.0355
-1.8121 вместе на -0.0425
-1.8121 вместе нажили -0.0011
-1.8121 вместе ничего 0.2045
-1.8121 вместе поедем 0.0456
-1.8121 вместе помолчим 0.1708
-1.8121 вместе с -0.0425
-1.8121 вместе целый -0.0156
-0.4099 вместо меня 0.0122
-0.7329 внезапно </s> 3.1611
-0.7329 внешность на -0.0331
-0.7329 вниз по -0.0335
-0.7329 внизу все -0.0423
-0.7329 вносил ясность 0.0456
-0.7329 внутренне </s> 3.1611
-1.7329 во всем -0.0156
-0.6380 во всех -0.3370
-1.7329 во вторых 0.0456
-1.1089 во мне 0.0005
-1.7329 во первых 0.0456
-1.1089 во сколько -0.0250
-0.7329 вовремя </s> 3.1611
-0.3331 вовсе не -0.1141
-1.4318 вовсе нет -0.0416
-0.7329 водку </s> 3.1611
-1.0339 возможно под -0.0156
-1.0339 возможно я -0.0421
-0.7329 возмущаться когда -0.0392
-0.7329 возникают три -0.0011
-1.0339 возьми </s> 3.1611
-1.0339 возьми так -0.0394
-1.0339 возьму </s> 3.1611
-1.0339 возьму то -0.0420
-0.7329 возьмут бугаева 0.0456
-1.0339 волк </s> 3.1611
-1.0339 волк правда -0.0379
-0.7329 волнует </s> 3.1611
-0.7329 вон какой -0.0081
-0.6756 вообще </s> 2.8138
-1.7743 вообще кто -0.0409
-0.6793 вообще не -0.0402
-0.6793 вообще то -0.0250
-1.0339 вопрос </s> 3.1611
-1.0339 вопрос ты -0.0302
-0.7329 вопросов </s> 3.1611
-0.7329 восемь с -0.0425
-0.7329 воскресенье </s> 3.1611
-0.7329 воспримет </s> 3.1611
-0.7329 восстания сахар 0.0456
-0.7329 востро за -0.0410
-2.1642 вот </s> 3.1611
-2.1642 вот вас -0.0418
-1.0693 вот видишь 0.0717
-2.1642 вот вот -0.0403
-2.1642 вот все -0.0423
-2.1642 вот вы -0.0414
-2.1642 вот выпейте 0.0456
-2.1642 вот дорогая -0.0011
-1.0655 вот и -0.0919
-2.1642 вот как -0.0426
-2.1642 вот например -0.0156
-2.1642 вот наши -0.0011
-1.5402 вот посмотрите 0.0121
-2.1642 вот поэтому 0.0507
-2.1642 вот скажи -0.0316
-2.1642 вот так -0.0316
-2.1642 вот теперь -0.0406
-1.5402 вот ты -0.0417
-2.1642 вот увидишь 0.0456
-2.1642 вот чтобы -0.0404
-1.0339 впереди </s> 3.1611
-1.0339 впереди все -0.0423
-1.0339 вполне а -0.0429
-1.0339 вполне разумные 0.0456
-1.3349 вправду двое 0.0456
-1.3349 вправду думаете -0.0156
-1.3349 вправду не -0.0430
-1.3349 вправду работы -0.0156
-0.7329 вправо или -0.0414
-0.7329 впрочем вы -0.0052
-0.7329 враг </s> 3.1611
-0.7329 врача </s> 3.1611
-0.7329 врачей </s> 3.1611
-1.2100 времени </s> 3.1611
-1.2100 времени зря 0.0456
-1.2100 времени об 0.1883
-1.5110 время </s> 3.1611
-1.5110 время естественно 0.0456
-1.5110 время между 0.0507
-1.5110 время на -0.0331
-1.5110 время надо -0.0396
-1.5110 время провоцируете 0.0456
-1.0740 все </s> 2.0201
-2.6519 все будет -0.0406
-2.6519 все варианты 0.0456
-2.6519 все видят 0.0456
-1.5570 все время -0.0011
-2.6519 все думаю -0.0227
-2.6519 все еще -0.0413
-1.5570 все же -0.0210
-2.6519 все женщины -0.0316
-2.0279 все зависит 0.0121
-2.6519 все играет -0.0156
